264 100
59 -0.049568374 0.06967935 -0.0028882425 0.03334653 0.14477453 -0.09567063 -0.015558536 0.11145634 -0.011975513 0.027426438 0.022688605 0.049136087 0.11108162 -0.09998601 0.17369783 0.0014700782 0.0002976011 -0.09282567 0.011516139 0.029919066 0.0004022811 0.12500803 -0.0032252148 -0.10097396 0.051613763 0.087468326 -0.0284295 -0.027547719 0.20205113 -0.15721829 0.016008465 -0.10005579 -0.06312455 0.06321976 -0.032600526 0.0526976 -0.06986385 0.07525351 -0.0019165153 0.16278186 -0.13802205 0.047199864 0.060703903 0.03892508 0.05880221 -0.09058251 0.15953745 -0.08867114 -0.013619346 0.08665976 -0.07924286 -0.09021685 -0.013010489 -0.096167274 0.06622153 -0.052029584 -0.17848732 -0.031464547 0.0034354648 0.02261646 -0.012472751 -0.006339039 -0.0102678025 -0.025752435 -0.12641175 -0.045117527 0.08742775 -0.010487218 0.01270941 -0.01289981 -0.013374325 -0.0021005678 0.042808786 0.0074084844 0.019741869 -0.01199559 0.019642081 0.08328371 0.02949437 -0.03146861 -0.09793522 -0.11436829 0.021060618 -0.11702372 0.07711653 -0.066201076 0.11165417 -0.12015527 0.13429351 -0.050762303 -0.073704824 0.085285075 0.036245145 0.1253443 -0.074294046 0.0936582 -0.095561534 0.051874764 0.12949243 0.0019674597
260 -0.053654067 0.027596446 -0.027630432 0.038994595 0.1806507 -0.08124745 -0.045776125 0.14800714 -0.009918052 0.026624022 0.048883326 0.04413758 0.11248666 -0.1047046 0.1329009 -0.0056629977 -0.012532735 -0.14605986 0.009407259 0.013562719 -0.008597595 0.15749234 0.0007131361 -0.08751315 0.046401225 0.06902735 -0.018696819 -0.03181447 0.17434226 -0.11850913 0.021028629 -0.14099234 -0.030890608 0.054788765 0.019150442 0.10988279 -0.037621986 0.0577824 0.0047969753 0.1289439 -0.134461 0.047520895 0.08859086 0.030506702 0.07833287 -0.11158591 0.1299219 -0.09819981 -0.055641547 0.101609014 -0.04267249 -0.117673 -0.026939996 -0.13586524 0.06692282 -0.0692679 -0.17535631 -0.033052713 0.02801885 0.062100817 0.0020054416 -0.036781125 -0.052368917 -0.02572186 -0.117123514 -0.06799266 0.068827495 -0.02028247 0.025148125 -0.020247947 -0.041095205 0.0134828035 0.018312752 0.05202747 0.02151846 0.006804872 0.01694872 0.06532917 0.02135786 -0.019612638 -0.06838975 -0.1004227 0.06355106 -0.09349761 0.11433897 -0.038015198 0.066533856 -0.103239916 0.123949714 -0.06783607 -0.10853747 0.069146134 0.070222236 0.13705465 -0.08570174 0.116907105 -0.093280226 0.007643167 0.16003293 -0.0006595357
96 -0.085043505 0.0828438 -0.011277002 0.04885004 0.1738766 -0.07300379 0.021755729 0.08309155 -0.0394358 0.016130459 0.0053655137 0.017307848 0.11835336 -0.09564696 0.14520034 0.006023739 0.0056868033 -0.09546256 -0.030519715 0.04004658 -0.004670287 0.09216186 -0.011473244 -0.062028553 0.08081547 0.0942656 -0.008674895 -0.035049073 0.20087953 -0.1546116 -0.0038676707 -0.052975107 -0.067609444 0.09795679 0.0065465383 0.036172837 -0.08428817 0.06728472 0.020845324 0.1551919 -0.1651288 0.019957528 0.017593147 0.0693861 0.042636614 -0.081813484 0.13025331 -0.073580235 0.004042976 0.07841107 -0.06365034 -0.10444701 0.012535549 -0.07763906 0.08841859 -0.046592917 -0.1694131 -0.024601195 0.04210942 0.032449026 -0.024031095 0.03410066 -0.036874454 -0.016546069 -0.120136276 -0.06932146 0.07075697 0.01480049 0.0058625853 -0.024579948 0.0006365869 -0.028025541 0.009895514 0.007953462 0.009782875 -0.03659644 -0.012902107 0.030775443 0.009934174 -0.005793656 -0.07602036 -0.12769368 -0.019640652 -0.12294077 0.08821375 -0.07172445 0.09783041 -0.104094155 0.17440896 -0.0869398 -0.09902285 0.08394864 0.04784781 0.17373592 -0.051834807 0.08252263 -0.114771724 0.06464197 0.15582258 -0.01354065
237 -0.08236473 0.1277071 0.009072859 0.06148371 0.17597291 -0.08771796 -0.008998804 0.12556866 -0.00024152905 0.02991019 0.031095436 0.014474965 0.0962609 -0.08194714 0.19147804 0.017751826 -0.02450461 -0.09557073 0.047313094 -0.0057831677 0.050725125 0.1196982 0.025323331 -0.07326319 0.0676936 0.10836031 -0.016564941 -0.035453614 0.20261498 -0.153275 0.013271907 -0.107872754 -0.062705174 0.061091956 -0.04758941 0.037025657 -0.06479682 0.09190587 0.0015948279 0.1510457 -0.10508977 0.021734199 0.03531202 0.08488901 0.033322953 -0.05250448 0.1074825 -0.09017271 -0.010172876 0.053046376 -0.008997173 -0.12626822 -0.0023445862 -0.09331847 0.08400276 -0.03239417 -0.18437608 -0.010978748 -0.010325849 0.010568981 -0.041860465 0.0014964686 -0.045730565 0.013891793 -0.10931511 -0.012491318 0.09282047 0.014047471 0.015685422 -0.055802822 0.025299557 0.011514598 0.02558116 0.0059132446 -0.0076486594 -0.017227141 0.033956468 0.039789565 0.018175974 0.002481474 -0.02774677 -0.117795534 -0.007365283 -0.0867144 0.14662138 -0.08956763 0.073511794 -0.12011657 0.105843104 -0.10751585 -0.08185887 0.049931146 0.036488235 0.18840176 -0.08725912 0.08422211 -0.06341703 0.10428606 0.112289496 -0.019819198
189 -0.08436025 0.09148828 -0.0028397595 0.06558808 0.18067427 -0.10018064 0.015992943 0.11647448 -0.036807235 0.038588673 0.012036557 0.0080223465 0.11121315 -0.09665196 0.18118827 0.018916508 -0.010302367 -0.117713094 -0.020803621 0.028766746 0.037442762 0.10056479 -0.022690587 -0.08892613 0.05074248 0.08061253 -0.01690546 -0.02567476 0.18780594 -0.13916022 0.02162496 -0.090765625 -0.0652144 0.06775202 -0.015138836 0.053484462 -0.055368237 0.039440755 0.029135818 0.14008386 -0.15571055 0.042233765 0.049364604 0.08784071 0.043828037 -0.090391055 0.11014793 -0.062128227 -0.027796078 0.09372469 -0.037877154 -0.14034104 -0.054369207 -0.08866884 0.1070123 -0.07218921 -0.15496233 -0.013852885 0.021985343 0.013229181 -0.008614958 0.010255489 -0.0402752 -0.0033043788 -0.11601979 -0.046780266 0.06474855 -0.03392627 6.8303394e-05 -0.013721744 0.0088138385 -0.001334218 0.03788968 -0.0138615575 0.006184375 0.0006595096 0.009685905 0.023001574 -0.00046665157 -0.026705459 -0.07000648 -0.11162597 0.017920418 -0.101938754 0.10511657 -0.08130651 0.11223314 -0.121068366 0.17355444 -0.083059415 -0.064031444 0.08931013 0.019013627 0.1514257 -0.054336578 0.07130941 -0.0930304 0.03396306 0.12359205 -0.016260399
195 -0.110992566 0.06639755 0.0066879075 0.058371738 0.18933965 -0.12545809 0.006327395 0.09202633 -0.023135012 0.021938067 0.027218588 0.041711327 0.10412686 -0.08125711 0.12888403 0.0036345664 -0.016448382 -0.13877405 0.021015435 0.0027784086 0.0038388513 0.0814624 -0.010215715 -0.05286801 0.09784424 0.0861383 0.0016873677 -0.052967627 0.19216077 -0.13595632 0.006413769 -0.0946326 -0.07446578 0.045402307 -0.030751836 0.08635265 -0.08870346 0.03336857 0.010458202 0.17104405 -0.13042086 0.032562073 0.06740474 0.073033124 0.067488834 -0.09301548 0.12005947 -0.14495659 -0.030207543 0.07524709 -0.055097982 -0.111033365 -0.01514204 -0.06478148 0.07746663 -0.03826214 -0.17112178 -0.016521001 0.019355195 0.011109592 -0.030138478 -0.001619862 -0.04194854 0.015253445 -0.11748267 -0.067946 0.036611266 -0.008302458 0.020999491 -0.05062397 0.009903292 0.005422032 0.016159344 -0.021570202 -0.015133462 -0.025353896 0.048688117 0.06188875 0.002813499 -0.018540394 -0.07904451 -0.10501205 0.021865476 -0.08828624 0.08917449 -0.07655441 0.076525934 -0.08290659 0.12992732 -0.06313716 -0.072405465 0.061380565 0.051094666 0.17739806 -0.0785477 0.100443214 -0.13759094 0.030196348 0.13402764 -0.03578104
124 -0.08909928 0.123318784 0.01872004 0.07225831 0.21583617 -0.10620416 0.033130422 0.116979636 -0.0027737482 0.038896337 0.025994437 0.05230887 0.12952752 -0.10347766 0.20935147 0.023641966 -0.018783906 -0.08295806 0.010188827 0.022975449 0.015253464 0.07985235 0.03691985 -0.0846606 0.060857534 0.06125595 -0.015205972 -0.031658176 0.22251602 -0.16917379 0.019903224 -0.075585425 -0.08068123 0.025917698 -0.04857998 0.05063149 -0.0893083 0.013102373 0.02263047 0.14892681 -0.1619316 0.01239169 0.051598147 0.0945116 0.018332535 -0.037700843 0.11324481 -0.094928265 0.0017371399 0.073140085 -0.022918556 -0.13968256 0.0176713 -0.09899138 0.09340134 0.0007056171 -0.14066885 -0.00067626755 0.008058694 -0.025328944 -0.038861345 0.0049843458 -0.022169456 0.019166606 -0.044600934 -0.007698223 0.056998104 -0.017981367 0.0055935048 -0.019963644 0.02523415 -0.006945611 0.0057669394 -0.008213296 0.0006872125 -0.03471041 0.018648341 0.019909596 0.018544551 0.0010909674 -0.09792924 -0.097372815 0.0044822707 -0.11417897 0.10007531 -0.05181723 0.15171807 -0.12744176 0.1292809 -0.06769882 -0.050318975 0.096236385 0.056926426 0.15526052 -0.077002004 0.07515851 -0.061149076 0.053622175 0.1392107 0.013754723
139 -0.04363531 0.12054054 -0.029903231 0.0984642 0.24786694 -0.117813826 -0.0052676005 0.17043424 0.024219908 0.025152804 0.03146298 0.03460937 0.09335376 -0.0913993 0.15445049 0.03170759 0.018589785 -0.07176812 0.036840178 0.023807878 -0.012261828 0.115934335 -0.0076916893 -0.07305618 0.06927008 0.066371 -0.021418864 -0.036827303 0.22623254 -0.15861012 -0.025177192 -0.12892321 -0.074898824 0.010104037 -0.05848355 0.046499327 -0.14507547 0.03033102 0.0071661123 0.1459829 -0.13755676 0.03882235 0.064298004 0.084477305 0.06464997 -0.09106245 0.10152954 -0.08359822 0.013240572 0.072284274 -0.009417481 -0.12297046 -0.011620042 -0.10871931 0.06357044 -0.027320283 -0.17345144 -0.0100711025 0.035338614 0.029363079 0.010264655 -0.021353882 -0.026348097 0.018680189 -0.022039525 -0.00031580302 0.026601823 -0.026903452 0.043319575 -0.049725715 0.0059687546 0.012524385 -0.028852448 0.0067534028 0.047426354 0.000584876 0.05959833 0.029745743 0.01921335 -0.02833705 -0.062623814 -0.08408576 0.069200374 -0.12292468 0.11161891 -0.044087593 0.11104117 -0.10089732 0.088341355 -0.0681512 -0.07753458 0.09310521 0.095093966 0.16466829 -0.08623886 0.08093148 -0.08497954 0.044688027 0.10630819 0.014933009
49 -0.06944758 0.023815881 0.0104478 0.060107786 0.14768331 -0.082684875 0.033435885 0.07580558 -0.012140843 0.03746857 0.018899638 0.044421617 0.10230937 -0.08656438 0.1603371 -0.006638149 -0.0001120654 -0.10643184 0.033730064 0.0065279407 -0.012884569 0.107692346 -0.03174383 -0.08776408 0.0832712 0.0747249 -0.022813657 -0.025324902 0.1965864 -0.11764894 -0.010879095 -0.08229207 -0.02099206 0.08861717 0.002603793 0.033084597 -0.09802293 0.0772135 -0.007762319 0.14125982 -0.13635777 0.019483315 0.06994761 0.07937607 0.07922299 -0.09305036 0.12690566 -0.082019806 -0.0044013667 0.07846071 -0.025800265 -0.091806486 0.026513765 -0.09507975 0.113138795 -0.040333197 -0.19374272 -0.068702504 0.019265918 -0.019105153 -0.0016630347 0.009792841 -0.04950904 -0.0048470255 -0.16683508 -0.053590983 0.046880744 0.039686292 0.023372883 -0.043327972 0.010820023 -0.031480014 -0.0008323518 -0.0134414155 0.020874927 -0.01212453 0.034985878 0.024227235 0.02224083 0.007600536 -0.05573878 -0.138602 0.005406131 -0.1464706 0.08032071 -0.07884816 0.0600462 -0.15272823 0.13693205 -0.063738175 -0.08964001 0.10320959 0.029417407 0.18046778 -0.048506692 0.10261895 -0.117809 0.05520859 0.14925393 0.003586665
7 -0.080213375 0.0794934 0.0016142692 0.09040824 0.25218427 -0.16983183 0.0132825505 0.1539785 -0.011971465 0.05766981 0.031769395 0.049727436 0.07030562 -0.07741348 0.13695462 0.02205094 0.00035175958 -0.11051591 0.02804405 0.01011666 -0.010937075 0.12114617 -0.0012566324 -0.079318166 0.06302737 0.05919362 -0.013383208 -0.038957734 0.18908262 -0.15530373 0.0025258774 -0.13567458 -0.054355893 0.013599169 -0.0453197 0.060203716 -0.10446196 0.026333151 -0.005920958 0.1391373 -0.08792117 0.06072145 0.06234832 0.07274191 0.066398546 -0.06316031 0.11656294 -0.09511721 -0.047502533 0.082595944 -0.0515252 -0.080628 -0.012852379 -0.079975225 0.05081244 -0.022933846 -0.18607828 -0.0477484 0.007633326 0.011200358 -0.002756622 -0.009141231 -0.046954088 0.0061789663 -0.105618946 -0.035436876 0.057467155 -0.04065876 0.058568988 -0.037213247 0.021621604 -0.0073629236 0.023350896 -0.0013233261 -0.0046069953 -0.00717454 0.04069519 0.04534963 0.0053766295 -0.037478607 -0.06639794 -0.095741145 0.057562087 -0.09057647 0.11029815 -0.065296486 0.08545569 -0.11256032 0.124325186 -0.06678456 -0.0469405 0.08308047 0.036912005 0.14816113 -0.078255184 0.1124942 -0.08284749 0.058582153 0.10365263 -0.011092296
56 -0.056062907 0.062863074 0.001228725 0.03178121 0.14464058 -0.045998633 -0.02268865 0.095934674 -0.03149758 0.034599062 0.0015700659 0.026026892 0.11846812 -0.114296794 0.20469385 -0.0121947285 -0.02337213 -0.15538783 0.039549522 0.0051142876 0.038035538 0.10444119 0.044980735 -0.061797764 0.0635156 0.11152068 -0.023172999 -0.014907982 0.17647102 -0.15064602 0.011735657 -0.0998044 -0.0981031 0.073530994 -0.000916449 0.06780397 -0.06831909 0.05122027 0.025937028 0.116457604 -0.13684855 0.05400684 0.073685445 0.0842225 0.044484414 -0.0909976 0.15529731 -0.099029966 -0.047394007 0.08480899 -0.043733492 -0.09221726 -0.012024244 -0.12452741 0.081779234 -0.051131696 -0.16564703 0.015330401 0.00040928743 0.002179951 -0.035432488 -0.01691265 -0.03289358 -0.004641823 -0.123637624 -0.06275342 0.0673269 -0.018992536 0.02865625 -0.015172999 -0.008278003 0.03572723 -0.003062502 -0.011776512 -0.024933789 -0.00685578 0.0338978 0.05985039 0.01602971 -0.026918804 -0.07389158 -0.104745716 0.011898088 -0.11503126 0.09772332 -0.08797422 0.06415174 -0.09260658 0.15905 -0.08321384 -0.08332884 0.09153229 0.058744848 0.16900556 -0.06985971 0.08447509 -0.09215832 0.017220715 0.14420564 -0.00091679214
223 -0.07502161 0.05475667 0.016396042 0.048157945 0.21148676 -0.12745856 0.03752478 0.11338489 -0.06545952 0.03336809 0.035246417 0.042538837 0.09057674 -0.08287235 0.155652 -0.003322462 -0.00902364 -0.11704464 0.048385363 0.016286936 -0.036744896 0.14254117 -0.024579804 -0.06638249 0.06500829 0.06825445 -0.02156718 -0.09318699 0.18939129 -0.14944564 0.01951068 -0.08541951 -0.046134736 0.052900225 -0.026128782 0.043141358 -0.081271864 0.103509076 -0.022397254 0.15610078 -0.10813391 0.017510314 0.036316093 0.029582998 0.04034555 -0.06442811 0.16460645 -0.0896213 -0.022188162 0.10667138 -0.07502791 -0.13140571 0.033832062 -0.078012414 0.053604316 -0.04921163 -0.16551751 -0.04045976 0.027276749 0.038595933 0.011053382 0.015571148 -0.05920601 -0.016522644 -0.14943463 -0.047849912 0.074612916 0.00010769894 -0.004827238 -0.02270099 0.003461736 -0.012933842 0.036234222 -0.008125084 -0.007699398 -0.020244537 0.02787155 0.025442192 -0.0074386895 0.020135863 -0.066262566 -0.13619456 0.0029962 -0.10814971 0.07140347 -0.07923579 0.08651896 -0.11612254 0.11299568 -0.07460349 -0.035804275 0.07883099 -0.009330378 0.14405394 -0.04489282 0.10693215 -0.07683425 0.06356946 0.14819944 -0.045624986
61 -0.063607715 0.052901838 0.018931275 0.047644693 0.21782905 -0.09694905 0.01961396 0.11566895 -0.036269773 0.04576909 0.053004056 0.035510343 0.098345354 -0.11129018 0.1945069 0.0036036002 -0.011224811 -0.12823391 0.041102562 -0.00094484113 -0.027730683 0.11025253 -0.022344934 -0.056180723 0.07881088 0.06820469 -0.025815217 -0.057829138 0.17893386 -0.13764551 0.02759283 -0.08937279 -0.034623116 0.054020867 -0.016846554 0.05224835 -0.07478203 0.054962873 -0.023786234 0.14259647 -0.09906204 0.052702907 0.030977234 0.06537053 0.02747824 -0.052061025 0.15000378 -0.098886415 -0.018639596 0.107317366 -0.044906065 -0.10079237 0.020321786 -0.11011644 0.06952366 -0.016442627 -0.16223195 -0.03568395 0.050170917 0.009141554 -0.03700246 -0.015399452 -0.053959552 -0.013187985 -0.12124229 -0.041693624 0.068830565 0.044334278 0.023671426 -0.027744552 0.023219915 -0.014731237 0.039616752 -0.0048219687 -0.00013345903 -0.04660275 0.055938717 0.037726205 0.03416878 -0.0011438843 -0.06581741 -0.12664723 0.004999186 -0.10612032 0.08047416 -0.0727835 0.053384062 -0.08731409 0.14199343 -0.1127081 -0.061976742 0.086679004 0.025898173 0.16753325 -0.06379365 0.112228766 -0.084477074 0.0481818 0.14599057 -0.000701493
252 -0.08751737 0.08004772 0.00091840245 0.08225402 0.22049038 -0.14437523 0.031038208 0.12738939 -0.025850955 0.026832225 0.027642995 0.043755848 0.09968733 -0.07474128 0.19635415 -0.005122473 -0.013977721 -0.09011539 0.06706286 0.020739479 0.0056430446 0.06965621 0.028564472 -0.05784276 0.048502304 0.07565883 -0.00534441 -0.029908907 0.22613768 -0.14016898 -0.0037451386 -0.09839437 -0.03747348 0.046612162 -0.037345693 0.03772164 -0.08185285 0.07397231 -0.0054082437 0.12682532 -0.15247059 0.05981378 0.065890126 0.06842563 0.021676837 -0.066236444 0.094668284 -0.071581975 0.0038922995 0.08132911 -0.028764151 -0.10992128 0.076000996 -0.075427175 0.0481244 -0.022279875 -0.16250028 -0.03944637 0.0440684 0.034088604 -0.03852586 0.048543084 0.003895313 -0.002764177 -0.11188727 -0.027206622 0.0985143 0.018532334 0.053291555 -0.037670694 0.019378083 -0.012652755 0.025412276 -0.009051445 0.031084156 -0.059364773 0.014596753 0.02801191 0.010917603 0.013217748 -0.070138365 -0.11841776 -0.0073164008 -0.12218467 0.085990466 -0.07455403 0.09002417 -0.115940005 0.13832471 -0.07173637 -0.08541888 0.07366626 0.02369968 0.14350434 -0.05267895 0.11462505 -0.050824556 0.06500247 0.14218722 -0.0253617
109 -0.050406814 0.070644334 0.0043433476 0.07014856 0.22962442 -0.124618866 -0.022777611 0.1689559 0.003137844 0.061039407 0.026428029 0.0043494604 0.07488284 -0.09149569 0.15796855 0.020362444 -0.0124136945 -0.13148385 0.06444692 -0.012913404 0.039336722 0.1173957 0.0056239422 -0.059311796 0.037273858 0.069663234 -0.026030412 -0.01811698 0.15678298 -0.14303753 0.0132873915 -0.14744309 -0.061534695 0.031261995 -0.03624388 0.04489199 -0.09250006 0.0726232 -0.009940761 0.14248379 -0.118310556 0.07496228 0.048574988 0.09151174 0.08049798 -0.08113852 0.10802869 -0.05178241 -0.032069974 0.08152754 -0.056720465 -0.11352826 -0.02080669 -0.111380525 0.03874663 -0.06844368 -0.1754529 -0.0075035943 0.009758063 0.036277335 -0.012713118 -0.014743387 -0.062030174 -0.01904292 -0.099250354 -0.052371953 0.068243675 -0.026213631 0.008511278 -0.014799737 0.0002853169 0.04182206 0.024164844 -0.0011312127 0.02606514 -0.019401535 0.043878097 0.045340896 0.030552633 -0.023404263 -0.03972918 -0.089753985 0.038597636 -0.088419214 0.14989041 -0.10028506 0.066975825 -0.13165559 0.126965 -0.063376874 -0.0537331 0.06382026 0.053593732 0.14802182 -0.07555228 0.11050579 -0.09733608 0.035675593 0.10663369 -0.011178201
198 -0.072506115 0.0796684 0.015083403 0.043826938 0.16815068 -0.118651085 0.0035609286 0.16494521 -0.011271428 0.011791367 -0.031325612 0.027480073 0.113466024 -0.082384475 0.14119089 -0.019828305 -0.045104522 -0.12780914 0.014550294 0.01461731 0.07162286 0.12276731 0.055407055 -0.0848987 0.058804564 0.10062078 -0.010896014 -0.007645975 0.18087846 -0.1560446 -0.009227616 -0.10111525 -0.07288659 0.08584535 -0.015680714 0.017032085 -0.07365505 0.044597067 0.039347757 0.12988034 -0.15740088 0.049406715 0.034299016 0.0802445 0.03551918 -0.0763227 0.10553468 -0.079491034 -0.03572659 0.095512845 -0.03455157 -0.13046677 -0.02436648 -0.09695088 0.08505853 -0.03107806 -0.17879136 -0.01646701 -0.01640281 0.017394133 -0.040191818 0.0136871915 -0.0781134 0.0095786825 -0.13313115 -0.068879 0.053465974 -0.019310731 0.0038881626 -0.02827171 0.00063679635 0.01700469 0.0023716963 -0.0023680415 -0.008149789 0.005611486 0.02881371 0.027400432 0.03958021 -0.062764615 -0.03995245 -0.07779341 0.030001434 -0.094987586 0.10384368 -0.041333135 0.08670431 -0.13334168 0.13509688 -0.10035855 -0.058354765 0.072511554 0.0584009 0.15573058 -0.08809521 0.0869296 -0.097933605 0.068923645 0.13858221 -0.012068258
263 -0.036989667 0.044461858 0.0018407757 0.055909593 0.14116904 -0.091405205 0.01674792 0.11925706 -0.011706322 0.021817865 0.020741252 0.026203617 0.09960399 -0.06845462 0.12990457 0.012812036 -0.0039908686 -0.09425963 0.0041422658 0.0259674 -0.00069638126 0.1329849 -0.0010293471 -0.09978049 0.055978008 0.083963394 0.00477765 -0.015153696 0.192506 -0.12457038 -0.006439798 -0.100180574 -0.035149164 0.10915638 0.014331601 0.039285205 -0.025218237 0.085651584 0.03290708 0.11640158 -0.14477931 0.08506316 0.06418705 0.05191446 0.060932066 -0.08540732 0.12119135 -0.066474974 -0.0071477587 0.11175731 -0.04774213 -0.12965454 -0.015151027 -0.09509994 0.0778587 -0.07117789 -0.15546688 -0.0374831 0.04027699 0.04564651 -0.041464105 0.022263927 -0.047589976 -0.011296507 -0.1570202 -0.046941604 0.060673837 0.013517024 0.02256628 -0.01676447 -0.0150110675 -0.0073321075 0.047374345 0.022543117 -0.006532477 -0.024820974 0.014639928 0.057363514 -0.020729061 -0.018576343 -0.049627952 -0.106638335 -0.006816096 -0.13586847 0.10645259 -0.084776215 0.10459813 -0.11890824 0.1935395 -0.12476711 -0.112083346 0.09064733 0.016492458 0.18333128 -0.04120356 0.0840657 -0.0924743 0.06055089 0.1500498 -0.008698415
123 -0.025344627 0.041068327 0.006976468 0.021396296 0.17365567 -0.09225139 -0.004604066 0.16258323 -0.020545466 0.019740516 0.011453545 0.04786031 0.119691536 -0.0720028 0.16562976 -0.011129677 -0.028275719 -0.114750534 0.05742712 0.01381099 0.027704071 0.14025375 0.013746077 -0.06804833 0.08143264 0.095850594 -0.03252817 -0.035395943 0.21816471 -0.1486803 0.015092627 -0.12232322 -0.10223231 0.072712705 0.019743657 0.046966195 -0.031334203 0.0646528 0.013721429 0.11171716 -0.13797124 0.08970542 0.09995837 0.048334423 0.056625135 -0.09231902 0.14708275 -0.081524365 -0.017496962 0.10222808 -0.026910074 -0.11120091 0.01627647 -0.12367588 0.06388451 -0.07383707 -0.17845432 0.008653988 -0.0058177942 0.04402334 -0.04665601 -0.0061076093 -0.016465634 -0.017020527 -0.10465015 -0.04096571 0.09367603 0.0048504206 0.011402942 -0.0024564166 -0.022644933 0.03524036 0.0059576607 0.02387796 0.022221819 0.041091114 0.059570476 0.066580035 -0.004925915 -0.0056120763 -0.059391625 -0.08749664 0.012034633 -0.12269691 0.09038336 -0.06643277 0.06702704 -0.108743876 0.096674085 -0.08884513 -0.09277003 0.05815387 0.04684072 0.14600784 -0.08693948 0.09987185 -0.09114528 0.004502615 0.14663202 -0.03419519
8 -0.09212446 0.06945445 0.018019773 0.070081316 0.23804161 -0.11746636 0.0029053653 0.116001986 -0.01207547 0.029149542 0.040889908 0.0811736 0.07488303 -0.08766316 0.13068141 -0.011338169 -0.014800642 -0.14633088 0.043680374 -0.0032480936 -0.0040879496 0.07982494 0.013970831 -0.06965784 0.060538463 0.05505056 -0.05529287 -0.0044012596 0.20856516 -0.14729147 -0.008522745 -0.121527605 -0.05261259 0.029833782 -0.030344004 0.06567719 -0.07943146 0.034749016 -0.02283133 0.14309368 -0.12657699 0.037383866 0.05964631 0.07014424 0.062113803 -0.10534032 0.08642536 -0.058325164 -0.008391023 0.098416746 -0.03623071 -0.11442866 0.029474834 -0.11516953 0.0754704 -0.050981253 -0.184565 -0.060936514 0.004800672 -0.0033872484 -0.019945782 -0.0016267449 -0.034059145 0.0039311433 -0.10775265 -0.023010802 0.037672866 -0.012325079 0.04435576 -0.021629142 -0.009877609 0.004867702 -0.012900873 0.0028197581 0.04871149 -0.012719964 0.05706827 0.033230964 0.03999288 -0.024278948 -0.06894881 -0.09028755 0.017437454 -0.115035184 0.09752059 -0.048249293 0.028654011 -0.12443488 0.1207281 -0.047562577 -0.08462824 0.09900408 0.054188166 0.17654707 -0.074976444 0.11808955 -0.09823246 0.024193682 0.141467 -0.0099455565
10 -0.07095277 0.10829979 -0.0034233024 0.07356363 0.20382573 -0.116185516 0.033266675 0.12570703 -0.03044593 0.022764292 0.021885512 0.020383539 0.09151651 -0.08958139 0.16267611 0.014966553 0.0062045 -0.10799405 0.03220233 0.026160939 -0.014301613 0.088172324 -0.016674818 -0.07623888 0.0511757 0.082033455 -0.017316379 -0.024526825 0.19942322 -0.14705418 -0.0013969075 -0.09455147 -0.049636424 0.07185527 -0.04307662 0.05179753 -0.06738873 0.062861115 -0.0036725323 0.13953428 -0.1310842 0.031213317 0.0663838 0.045731865 0.0405148 -0.06608499 0.10987148 -0.095425636 0.008777114 0.07046035 -0.044048443 -0.15857908 0.0014611467 -0.08368166 0.064906284 -0.048040204 -0.16254589 -0.014608284 0.030182833 0.03352544 -0.043908484 0.01621074 -0.042426296 0.021200893 -0.09201385 -0.025170354 0.07060662 0.00395969 0.0059183473 -0.002391794 -0.0014229182 0.012462927 0.033305682 0.005356348 0.007789176 -0.0319396 0.0142170815 0.046554957 0.0025519815 0.032073975 -0.06616634 -0.107711524 -0.0035077601 -0.100691535 0.09941617 -0.07735278 0.12602001 -0.14213097 0.14461502 -0.09255459 -0.08145154 0.06029165 0.014712482 0.18554768 -0.06396869 0.089189194 -0.087473616 0.057069518 0.109124176 -0.030123515
226 -0.06325427 0.028248709 -0.0002790791 0.07414218 0.2758997 -0.14780347 0.010635629 0.1339861 -0.06874912 0.06872818 0.010966334 0.019417223 0.062061965 -0.06488856 0.18641815 0.0070693837 -0.009555288 -0.15003176 0.031734854 0.002934381 0.040636234 0.12867166 -0.018912332 -0.070240624 0.023074305 0.04388009 -0.022844782 -0.05327056 0.18656619 -0.1374428 0.039506566 -0.14960586 -0.03264612 0.04457478 -0.04853159 0.025445338 -0.061974123 0.06263665 -0.00844562 0.14377205 -0.108439825 0.08215893 0.021527212 0.073577866 0.025730789 -0.054718196 0.10587393 -0.073240176 -0.03177975 0.12312112 -0.023375792 -0.11268093 -0.033558495 -0.075452626 0.07398257 -0.037716713 -0.13641874 -0.009321802 0.033594243 0.035225704 -0.053609222 0.015310333 -0.036543142 -0.010499951 -0.14751582 -0.053493068 0.07551094 0.021527318 0.0131010525 -0.035185687 0.008071197 -0.020381652 0.053605087 0.0056489 -0.023470117 -0.042147163 0.062066022 0.041019827 -0.015875349 -0.034215827 -0.031066418 -0.07919542 -0.015175505 -0.10033014 0.10420972 -0.121495195 0.057593174 -0.104272865 0.17356715 -0.084750846 -0.018041383 0.052574884 0.019769011 0.15098582 -0.081373274 0.06883731 -0.09423461 0.02960887 0.13362086 -0.002810229
76 -0.06370289 0.062465716 -0.017029997 0.043252017 0.19312026 -0.15656309 -0.018439123 0.12535493 -0.054318503 0.045263827 0.008543512 0.015497416 0.08462836 -0.08817794 0.15994121 -0.01853238 -0.01914675 -0.10865104 0.027617486 0.0124221 0.027747558 0.100583866 -0.007515142 -0.10054307 0.032009847 0.07023219 -0.056055788 -0.03776542 0.20573917 -0.15052965 0.01959209 -0.12936462 -0.036083657 0.037712943 -0.023944506 0.06873219 -0.052456066 0.10008879 -0.030734314 0.1515557 -0.104748406 0.04834788 0.06577211 0.040613055 0.04934862 -0.07354278 0.15840408 -0.07756446 -0.016735971 0.09107452 -0.08194232 -0.1162464 -0.032682415 -0.053432595 0.07102279 -0.06323013 -0.15767619 -0.030012427 0.043514974 0.0038489802 0.00086884864 -0.0065586297 -0.026501108 -0.03531181 -0.17312568 -0.075720966 0.062207498 -0.01351184 -0.008563967 -3.833534e-05 0.019177865 -0.019182919 0.07865059 -0.030468278 0.0043554986 -0.05096257 0.019416716 0.065878004 0.04181456 -0.014121207 -0.07073556 -0.11645295 0.0021962437 -0.1191355 0.10201486 -0.07030599 0.093078405 -0.11645606 0.15617983 -0.07591071 -0.038172532 0.058655288 -0.0030667717 0.122265026 -0.036758386 0.10347884 -0.0966213 0.0454901 0.107979804 -0.043687455
113 -0.09091004 0.08973403 0.002535895 0.07334877 0.18941297 -0.13645405 -0.00013748316 0.09363862 -0.04388718 0.053820346 8.600779e-05 0.031389367 0.09162477 -0.119210415 0.18357395 -0.001754321 -0.005757493 -0.14557102 0.03208307 0.0045033735 0.053179488 0.096243985 0.038824003 -0.06910409 0.03770336 0.08513918 -0.019567149 0.0016238395 0.18534973 -0.17317285 0.018573754 -0.112903796 -0.033412535 0.050880786 -0.043714758 0.061058383 -0.07617134 0.054801438 -0.008146156 0.12759326 -0.14641678 0.060138233 0.07330782 0.09064369 0.034378625 -0.06469398 0.10314446 -0.086806655 -0.041867238 0.0782853 -0.043594953 -0.10675607 -0.0074039698 -0.08483504 0.029919956 -0.06364417 -0.15872388 -0.02024232 -0.013062258 0.010478014 -0.00082851667 -0.00027252646 -0.044151448 -0.0012236136 -0.13129996 -0.06470083 0.09007376 -0.026694737 0.0326148 -0.040893864 0.003808888 0.029140282 0.026352463 -0.015200745 -0.022239484 -0.04029476 0.0032278053 0.07699284 0.019237092 -0.039436672 -0.060960945 -0.089269266 0.0443387 -0.11022503 0.114902474 -0.073308155 0.108122446 -0.13673107 0.15438859 -0.0600398 -0.03652383 0.047180545 0.017564438 0.13777623 -0.06810292 0.08239896 -0.08239785 0.036546618 0.117597595 -0.016966838
79 -0.08648423 0.081544176 -0.024382228 0.10480561 0.19838347 -0.09937214 0.02639271 0.09440885 -0.038171485 0.020150816 0.00091118336 0.042875458 0.09470037 -0.112636715 0.16514589 0.003708036 0.0056330515 -0.1510826 0.041074656 0.04111901 -0.012411348 0.07685988 0.021429205 -0.0987668 0.025533574 0.075037986 -0.0067723123 -0.010285032 0.20184465 -0.16476256 0.02127837 -0.0892726 -0.045904342 0.08649676 -0.0017453509 0.042756088 -0.07742548 0.05786002 0.015587483 0.13829142 -0.16182573 0.056157205 0.08877981 0.06519904 0.029706413 -0.08473053 0.096924014 -0.08839369 -0.03058717 0.08407964 -0.030596908 -0.14208263 0.037115045 -0.091316074 0.042193763 -0.067022294 -0.18628182 -0.041607447 0.019285137 0.037772547 -0.023162968 -0.003396129 -0.046977885 0.02846623 -0.0995522 -0.019216 0.034736846 -0.020362597 0.04586477 -0.0062377616 -0.047448855 -0.015145917 0.023423335 -0.0040520635 0.00547705 -0.028247338 0.0006442507 0.012307272 0.02243138 -0.006011809 -0.069486104 -0.08546392 -0.0029952612 -0.12874886 0.06988399 -0.054349028 0.12234699 -0.12277706 0.16644798 -0.06796321 -0.0581928 0.07547289 0.020046314 0.15504892 -0.04988195 0.10391733 -0.09275506 0.0381568 0.100412995 -0.011763081
158 -0.09042646 0.090899065 0.0105075 0.027012121 0.17398977 -0.10491179 0.008855259 0.07620156 -0.009801473 0.0101770675 0.046646506 0.03280233 0.076791145 -0.09817237 0.16002414 0.027440341 -0.01788865 -0.11503605 0.047088355 0.017569013 0.0029861713 0.063916706 0.0060855565 -0.05552646 0.06172849 0.09652578 -0.0054209786 -0.030588938 0.16344622 -0.15733565 -0.0007751106 -0.10307146 -0.054279786 0.06843096 -0.012867076 0.04141212 -0.087050125 0.06939328 -0.04031599 0.13858329 -0.12164843 0.032683887 0.046633806 0.077759914 0.05183077 -0.09143468 0.10437149 -0.094470955 -0.008645514 0.07194721 -0.051394362 -0.08920989 0.027078664 -0.07446992 0.055335656 -0.04561257 -0.18434773 -0.054573294 0.027955493 0.020471506 -0.020493692 0.0029166567 -0.024969429 -0.0041797613 -0.15319906 -0.055908147 0.048061837 0.015009892 0.01667861 -0.02856103 -0.0053690514 0.0020287856 0.038341913 -0.00078899733 0.007852083 -0.03621772 0.04915476 0.06388516 0.00910319 -0.0010204705 -0.07937432 -0.14502484 -0.01841807 -0.1320238 0.098626636 -0.10150315 0.07809916 -0.12623657 0.14052705 -0.07453794 -0.08750358 0.10219793 0.03303689 0.18153301 -0.077620395 0.10994173 -0.105259754 0.053573728 0.14755918 -0.020565504
253 -0.054943502 0.074585445 0.0046369545 0.07493315 0.1702132 -0.114151135 0.004353241 0.1351078 -0.037769787 0.016478987 0.023640567 0.02089585 0.09410071 -0.07402964 0.14328729 0.0025358973 0.0069219368 -0.085497506 0.011540883 0.022873899 -0.0055511347 0.120404564 -0.021136098 -0.101459645 0.0504576 0.069008775 -0.035269722 -0.025140755 0.17348018 -0.12018335 0.008301461 -0.115625896 -0.025096089 0.08396561 -0.010638442 0.030042784 -0.046556443 0.08093065 0.005588036 0.09836255 -0.11876947 0.07572555 0.04974207 0.030699883 0.06369761 -0.07473994 0.13029298 -0.099750414 -0.008046219 0.08965767 -0.05110321 -0.1220397 -0.026184242 -0.11195245 0.054596055 -0.07397449 -0.18050304 -0.018532313 0.021769634 0.056837205 -0.032813966 -0.0018132034 -0.04226796 -0.004404497 -0.1304798 -0.035785574 0.036732227 -0.01273953 0.026844705 0.008927195 -0.021611003 -0.023625804 0.05004068 0.0243137 0.011291924 -0.02491521 0.0034135308 0.06640601 0.00975312 -0.0028086125 -0.07517298 -0.10541701 -0.009063568 -0.13597877 0.088499516 -0.090466656 0.083777 -0.12913883 0.18577802 -0.11809063 -0.11523264 0.08127577 0.016383203 0.17093816 -0.091908865 0.11063042 -0.0861023 0.051408328 0.12858401 -0.050162707
212 -0.0350167 0.03088241 0.005205445 0.044448905 0.16861999 -0.107761025 0.027327003 0.1117284 0.0012936941 0.010378098 0.017997248 0.0056269807 0.09636761 -0.09201047 0.14235139 -0.014935327 -0.0032957818 -0.119974345 0.03854754 0.0023819727 0.014719501 0.079852395 -0.043819573 -0.05150472 0.07750909 0.06984537 -0.017998198 -0.039783392 0.17032799 -0.13803023 -0.018310698 -0.110666126 -0.039791793 0.048823215 0.011369744 0.040152904 -0.07795646 0.059955366 -0.004210693 0.11662132 -0.12151964 0.04853378 0.059755087 0.080767564 0.0611321 -0.101083964 0.1301335 -0.1069838 -0.033073757 0.098842 -0.061804924 -0.111786425 -0.03309792 -0.10165219 0.054939825 -0.03023061 -0.18812275 -0.028624376 0.04481215 0.033429626 -0.017508538 -0.0040370435 -0.036882225 -0.022945348 -0.16292939 -0.06920446 0.07128954 -0.011091409 0.037611745 -0.011675125 0.032833632 0.0028646886 0.022291943 -0.0027120265 0.020348897 -0.03638025 0.030338239 0.03762431 0.0069562523 0.000102860016 -0.07034196 -0.10886313 0.037699804 -0.13853478 0.08977178 -0.09191268 0.10036769 -0.11741358 0.15284157 -0.10022319 -0.09677797 0.08660233 0.016930137 0.1653608 -0.04956957 0.12622063 -0.12164082 0.05948072 0.13958651 -0.0428063
143 -0.04593842 0.030582177 -0.018467415 0.057080187 0.19852547 -0.1030984 -0.025073456 0.110591285 0.001486341 0.06376525 0.022330375 0.03562459 0.06700145 -0.07381738 0.12841614 0.0010091248 -0.0062195947 -0.09769441 0.02189639 0.0023080506 -0.0022562062 0.1346047 0.0049218824 -0.07193885 0.05299966 0.075266205 -0.025683368 -0.009607054 0.14437066 -0.13442646 -0.014545092 -0.1349593 -0.0662153 0.051979024 -0.030093992 0.071192235 -0.09958323 0.042559005 0.01810825 0.15398987 -0.10464533 0.05425593 0.07216713 0.08069019 0.09225619 -0.08973813 0.13015766 -0.07044999 -0.0491114 0.08155509 -0.053784057 -0.10743093 -0.025983386 -0.09856877 0.0890098 -0.03723602 -0.18687038 -0.03173982 0.015034278 0.0253348 -0.007684229 -0.0047978265 -0.045644905 -0.029989265 -0.12120288 -0.04957191 0.07503676 -0.00546906 0.014449347 -0.039201923 -0.009611384 0.0091640055 0.0054933955 0.014519328 0.019440684 -0.015459685 0.05425065 0.022411585 0.010305565 -0.023347367 -0.07874981 -0.13091847 0.03040599 -0.09676765 0.11365299 -0.08051716 0.06302599 -0.14294532 0.15805058 -0.08309506 -0.07956164 0.101079 0.052025005 0.16446967 -0.104958706 0.09043232 -0.11273938 0.036962904 0.13540782 0.0032087956
152 -0.08190648 0.07008094 0.018690169 0.06743147 0.17938097 -0.081804276 0.003313563 0.082671 -0.03149081 0.025126144 0.012871751 0.025603246 0.07337854 -0.07951329 0.14361583 0.0034209022 -0.011269277 -0.15399902 0.046123907 -0.007777875 0.0010087678 0.10795898 0.0048353183 -0.06404461 0.064392515 0.08102676 -0.0121476 -0.062323857 0.19386643 -0.14813101 0.024052644 -0.109168574 -0.06185344 0.052028786 -0.013969129 0.07009413 -0.093969315 0.06416856 -0.010789331 0.11581156 -0.09975496 0.052120477 0.040355105 0.07641721 0.060673445 -0.0799118 0.12062141 -0.08813992 -0.032098785 0.1176605 -0.050507594 -0.12238468 0.0050063916 -0.095300704 0.071651034 -0.054037504 -0.17146264 -0.014729711 0.020961462 0.0406599 -0.020093407 0.0007438216 -0.05778366 0.01429075 -0.1335569 -0.059354782 0.057173446 -0.01877159 0.03777927 -0.020352341 -0.015990976 0.016792065 0.024574768 0.00430924 -0.030368797 -0.03952503 0.040518627 0.051327396 -0.004279388 -0.023416623 -0.05782496 -0.10691333 0.0043012877 -0.11658084 0.10275625 -0.10459355 0.065762915 -0.09737122 0.14905544 -0.09192755 -0.06092091 0.06577749 0.039707 0.18430807 -0.07295944 0.10052273 -0.12432355 0.03505471 0.13398075 -0.024168955
184 -0.08422885 0.07851822 0.015584834 0.07088186 0.18278408 -0.12016349 0.031364404 0.108767174 -0.021923276 0.024364984 0.022835147 0.024022307 0.110483095 -0.0782003 0.15289015 0.009621058 -0.0069477023 -0.116288245 0.003909574 -0.008490457 0.024634616 0.108969465 0.019953432 -0.08492189 0.060129132 0.05923846 -0.017167985 -0.0518162 0.21253847 -0.12257128 0.01087739 -0.07240191 -0.057526723 0.075585976 -0.005489732 0.10150428 -0.056754902 0.049144328 0.019605659 0.09703371 -0.14531232 0.04224845 0.080758296 0.055475798 0.07777061 -0.07590628 0.11091862 -0.09587485 -0.03542037 0.10533587 -0.03393159 -0.15104342 -0.004015557 -0.08746342 0.09624002 -0.061744917 -0.17236198 -0.030676894 0.021789338 0.04545733 0.008251488 0.013066183 -0.05005353 0.018250007 -0.14568338 -0.07877515 0.05764678 -0.023273045 0.029841948 -0.030155467 0.015500297 0.026106983 0.030214489 -0.012639481 -0.0102818515 -0.041284837 0.008195526 0.060575455 -0.012623693 -0.014035149 -0.051103868 -0.09275286 0.016303731 -0.10426775 0.10448339 -0.055935826 0.10134107 -0.13893874 0.13076845 -0.0917355 -0.058260318 0.07647357 0.025459558 0.14689267 -0.034160998 0.084736854 -0.106719434 0.040913317 0.13361229 -0.027535085
153 -0.076160386 0.08383569 0.016167464 0.07026252 0.19253345 -0.15209067 -0.012702174 0.15315898 -0.03235636 0.065285824 0.027081747 0.030025162 0.074961014 -0.07345131 0.1268069 0.0014010896 -0.02353502 -0.09751407 0.025962058 0.01881902 0.028224453 0.13870057 0.021468943 -0.09138262 0.05398908 0.080903895 -0.023779806 -0.027899355 0.18519905 -0.14757988 0.019641967 -0.10209353 -0.049827464 0.065121196 -0.03099985 0.047833715 -0.048939556 0.07516317 0.007462016 0.14726844 -0.091634005 0.06633204 0.033085864 0.05208939 0.054325398 -0.047601458 0.14387473 -0.068606764 -0.029382592 0.08719055 -0.054677945 -0.11749592 -0.023125546 -0.093735695 0.06484485 -0.045921527 -0.20103747 -0.010859696 -0.013278782 -0.002953968 -0.04092873 -0.0020983769 -0.040712822 -0.020343876 -0.14394252 -0.043433726 0.06060428 -0.019689996 0.015747191 -0.019897044 0.0060695456 -0.012897744 0.035703104 -0.0069787605 -0.011830673 -0.0007078755 0.03893964 0.061790943 0.013950424 -0.06830437 -0.06284241 -0.123658605 -0.0015398728 -0.08758001 0.1275903 -0.058301788 0.07176216 -0.13113424 0.13978048 -0.09993167 -0.046430122 0.08375927 0.02078665 0.15505753 -0.076156266 0.08679628 -0.08735123 0.07144707 0.09865423 -0.017967027
221 -0.07790215 0.07171373 -0.011421462 0.059383243 0.23910855 -0.13003223 0.033417482 0.121471815 -0.0261385 0.040858105 0.01725994 0.017498959 0.095758714 -0.084368065 0.16553938 0.018712215 0.0062219775 -0.1175992 0.027972477 0.0086341845 0.03452518 0.09980627 -0.00016118148 -0.057858974 0.04453157 0.052589454 -0.013970676 -0.039953962 0.19331835 -0.15647697 -0.00744836 -0.11855172 -0.041096844 0.05957245 -0.033031233 0.03712902 -0.08931789 0.03967188 -0.019969355 0.11908234 -0.13734704 0.0748626 0.037681777 0.08766102 0.052849986 -0.09456628 0.11026187 -0.08452097 -0.048179697 0.10373299 -0.026323866 -0.114838585 -0.02144306 -0.07781521 0.06610875 -0.05848463 -0.16526876 -0.018862613 0.022257436 0.025529342 -0.026348587 0.023976251 -0.029444885 0.023464542 -0.14082955 -0.05503725 0.060423568 0.0062482483 0.055419113 -0.032657564 0.01727418 -0.005699722 0.025183167 -0.0017334508 -0.012493182 -0.031640213 0.035270575 0.04389577 -0.033840403 -0.024300277 -0.04086036 -0.07947022 0.011110531 -0.110053435 0.09792011 -0.087447256 0.08688164 -0.12401927 0.15974164 -0.06843348 -0.057789966 0.08928064 0.027343832 0.13782047 -0.07181972 0.07854524 -0.08339901 0.027325787 0.1239309 -0.013443942
264 -0.099035 0.055485234 0.013285902 0.08810119 0.23057014 -0.14026995 0.017283374 0.113422096 -0.043929707 0.044323944 0.03975787 0.034915805 0.09140376 -0.08160807 0.14763524 0.014753554 0.0027637943 -0.13439183 0.03526162 0.006928862 -0.005671936 0.119464144 0.0016458591 -0.075954184 0.071216986 0.059052464 -0.028838584 -0.067713395 0.17910127 -0.15831313 0.008267883 -0.12216219 -0.025361406 0.050172124 -0.025085751 0.07477006 -0.100504056 0.05507348 -0.0270624 0.17113265 -0.10626602 0.02208308 0.024773981 0.076808296 0.05941882 -0.06351868 0.122632764 -0.067082666 -0.043643706 0.12036606 -0.031200543 -0.12420253 0.016950315 -0.09211173 0.08739675 -0.026013058 -0.16142279 -0.054750014 0.031907067 0.028961418 -0.003939132 -0.014311194 -0.06986913 0.0040638973 -0.13756952 -0.049942516 0.071412906 0.0041951817 0.02044028 -0.032045964 -0.022670208 -0.016943412 0.024642963 -0.004556693 0.009088291 -0.04409014 0.03864197 0.00595385 0.013165387 -0.018471416 -0.05569908 -0.1113944 0.021939443 -0.08073532 0.08456534 -0.056449194 0.061931547 -0.10093343 0.11204208 -0.05862998 -0.027405748 0.08832594 0.041601814 0.15541478 -0.068638004 0.110875204 -0.074802674 0.05269182 0.13399525 -0.0091388635
178 -0.080914475 0.078266315 -0.008064128 0.08516056 0.22712746 -0.09888391 -0.003284138 0.13414843 -0.022869153 0.026917184 0.010827373 0.038806632 0.08182266 -0.113644876 0.16322291 0.0030657852 0.0093080085 -0.135358 0.042446576 -0.007535833 0.0006393502 0.1282835 -0.004946555 -0.07766835 0.034305945 0.0771293 -0.046507742 -0.019769575 0.19350871 -0.17291252 0.019490138 -0.13702315 -0.046069704 0.050530866 0.002495007 0.05268948 -0.07291927 0.0609516 -0.021270197 0.090158276 -0.11867607 0.0678696 0.04772846 0.04783393 0.057073608 -0.06963524 0.13702567 -0.060490284 -0.023728259 0.10044537 -0.043041572 -0.087722525 -0.003133351 -0.10967981 0.080380514 -0.063467875 -0.19013265 -0.005449293 -0.018611295 0.030626858 -0.01269775 -0.026147762 -0.05324559 0.012392304 -0.103473395 -0.06964606 0.06358807 -0.015487315 0.02792101 0.004103694 -0.02832638 0.017109113 0.019595826 -0.00032253278 -0.004786705 -0.00989313 0.029079204 0.05518866 0.0044039367 -0.020276105 -0.061490513 -0.108353354 0.006875958 -0.103623 0.09923953 -0.07587513 0.08426828 -0.14470045 0.12612915 -0.0657446 -0.03275593 0.09002407 0.029455505 0.13462919 -0.06595003 0.094988994 -0.09526982 0.031844843 0.11267143 -0.010582155
104 -0.09618248 0.065732606 -0.013130154 0.08512591 0.21165979 -0.1183714 0.0067751775 0.13420127 0.000323972 0.029108314 -0.0007694046 0.039635085 0.08778726 -0.09285579 0.12934317 -0.008945777 -0.031098083 -0.14480503 0.017140077 0.012307628 -0.00846686 0.12359614 -0.026742293 -0.07972375 0.084805034 0.07594998 -0.015949076 -0.039380588 0.19012922 -0.15839037 0.018977245 -0.107004076 -0.057015415 0.052892618 0.032406304 0.06478778 -0.07856267 0.066113405 0.022966266 0.16005822 -0.11705486 0.022102538 0.0866834 0.07712034 0.07335197 -0.08492482 0.14672324 -0.09839376 -0.043311328 0.095613874 -0.031710397 -0.11558413 0.0034751787 -0.093469724 0.07700734 -0.064734794 -0.17824493 -0.019736242 0.0178792 0.029856084 -0.0041878927 -0.02184886 -0.05277152 -0.012078597 -0.10244202 -0.05474481 0.03087118 -0.01663944 0.024083897 -0.034743134 -0.01973509 -0.025229044 0.0054325513 -0.000121808254 0.035532314 0.0027132286 0.0023461857 0.00677834 0.023560224 -0.030343423 -0.06820632 -0.12651126 0.0064871735 -0.096564874 0.09291612 -0.043477055 0.06962366 -0.09440129 0.10423234 -0.08268706 -0.04890386 0.085864976 0.058168486 0.1317236 -0.058456983 0.09708179 -0.1183041 0.017570453 0.13040155 -0.031968977
78 -0.0693197 0.05264627 0.012891315 0.06443819 0.24056979 -0.13601898 0.004534439 0.14193998 -0.019781888 0.0444242 0.03126429 0.038397737 0.089412205 -0.058323964 0.1333403 -0.0020646313 -0.010060047 -0.13625982 0.021167915 -0.02087161 -0.017070156 0.1295295 -0.014168004 -0.05700165 0.05063066 0.056517847 -0.0015488485 -0.04175612 0.14767604 -0.1132163 0.02236845 -0.11111689 -0.053571228 0.05732136 -0.0071457103 0.08289736 -0.03875556 0.06475969 0.025053589 0.10284192 -0.11133852 0.051135693 0.046984047 0.051112518 0.064669825 -0.059118997 0.11497148 -0.06583724 -0.025401123 0.11013406 -0.043457776 -0.09652957 -0.004005408 -0.0984016 0.08598173 -0.057018947 -0.13906111 -0.030629586 0.030901218 0.05284735 -0.049956143 0.001055912 -0.050073452 -0.019688407 -0.1322733 -0.06310807 0.07995903 0.019703237 0.009774845 -0.029237788 0.00050012965 0.00035972593 0.027718237 0.007919274 -0.0035126295 -0.036378175 0.035632275 0.03204996 0.0025187659 0.004119 -0.04447804 -0.14755633 -0.0053961147 -0.08838972 0.12102183 -0.105785966 0.07080174 -0.10563487 0.17503089 -0.10392365 -0.07487172 0.09610979 0.024157247 0.1969398 -0.052020032 0.08450166 -0.10343181 0.053406037 0.16548862 0.00351691
36 -0.08047283 0.08841383 0.009766614 0.06720893 0.19456305 -0.108737834 0.035082847 0.1259854 -0.030863551 0.005268932 0.018071419 0.02373497 0.09793294 -0.105224505 0.12931313 0.01745712 -0.008965867 -0.08462542 0.017055191 0.019217616 -0.01382278 0.08584408 -0.007336025 -0.08914371 0.08321301 0.061415054 -0.0018013549 -0.030678129 0.19200039 -0.10435346 -0.009889897 -0.057077907 -0.044071164 0.09464238 -0.009071247 0.035634927 -0.07495146 0.052880708 0.03285279 0.15254264 -0.14815733 0.049030107 0.022313487 0.056769628 0.0403615 -0.06810556 0.093570024 -0.12708394 0.0073996526 0.098458014 -0.061838374 -0.13757041 0.019443324 -0.06996897 0.089798465 -0.029265638 -0.15639663 -0.0312562 0.07629223 0.038102865 -0.045707595 0.018022861 -0.06847231 0.018574318 -0.12790331 -0.06333112 0.022145286 0.038105063 0.03567865 -0.02611789 0.025661675 -0.0138835525 0.012437694 -0.011366906 -0.001531883 -0.039564077 0.016710231 0.015577272 0.025142396 0.01321936 -0.07006468 -0.09680455 -0.008216633 -0.09800067 0.0899829 -0.0590654 0.11017449 -0.104901694 0.1721011 -0.11124614 -0.08283419 0.08736672 0.04286544 0.19482307 -0.07168479 0.09889218 -0.14125079 0.068003684 0.14132528 -0.010968419
224 -0.05488764 0.049405754 -0.013870505 0.028339809 0.21153481 -0.092593364 -0.026969748 0.13831654 -0.034443952 0.038400013 0.047342777 0.008361518 0.081755064 -0.11129913 0.16121349 0.017218273 -0.011117509 -0.0879323 0.037354592 0.01825665 0.0068207225 0.098882735 -0.015824374 -0.04942615 0.07389695 0.09421471 -0.021141328 -0.019165328 0.17290539 -0.11642065 0.00961358 -0.08211793 -0.05200497 0.06724664 -0.0029288721 0.0519867 -0.08297911 0.04979751 -0.0039520697 0.12292613 -0.09280561 0.060005408 0.050363425 0.08218573 0.06958394 -0.086877845 0.13559835 -0.10454848 -0.021856274 0.07732011 -0.04852738 -0.102226615 0.0010045343 -0.11986204 0.08899336 -0.050721534 -0.19503255 -0.007421106 0.027373869 0.012041352 -0.043654293 -0.00635845 -0.023231305 -0.025258416 -0.12009095 -0.044981662 0.06270814 0.0101247635 0.007069251 -0.011398506 0.016948443 0.0023481923 0.008496515 -0.0037733687 0.018235862 -0.0077940626 0.07331526 0.039537437 0.021282516 -0.008276517 -0.06841646 -0.12813337 0.0021104831 -0.12593292 0.10414666 -0.08613034 0.055501975 -0.101133235 0.16377325 -0.10652248 -0.09826918 0.085718796 0.037975535 0.16347007 -0.059650958 0.09206717 -0.11143844 0.037468676 0.14606296 -0.0075898278
159 -0.04953387 0.07438563 0.017264577 0.0021463286 0.14914174 -0.09522867 -0.007920431 0.14282145 -0.029397639 0.011817479 0.005811742 0.022691691 0.1026597 -0.10016524 0.13054572 0.010310259 -0.040784422 -0.124575496 0.017359227 -0.0092953 0.024790937 0.12948932 0.015550794 -0.103917755 0.047490694 0.08645717 -0.027477767 -0.01924386 0.16453384 -0.1342245 -0.008546655 -0.08952367 -0.09235606 0.089784876 0.007492371 0.056729246 -0.0438771 0.040997643 0.0005684813 0.12017487 -0.12894736 0.032726426 0.07360951 0.06152624 0.07837123 -0.10881373 0.13879111 -0.07096757 -0.030401874 0.10513306 -0.07574596 -0.11576267 -0.045962974 -0.13928662 0.069577836 -0.057675026 -0.16687618 0.0017642519 0.036529988 0.0283849 -0.02486249 -0.020231046 -0.03661867 -0.015089016 -0.15240142 -0.08198848 0.04606662 0.0067780083 0.013051001 -0.0091135455 0.00541586 0.018984577 0.045058895 0.009386189 0.0019306736 -0.013630689 0.010868302 0.07098243 0.025650717 -0.027494563 -0.07343355 -0.09739653 0.030672703 -0.12899962 0.08966143 -0.05944667 0.09904488 -0.106070496 0.14584525 -0.10792528 -0.07896786 0.10063299 0.05885752 0.12684642 -0.058226567 0.11490286 -0.111024275 0.023724645 0.16964096 -0.022105623
144 -0.09156725 0.0771255 0.013170186 0.07221547 0.1760537 -0.15455297 0.036777206 0.091293596 -0.054408148 0.059768833 0.007949412 0.006843107 0.09141518 -0.091355 0.18576854 0.018268442 -0.00502347 -0.112958 -0.012708107 0.031865664 0.03441191 0.104593635 -0.004025725 -0.08641546 0.043336064 0.06600908 -0.0015089336 -0.03717144 0.18978938 -0.14070052 0.006539321 -0.07872589 -0.044121843 0.09023687 -0.04730385 0.05039445 -0.081832774 0.013879682 0.0056379107 0.1671008 -0.13822699 0.029944602 0.05344793 0.08628306 0.04064338 -0.057132285 0.10621816 -0.08323076 -0.04767473 0.089227915 -0.03973077 -0.11074519 -0.013243643 -0.043605827 0.067435816 -0.037676886 -0.14626548 -0.033477314 0.024754964 0.019555496 -0.017467141 0.034350708 -0.051215075 0.0018004716 -0.13815472 -0.07444187 0.07409392 0.0041212067 0.020122355 -0.02512743 0.034497067 -0.010982798 0.05635925 -0.024471011 -0.0012734329 -0.057054654 -0.027816612 0.043145776 0.0067589995 -0.021314966 -0.072372764 -0.10739007 0.014238673 -0.12820482 0.08786357 -0.08242121 0.13866806 -0.1411834 0.18379362 -0.05390626 -0.04817469 0.083876714 0.04488953 0.13472444 -0.049695797 0.083903894 -0.098635025 0.049799416 0.12932938 0.0023038776
205 -0.04944659 0.068201035 0.0113467 0.037241902 0.1785332 -0.10130368 0.016105201 0.11253389 -0.012475934 0.031071289 0.032709345 0.021073638 0.120826945 -0.08973027 0.15930195 -0.0014938565 -0.0062001203 -0.097949095 0.007729767 0.012990837 0.015172796 0.10869126 0.0029401486 -0.061390243 0.0526821 0.07881617 -0.023239689 -0.013891463 0.16960038 -0.1475135 -0.0029287324 -0.09542738 -0.058490157 0.06501371 -0.041691944 0.029869454 -0.08854938 0.06482679 -0.007665866 0.13943994 -0.123861395 0.03424934 0.03576389 0.08197812 0.055824526 -0.10834697 0.13783264 -0.06118636 -0.025879638 0.060117923 -0.051375873 -0.12865996 -0.015104791 -0.09436548 0.090669386 -0.051802132 -0.17376825 -0.031243138 0.021235421 0.0020015514 0.013008772 0.017141087 -0.052110177 -0.024121135 -0.13852498 -0.037232023 0.06305947 0.0002428097 0.02383225 -0.021602204 0.009358413 0.0060258624 0.047360435 0.0010937501 0.007869101 -0.026988396 0.008252162 0.032633375 0.011175351 -0.010517805 -0.058763333 -0.14484546 0.010533641 -0.10472 0.11067015 -0.095181756 0.08034268 -0.14461738 0.15035564 -0.09677933 -0.09525622 0.07410258 0.030514846 0.1555624 -0.077789925 0.085537374 -0.09291271 0.06932367 0.1320962 -0.017066346
231 -0.07299367 0.08554531 0.0107139675 0.057031173 0.18938437 -0.10425937 0.0071281497 0.119657025 -0.0018082946 0.041603565 0.019848907 0.03214549 0.12048394 -0.094362475 0.15769391 0.009129151 0.0005747638 -0.12886666 0.019607287 0.01066291 0.00037111007 0.10624087 0.015597877 -0.07340554 0.06388764 0.0652692 -0.032706838 -0.027428605 0.18265817 -0.16328134 0.019178987 -0.09854623 -0.06324865 0.062500216 -0.039501157 0.057286885 -0.054348826 0.028682312 -0.0048970073 0.1272476 -0.1298967 0.02454357 0.06661648 0.051110305 0.0412033 -0.06563784 0.11121595 -0.08093833 -0.028326973 0.08088658 -0.044885132 -0.1284532 -0.011489306 -0.12316998 0.0795749 -0.036503416 -0.18170398 -0.018742826 -0.0107657695 -0.013704021 -0.02960336 -0.0077940817 -0.026158987 0.023553753 -0.114987746 -0.030203607 0.07917565 -0.042704087 0.022023743 -0.007623637 -0.01141516 0.012669408 0.0004721129 -0.0027954092 0.0039874725 0.00024037792 0.03539499 0.0549604 0.0050317887 -0.000696879 -0.08203841 -0.096464604 0.027782245 -0.09581239 0.09740688 -0.07664593 0.11294896 -0.14066784 0.12293596 -0.070805065 -0.079044856 0.09290855 0.05016731 0.16771547 -0.096390665 0.118584976 -0.061203904 0.06225499 0.12711203 -0.018257475
146 -0.09362636 0.09854901 0.016139176 0.0959304 0.21944681 -0.13031802 0.032353334 0.14326148 0.00851401 0.03346327 0.0181445 0.051323257 0.12215893 -0.07293163 0.15724593 0.007352341 0.02711082 -0.09570862 0.015082232 0.021993393 -0.026834395 0.11026655 -0.0050947224 -0.08344129 0.09245085 0.052740842 -0.017077973 -0.059913877 0.2008982 -0.15522 0.006714134 -0.10404444 -0.06912198 0.04265453 -0.0139691215 0.04590848 -0.10365342 0.04631078 0.0085435575 0.13272291 -0.13505538 0.034883726 0.058123354 0.068662435 0.05729534 -0.06030763 0.12524585 -0.07842426 0.00023522829 0.09149755 -0.04042945 -0.10161022 0.022859255 -0.10338678 0.07208421 -0.026223581 -0.16080435 -0.013613066 0.002910593 0.023620691 -0.0051425775 0.0011389522 -0.045563336 0.03277407 -0.054435376 -0.024103263 0.050983727 -0.036440533 0.03313906 -0.019666731 -0.016877193 -0.0037822642 0.0043379357 0.00465443 0.0021039448 -0.0010016636 0.030006254 0.03650198 -0.0036748874 -0.0032069942 -0.08095921 -0.11937428 0.015066082 -0.09741884 0.08827104 -0.05950597 0.122645564 -0.13084044 0.10455014 -0.06326258 -0.052536123 0.108207986 0.03789799 0.16832529 -0.07832443 0.102779105 -0.07684393 0.044035718 0.13326816 -0.023119526
91 -0.06992986 0.07705434 -0.014656461 0.073512286 0.20166199 -0.104291655 -0.007050177 0.11702926 -0.030755041 0.030787 0.024096683 0.020467952 0.07975538 -0.082798526 0.17130938 -0.004342394 -0.007714323 -0.099278264 0.057839744 0.01845503 -0.013493155 0.111891486 -0.014618431 -0.06638901 0.034650892 0.1078336 -0.010687335 -0.055722922 0.19843076 -0.15719941 -0.008890559 -0.113542266 -0.03914538 0.04189941 -0.013078419 0.06998763 -0.0581397 0.093129694 0.030398302 0.11224673 -0.12585603 0.049294285 0.074273154 0.057866443 0.041732144 -0.069329575 0.12754606 -0.078697294 -0.011227573 0.09178189 -0.03378827 -0.11669863 -0.0072963783 -0.090189956 0.0512003 -0.03848664 -0.16008018 -0.023008822 0.023915276 0.03982833 -0.028984725 -0.012372408 0.004269889 -0.0063494216 -0.11538555 -0.050161727 0.10049368 0.00035301608 0.03839735 -0.027064573 -0.018233305 0.001016534 0.029768711 0.009009504 0.015778584 -0.033347428 0.048530407 0.03908883 -0.011146285 -0.011179787 -0.06630905 -0.10892484 0.033270393 -0.109650515 0.10026517 -0.09163965 0.10649264 -0.10045713 0.16100542 -0.118827954 -0.06798184 0.07327915 -0.0037113086 0.18960117 -0.059357416 0.07410946 -0.093716845 0.03754169 0.11567298 -0.018135466
257 -0.07855485 0.07672953 0.003239101 0.07198977 0.19343197 -0.10781102 -0.0025737954 0.15431313 -0.0008904258 0.034456436 0.044566322 0.023629913 0.10537976 -0.082824096 0.16838488 0.022441514 -0.009628192 -0.10318229 0.046395686 0.037526723 -0.035184585 0.09706346 -0.020001631 -0.08290809 0.07225972 0.08927613 0.005317041 -0.038296707 0.21306907 -0.13925295 0.0076740817 -0.09076272 -0.012946419 0.045163922 -0.024738086 0.0721324 -0.10020928 0.06718456 0.0020718628 0.14198294 -0.111540556 0.017770048 0.07168415 0.076853976 0.04990759 -0.071967505 0.13419501 -0.094192475 0.0048029884 0.077994436 -0.027789136 -0.12127798 0.02781724 -0.094699234 0.10391772 -0.028167985 -0.16864687 -0.027341807 0.023892598 -0.0046638264 -0.023919927 -0.014378607 -0.031881504 0.0012069952 -0.054089375 -0.0016197425 0.064455114 0.0010464849 0.01934521 -0.013414236 -0.0007646448 -0.027222995 0.0065910663 0.0002732458 0.025986716 -0.023160085 0.015225441 0.006340342 0.038210724 0.024644123 -0.06757045 -0.1482145 0.009999565 -0.08708019 0.1183798 -0.060768433 0.11241981 -0.11114886 0.14223368 -0.0850464 -0.085864626 0.084011786 0.02196984 0.1705199 -0.028846906 0.11504401 -0.067565076 0.0578764 0.13755633 0.0029016512
75 -0.07251765 0.041088514 -0.0025742792 0.07795958 0.19531153 -0.13144729 0.004622127 0.16644846 -0.01582074 0.04573157 0.015868146 0.033984397 0.080961995 -0.075203456 0.13679601 0.009547945 -0.009730576 -0.12927678 0.04849255 -0.025901927 0.006011719 0.12515774 -0.017034022 -0.09492093 0.026223646 0.077651374 -0.010380031 -0.023544727 0.18239254 -0.13317175 -0.0007853479 -0.13672541 -0.07049457 0.07347914 0.008546454 0.04863345 -0.045451116 0.08480154 0.03968213 0.09935151 -0.13382503 0.076360434 0.0663916 0.042324528 0.06740606 -0.0782708 0.12957852 -0.08388937 -0.017920285 0.110025555 -0.058412034 -0.09750443 -0.043929294 -0.10116609 0.067497335 -0.07011435 -0.16403459 -0.03465005 0.015353577 0.047980838 -0.03977118 -0.013008883 -0.044100605 -0.0012969859 -0.08315684 -0.06825181 0.025195815 -0.0017717974 0.0216462 -0.0120291915 1.7664739e-05 0.010790133 0.031004107 -0.0075203744 0.00740442 -0.026967749 0.029081315 0.04252812 -0.002305412 -0.016969547 -0.046200886 -0.085674666 0.0129912365 -0.110138446 0.114139214 -0.08662892 0.08615073 -0.11082271 0.1645599 -0.09167523 -0.06812788 0.110676125 0.006581723 0.1638069 -0.043165613 0.10627299 -0.11148548 0.03163622 0.13753052 -0.015437439
148 -0.042039745 0.049013756 0.011854133 0.057254966 0.22877926 -0.14815947 0.015901554 0.12009533 -0.051632125 0.037399102 0.012732847 0.028170818 0.093554474 -0.10540903 0.14116143 0.0022429666 0.0036272544 -0.11316971 0.016755786 0.0115319565 0.010170044 0.09065187 -0.04416693 -0.07797901 0.059541184 0.028658638 -0.011237162 -0.05036557 0.17988189 -0.14969352 0.026826583 -0.07783047 -0.057122715 0.04237406 -0.00078289484 0.028898776 -0.079055585 0.025978087 -0.004517966 0.16185127 -0.12792996 0.016544651 0.05003944 0.06308121 0.035804894 -0.09053921 0.10493156 -0.07728108 -0.03378876 0.10690221 -0.07762179 -0.1189592 -0.0074917357 -0.08463868 0.08222367 -0.040039927 -0.17337058 -0.021176483 0.049968414 0.029787397 -0.0023173569 0.027523534 -0.050351664 -0.024288798 -0.15161699 -0.05491405 0.06431802 0.003972967 0.022311425 0.0050425413 -0.0014028755 -0.021865731 0.0328917 0.0004772868 0.026493276 -0.027098058 0.011887337 0.03377715 0.008849126 0.009282662 -0.09292213 -0.12066215 0.0018893941 -0.10316091 0.08001184 -0.07734495 0.123726726 -0.116969556 0.16956486 -0.053205796 -0.049448397 0.07476426 0.022189623 0.13801304 -0.051115174 0.105351225 -0.13270062 0.034503188 0.14796296 -0.03787656
227 -0.10802693 0.058545507 0.0096019255 0.045395773 0.1637274 -0.09806957 0.0102940155 0.08924718 -0.027899584 0.011181548 0.030941458 0.06593525 0.13196671 -0.09513609 0.14648679 0.0013145722 -0.01798026 -0.14360291 0.0069628702 0.01589958 -0.0028204233 0.12506385 0.013511696 -0.08894853 0.08924074 0.09974313 -0.00075945386 -0.036385633 0.23031923 -0.14324147 -0.0065961825 -0.11229103 -0.034821495 0.07759578 -0.0043888227 0.06970994 -0.05263974 0.06467985 0.003270443 0.1380472 -0.14198288 0.051006474 0.078526065 0.06527203 0.057795886 -0.09103764 0.13455388 -0.13608243 -0.043211486 0.10415778 -0.03695186 -0.08574765 0.012184851 -0.09915806 0.06648488 -0.05937475 -0.18004905 -0.039172597 -0.0069891005 0.025493523 -0.038403142 -0.009368353 -0.034401573 0.025499754 -0.12727998 -0.036680654 0.040418755 0.006412741 0.044248704 -0.044229805 -0.0024541896 -0.013341742 0.03404555 0.006777206 0.002443985 -0.0022068396 0.008145474 0.06421242 -0.009119074 -0.03545799 -0.05294413 -0.10080894 -0.011538323 -0.09172497 0.10402808 -0.048774946 0.06819826 -0.102926984 0.12286226 -0.05072029 -0.07922826 0.070799895 0.041151952 0.13908806 -0.0728153 0.089418516 -0.077573374 0.063401684 0.12998973 -0.01421714
63 -0.087761015 0.057575226 0.02984861 0.07048832 0.19170615 -0.124601796 0.008134525 0.11137894 -0.03776486 0.033119585 0.015537752 0.071869306 0.11865389 -0.09060844 0.12303046 -0.015159359 -0.0103067225 -0.13199583 0.018775582 0.0060492773 -0.0014431077 0.11518406 0.026067201 -0.07339126 0.10678308 0.06872326 -0.046371195 -0.042268816 0.20770684 -0.1622849 0.02959603 -0.09919225 -0.06463263 0.024724765 -0.0052091307 0.07276591 -0.09002539 0.05964974 -0.03035761 0.15805148 -0.10585355 0.039633315 0.042533558 0.067911886 0.040071025 -0.08972693 0.1449607 -0.104048155 -0.025886731 0.09604886 -0.06237054 -0.09598052 0.05560594 -0.10476149 0.08084078 -0.029049458 -0.184855 -0.030883515 0.013615521 0.0048526917 -0.019026898 -0.0033927888 -0.05206305 -0.0021236315 -0.11384883 -0.048103318 0.04675911 -0.012485623 0.041386146 -0.013082986 0.00096884114 -0.01880415 0.0060055596 -0.0071935924 0.027183449 0.00011028919 0.022721458 0.046785533 0.043623168 -0.03350579 -0.07994583 -0.117788196 -0.0016804783 -0.08902899 0.10645108 -0.039404683 0.05752538 -0.09912057 0.09866112 -0.04573969 -0.06273725 0.06941175 0.053441286 0.1392595 -0.072578736 0.13744944 -0.10428298 0.043861218 0.14212662 -0.030438231
230 -0.059226297 0.04975404 0.025776776 0.056192927 0.16156675 -0.06768142 -0.0108025065 0.11773824 0.036380425 0.03971366 0.0042595076 0.047414068 0.15892173 -0.07132656 0.18141958 -0.005043254 -0.0044797114 -0.10688644 0.042511728 0.008661515 0.025640272 0.08847057 0.0061889947 -0.061396103 0.08709741 0.08369922 -0.021791214 -0.02696044 0.17461888 -0.14817569 -0.014336977 -0.09968689 -0.040555533 0.10883214 0.02000868 0.055394202 -0.056007247 0.08543544 -0.0027165134 0.1505343 -0.17032081 0.029631231 0.03865405 0.07326146 0.054125197 -0.08023552 0.13116507 -0.06051577 0.008080926 0.06625009 -0.024761574 -0.11018744 0.033680588 -0.125993 0.07861698 -0.06045603 -0.17460501 -0.035309628 -0.025033174 -0.005536062 -0.03686192 -0.0030032136 -0.0139179565 -0.038276482 -0.10538804 -0.0336676 0.05338806 0.034654014 -0.014183986 -0.0264145 -0.0145062525 -0.0055460846 -0.014380819 0.0024901754 0.03945113 0.0030848465 0.030764503 0.04259 0.02346975 0.0008037149 -0.04894913 -0.14736947 -6.294138e-05 -0.13216199 0.08619238 -0.06771042 0.066750914 -0.13938694 0.114778385 -0.070242085 -0.110029384 0.09502011 0.057957307 0.17841305 -0.058956165 0.118178904 -0.071425766 0.0272187 0.18681094 -0.013533555
200 -0.06743494 0.08507114 0.009126328 0.04814063 0.1682452 -0.12334729 0.001309086 0.09453176 -0.014152915 0.030940324 0.028568853 0.0019440437 0.1080239 -0.07903433 0.16214472 0.0017817796 -0.026890503 -0.1307767 0.03746053 0.0067609525 0.040887497 0.071501836 -0.0033215943 -0.045776147 0.073901325 0.08675737 -0.022383768 -0.024541676 0.16547592 -0.14567687 -0.0073664845 -0.10441435 -0.039469823 0.05909135 -0.052450646 0.044441476 -0.07830816 0.04906264 -0.016813876 0.15459858 -0.13968356 0.029814523 0.045533795 0.073343255 0.03972203 -0.0632351 0.072506696 -0.07450597 0.0007818398 0.06428121 -0.035403762 -0.13804741 3.360978e-05 -0.06977522 0.048834443 -0.018908191 -0.18453757 -0.018547256 0.028184863 0.0039961566 -0.042422593 0.028423153 -0.044227876 0.004200181 -0.14414394 -0.039663214 0.076486535 0.010666139 0.010991123 -0.04603536 0.028653063 0.0035983755 0.025707826 -0.009466301 0.012001387 -0.03232887 0.024792831 0.04317687 0.0040113027 0.004160559 -0.053890996 -0.12488933 0.013147611 -0.117999256 0.12899292 -0.093479216 0.10165121 -0.1436714 0.15012741 -0.08950516 -0.075813085 0.06760521 0.044024497 0.18413419 -0.08018106 0.113548644 -0.0947986 0.09813268 0.13086486 -0.03611887
150 -0.07609605 0.08398844 0.003545426 0.08057684 0.18933588 -0.084001176 0.00251093 0.117435694 -0.0092355395 0.012389918 0.0119222 0.05433233 0.12505974 -0.077512145 0.1749579 0.008032 0.01124673 -0.09327645 0.050025392 -0.0044378415 0.014145097 0.0874341 0.05356905 -0.084604576 0.07004687 0.067125455 -0.02169705 -0.05533741 0.20138852 -0.13966711 0.00095609465 -0.11371339 -0.07322016 0.040760975 -0.019750962 0.057229497 -0.051736094 0.059869844 0.025843328 0.12954585 -0.14633374 0.053617503 0.05240013 0.06055701 0.031330682 -0.07289731 0.10929966 -0.08943718 -0.020878173 0.09881404 -0.03896885 -0.13402611 0.012882425 -0.09273097 0.052874368 -0.041652486 -0.16078725 -0.052504126 0.016236922 0.021796662 -0.023977859 0.0006982699 -0.0116033135 0.020478029 -0.10793338 -0.020459445 0.057609275 -0.008363145 0.048019007 -0.028630601 -0.018745562 0.01427915 0.024819536 0.0017426191 -0.0055113584 -0.028817903 0.02116713 0.04867169 0.01907582 -0.027168926 -0.07973128 -0.08230624 0.006411217 -0.100164846 0.108270384 -0.07780697 0.09275422 -0.08402872 0.15098992 -0.062444206 -0.08187292 0.090900846 0.03978203 0.17873737 -0.102034464 0.12981996 -0.08585015 0.05613996 0.14190184 -0.05087971
30 -0.123556465 0.09806121 0.0040828497 0.092093 0.1962249 -0.13687544 0.020832745 0.09647117 -0.039483473 0.030129801 0.006266725 0.02869274 0.11031699 -0.093816474 0.19724889 -0.006343813 0.0028213214 -0.1388308 0.007811293 -0.0030146295 0.039153233 0.11516603 0.011034687 -0.08596213 0.09188273 0.08111168 -0.0125064105 -0.023077821 0.19220157 -0.14026485 0.045632593 -0.101645544 -0.07649283 0.04861805 -0.049071606 0.07217308 -0.08166672 0.030029463 0.028475381 0.11994661 -0.13197765 0.043714184 0.07705467 0.09274455 0.0674045 -0.042208955 0.11532365 -0.10221127 -0.05006649 0.080081545 -0.021957193 -0.10076635 -0.011614987 -0.08301251 0.099730924 -0.049723223 -0.15690373 -0.0028774436 -0.024860892 -0.0011082081 -0.008657541 -0.018527422 -0.04265658 0.03487742 -0.116796106 -0.03610653 0.06683177 -0.036124513 0.042966045 -0.04587927 -0.001254412 0.015733311 0.0132709285 -0.03359991 -0.020140702 -0.004272629 0.017614003 0.048943274 0.011213261 -0.026024476 -0.074425556 -0.10949685 0.0062821475 -0.07492 0.08468639 -0.074259706 0.08272671 -0.12679109 0.13001886 -0.07035334 -0.030629333 0.06547051 0.036436625 0.15105802 -0.09812074 0.07299177 -0.09874116 0.05158809 0.107416146 -0.019762
206 -0.05543286 0.059235387 -0.003532483 0.053011455 0.21762203 -0.14697577 0.008751711 0.14395279 -0.03879778 0.034406427 0.028767373 0.037076205 0.08890321 -0.07685027 0.16819274 0.015276304 -0.023369784 -0.12362779 0.05042216 -0.0017301904 0.023467489 0.12012444 0.015314813 -0.087737426 0.051220816 0.08047532 -0.020725878 -0.022760425 0.2050247 -0.13849834 0.001329736 -0.12588021 -0.055958543 0.062130064 -0.04705893 0.02834686 -0.08127017 0.04094425 0.0030949027 0.102119766 -0.11119837 0.07129129 0.0741971 0.061002173 0.05676416 -0.08593649 0.119786136 -0.079285055 -0.019437129 0.09384647 -0.04258569 -0.1079307 -0.021778554 -0.0665986 0.06837703 -0.061090153 -0.15959802 -0.033977374 0.02138469 0.020848533 -0.027172491 0.008021021 -0.04065928 0.012887881 -0.11619767 -0.033546563 0.055570822 -0.016941177 0.050497893 -0.016314797 0.0012699185 0.0072138305 0.044178464 3.9402137e-05 -0.01358579 -0.024022838 0.022386584 0.048220247 0.0043871794 -0.014442031 -0.045317292 -0.084300116 -0.0039219484 -0.11132867 0.10574445 -0.10343612 0.08478854 -0.122061506 0.16434883 -0.090472646 -0.06117778 0.074580915 0.03060714 0.14448066 -0.06460968 0.09719221 -0.08619353 0.038587283 0.11391402 -0.025485253
169 -0.041813258 0.067816176 0.009168336 0.026203308 0.16183062 -0.08406623 0.0031278082 0.086566575 -0.027479084 0.013069561 0.0285653 0.0268044 0.1269421 -0.093920186 0.20901935 -0.028430272 -0.015580694 -0.11736004 0.018961724 0.03382058 0.02790603 0.08320399 -0.017534649 -0.042363167 0.057934057 0.09155728 -0.042081412 -0.00751602 0.21157286 -0.16167003 -0.017825918 -0.10320147 -0.051268063 0.07147881 -0.013563758 0.028467461 -0.07631696 0.060408626 -0.016895095 0.13943727 -0.15640077 0.060666505 0.036092322 0.06232411 0.014261981 -0.089452185 0.12428166 -0.11182491 -0.0034430602 0.06535641 -0.039644416 -0.1438281 -0.0051079434 -0.111018926 0.06932809 -0.02626345 -0.17482069 -0.0027132833 0.030713355 0.007462881 -0.053344436 0.035610165 -0.027982851 -0.014383559 -0.11171444 -0.02516959 0.0635379 0.021594645 0.0033786963 -0.013986088 0.02964791 0.0014480836 0.03227791 0.008808131 0.016730532 -0.036615014 0.023393879 0.050145056 0.0049023703 0.0109933615 -0.061818916 -0.09613786 0.016734036 -0.15027855 0.058140755 -0.062975444 0.088865146 -0.14830643 0.12913696 -0.09047426 -0.0911619 0.04802209 0.033416063 0.16800043 -0.06211418 0.09627646 -0.06157557 0.04821292 0.17281534 -0.033192836
132 -0.075620756 0.12533708 0.014459311 0.054947898 0.2122001 -0.10869686 0.0031760132 0.1308373 -0.038312223 0.02049439 0.018775478 0.030157823 0.101637885 -0.08498861 0.15023762 -0.006157532 -0.03347276 -0.118030965 -0.0020831537 0.017548366 0.022877295 0.12042665 0.011348252 -0.058713228 0.044522207 0.06455213 -0.040671974 -0.041763417 0.20777509 -0.16592294 0.013588032 -0.10939742 -0.105415046 0.041211113 -0.019293608 0.018038087 -0.06766825 0.05138694 0.0179884 0.15842853 -0.13679072 0.042481326 0.036774322 0.052915126 0.012429135 -0.089722455 0.11324101 -0.064252526 -0.008328351 0.10003568 -0.05139963 -0.14214402 -0.014323353 -0.115688324 0.09183806 -0.03301426 -0.16433574 0.012877903 0.017906243 0.04260872 -0.042585116 0.01438668 -0.05750197 0.0070392108 -0.09509766 -0.03925875 0.056122664 -0.01131736 -0.00938033 -0.016563097 0.005206848 0.003543706 0.03266257 0.008745792 0.0004242441 -0.008511656 0.04342249 0.03395509 0.010035829 -0.021092353 -0.057271864 -0.08215123 0.006642546 -0.10503762 0.08378915 -0.057838563 0.10222967 -0.11990041 0.1333679 -0.08223614 -0.040064204 0.065417476 0.037790112 0.15787335 -0.0769452 0.08966286 -0.07515978 0.060951717 0.14192113 -0.017845696
162 -0.065058336 0.056173913 -0.0071004885 0.046255216 0.1928171 -0.122121885 -0.017394962 0.14158176 -0.017613837 0.032480616 0.029688437 0.025359908 0.09519064 -0.09284027 0.16606474 0.011324191 -0.03942934 -0.11908518 0.020719288 0.0016995737 0.030669682 0.09513586 0.042993367 -0.082072884 0.031655636 0.08784315 -0.014211419 -0.0043683765 0.18172063 -0.14137374 0.008533148 -0.13344462 -0.058773894 0.05425176 -0.018746026 0.04960055 -0.064950705 0.06459652 0.012737697 0.10937705 -0.13619341 0.06956214 0.06872224 0.06740655 0.03662789 -0.09047214 0.1338748 -0.08216886 -0.03519255 0.090342216 -0.029107932 -0.109192245 -0.008871951 -0.09792934 0.07626756 -0.054524057 -0.16529082 -0.025306497 0.0037518465 0.015723528 -0.06919618 -0.013522012 -0.0304388 0.004304766 -0.10193068 -0.045051944 0.04489332 -0.004530858 0.007255411 -0.005804259 0.007080626 -0.0013098211 0.025541143 -0.013165136 -0.0046649743 -0.03379042 0.035554186 0.03451005 -0.0075175473 -0.035263903 -0.061473243 -0.10657705 0.0032140168 -0.11563799 0.11606279 -0.08859287 0.10399742 -0.11864125 0.1708188 -0.07572974 -0.06279117 0.0927505 0.04104831 0.15326229 -0.05471494 0.09929833 -0.07583848 0.06107252 0.1252269 0.004233753
216 -0.107056566 0.10974818 0.01696501 0.057331707 0.20137137 -0.1019138 0.010125233 0.089452125 -0.055150557 0.042111497 0.04260534 0.03683531 0.095417015 -0.09533474 0.19055495 0.0010128581 -0.023912387 -0.12549224 0.042885847 0.008523629 0.02125296 0.101867326 0.009979572 -0.06431542 0.07608406 0.08173425 -0.042358086 -0.05204042 0.2448535 -0.1673002 0.021501975 -0.08663154 -0.049206775 0.041456666 -0.024147253 0.05730936 -0.062054317 0.084767014 -0.016605165 0.1766942 -0.12221276 0.006818109 0.04200195 0.06211878 0.01096368 -0.043977447 0.1073275 -0.082876876 -0.00043641133 0.0812517 -0.015155385 -0.16309205 0.031620637 -0.08341458 0.08109849 -0.023667539 -0.15721826 -0.020479467 0.02826415 -0.01213119 -0.026276546 0.0019753978 -0.02899921 0.00302564 -0.107323445 -0.027669119 0.08907764 0.028576802 0.0125485035 -0.0518416 0.020078402 -0.012262594 0.0142496405 -0.02340226 0.0031284492 -0.03355759 0.04067699 0.042086508 0.016345285 0.009186452 -0.060907707 -0.1266942 0.0048260093 -0.111810535 0.1080506 -0.04832088 0.077132896 -0.13173199 0.087277725 -0.07185114 -0.024277594 0.0857062 0.037045915 0.14739345 -0.04141228 0.097242504 -0.044955023 0.06882602 0.14132653 -0.031004349
112 -0.06678677 0.0804204 0.00013803042 0.055614404 0.15126766 -0.07847495 0.01354828 0.087062605 -0.02184035 0.009743773 0.013667441 0.0146357715 0.10023711 -0.114176035 0.18791972 0.009933085 0.0023573157 -0.12165179 0.01190057 0.040362384 0.036402892 0.09294844 0.021725 -0.06611245 0.050825685 0.08262458 -0.0030240729 -0.005973929 0.1814819 -0.17903441 -0.0121702105 -0.094208166 -0.057048593 0.0679491 -0.027875774 0.07523664 -0.10374775 0.021431003 0.038888928 0.13708968 -0.13808815 0.03602113 0.05749062 0.110110424 0.057847366 -0.089984074 0.12600467 -0.09843194 -0.07270124 0.09721817 -0.03487731 -0.12700906 -0.0073281783 -0.074598916 0.06859998 -0.029172847 -0.14211087 -0.030184755 0.005895791 0.032811213 0.017754704 -0.01388824 -0.012446458 0.011644723 -0.16913202 -0.0732369 0.074015476 -0.0022555466 0.053788584 -0.032802787 -0.008455579 0.01586967 0.017565 -0.013312483 -0.00096778263 -0.053268515 0.03429691 0.028269367 0.027907245 -0.057865236 -0.08718442 -0.08123599 0.061895736 -0.10119463 0.07494583 -0.069095224 0.10599172 -0.10663907 0.16068727 -0.07809635 -0.07522521 0.09696529 0.046111647 0.15206297 -0.104740135 0.07584344 -0.121419385 0.03566826 0.12739998 0.01858681
250 -0.05012311 0.069427565 -0.012968461 0.07320304 0.23213448 -0.11658197 0.019155223 0.12043129 -0.022820624 0.033707056 0.018525304 0.020691585 0.06381234 -0.10869631 0.13819245 0.031498794 -0.007549599 -0.10802447 0.045692395 0.0065396265 -0.0005863537 0.0525302 0.006325886 -0.050523907 0.062691994 0.06470723 -0.02455532 -0.015873935 0.17295535 -0.16127717 -0.039201442 -0.09200198 -0.04989828 0.048628848 -0.006171095 0.04690117 -0.0990131 0.05439082 -0.005266374 0.11365828 -0.12522744 0.056099165 0.064512275 0.11836007 0.04397955 -0.09304903 0.109610006 -0.066295125 -0.016241377 0.086909555 -0.06432173 -0.14430209 0.0059364615 -0.10159747 0.06865622 -0.026100418 -0.18241443 -0.01880275 0.046344128 0.022130335 0.002855846 0.0043967436 -0.020748936 -0.008549131 -0.09911697 -0.030993383 0.049713247 -0.003066804 0.04358638 -0.012745849 0.0074140746 0.0024475635 -0.0022710513 -0.01468832 0.02423491 -0.04314876 0.03805421 0.023107337 -0.0011734903 -0.016918616 -0.079189464 -0.12996235 0.023469197 -0.1113609 0.12291375 -0.07985519 0.086827405 -0.13069493 0.15339789 -0.10356767 -0.062347278 0.09636636 0.025242671 0.17523952 -0.055259608 0.08674147 -0.09850977 0.040765937 0.13529098 -0.011309409
66 -0.017962344 0.05913488 0.018916834 0.007109363 0.17628145 -0.09427367 0.0108204745 0.12913923 -0.031560034 0.009546586 0.03539619 0.029431496 0.12929682 -0.070533894 0.22231312 -0.012280634 -0.021122409 -0.12874523 0.024681058 0.021884037 0.042896856 0.12382917 0.0041981456 -0.05926332 0.07056537 0.076263875 -0.04880648 -0.028613118 0.16662163 -0.15233049 0.011338749 -0.11401887 -0.07600828 0.06238367 -0.03177108 0.050059948 -0.06667368 0.054902904 -0.015093987 0.13875233 -0.15147051 0.040847685 0.024242705 0.04667966 0.033959806 -0.08356418 0.14178915 -0.09465758 -0.018659461 0.09803199 -0.04598058 -0.13665432 -0.010839101 -0.1434322 0.0655878 -0.023966132 -0.16702847 0.012588098 0.019632088 0.027450731 -0.06482996 -0.0055895755 -0.012991414 -0.02037364 -0.122465 -0.034979917 0.07636627 0.012456618 0.0023272382 -0.038273606 0.011500196 0.020026105 0.032778032 0.0065872776 0.012940559 -0.03514637 0.022472905 0.06607277 0.022593988 0.0041516954 -0.076123506 -0.088176265 0.031750582 -0.13231093 0.052470513 -0.07984987 0.052760858 -0.103990614 0.097242355 -0.06457177 -0.06947629 0.08803945 0.06810255 0.13621734 -0.1030945 0.12112073 -0.045249905 0.055832636 0.19298343 -0.006120671
214 -0.082850486 0.033869877 0.011258467 0.05265096 0.23259479 -0.14055379 0.0023378124 0.13102159 -0.0283655 0.07548432 0.025239961 0.048182286 0.08598797 -0.06137545 0.15018739 0.004592213 -0.016534548 -0.12325823 0.010754223 0.0008763403 -0.008352235 0.12163431 0.011231888 -0.07987399 0.03932705 0.083326444 -0.010041926 -0.020870682 0.17510973 -0.14237781 0.019587131 -0.11341908 -0.061057094 0.071226224 -0.02124707 0.06283419 -0.08339212 0.015053249 0.023497885 0.11195613 -0.13703883 0.06555196 0.08055793 0.074777365 0.06722426 -0.09361729 0.12535307 -0.084866546 -0.047644418 0.07578014 -0.049887657 -0.062885396 -0.014978119 -0.12913202 0.08153793 -0.052687805 -0.17369096 -0.021541862 0.023424953 -0.0071631805 -0.034569994 0.006325042 -0.0290707 -0.012095576 -0.11605016 -0.056155346 0.06730451 -0.009255 0.027520427 -0.04047186 0.0008383361 -0.015320894 0.021573206 0.022211798 -0.016711691 -0.015231085 0.027261402 0.03970581 -0.014698108 -0.023384757 -0.058825593 -0.10513056 0.02245103 -0.11607687 0.07965241 -0.088634565 0.068332896 -0.11519357 0.15802808 -0.073440365 -0.07420568 0.07219509 0.05281575 0.13881195 -0.071652316 0.079551585 -0.09737077 0.020897876 0.15388694 0.015771898
17 -0.06942162 0.09006502 0.00820833 0.06723288 0.16154747 -0.09157834 0.013113888 0.10723749 -0.02526564 0.015327785 -0.0035119662 0.025557688 0.11257699 -0.090466335 0.1570864 -0.007298578 0.016715102 -0.101114914 0.04070806 0.022814665 -0.019057106 0.09046546 -0.013764873 -0.06251187 0.09168283 0.07124741 -0.013147328 -0.036937717 0.2052417 -0.13720883 -0.0076835323 -0.06881618 -0.042499263 0.092230365 -0.011449893 0.06264415 -0.074348256 0.060896907 0.014656777 0.16476165 -0.14623113 0.037353907 0.034938667 0.05276113 0.045678347 -0.04972434 0.10649038 -0.100596815 -0.0011370761 0.078309745 -0.051794384 -0.1401928 0.04213313 -0.089039125 0.06942655 -0.03244601 -0.16788796 -0.035494037 0.03295852 0.03423285 -0.021368558 0.017159065 -0.042351935 -8.654011e-06 -0.08886173 -0.02946044 0.05250617 0.027658617 0.006817317 -0.024116792 -0.006146767 -0.0051599243 -0.019080326 -0.0043890937 0.02938108 -0.02788526 0.00037034185 0.044311743 0.04650503 0.02410285 -0.07506647 -0.13222092 0.003419704 -0.1407726 0.09097598 -0.03493547 0.107063174 -0.12782896 0.124537185 -0.06881076 -0.09508432 0.06956039 0.06988115 0.19435948 -0.07895507 0.11612443 -0.09978464 0.06460895 0.16883469 -0.021829557
40 -0.07870516 0.057818074 0.021972084 0.033468775 0.178704 -0.13588206 0.021083463 0.095204666 -0.020351585 0.020101028 0.021658532 0.04596378 0.110940635 -0.0962143 0.15682742 -0.0076727937 -0.020625526 -0.13354592 0.062514484 -0.010435499 0.01833836 0.09697939 -0.0072160442 -0.06131015 0.072560064 0.081696756 -0.0151796695 -0.038344424 0.19070931 -0.17824337 0.0005027024 -0.096926585 -0.034196083 0.074060194 -0.030025693 0.03574288 -0.06277824 0.0880365 -0.037985712 0.14290793 -0.1286765 0.04423608 0.009709077 0.041812073 0.042910427 -0.09981228 0.115769744 -0.06307465 -0.00894769 0.08344807 -0.065626204 -0.12331147 0.0007693463 -0.066094786 0.041230373 -0.04095724 -0.17261916 -0.054737993 0.00784574 0.010251306 -0.015146394 0.025816033 -0.031063236 -0.014775369 -0.16870122 -0.060679864 0.07565944 0.019172529 0.013323744 -0.017805805 0.0113067385 -0.0011012731 0.04270498 -0.020624598 0.004201811 -0.040575266 0.032604434 0.07321937 -0.000679266 -0.01116923 -0.043370344 -0.14114031 0.006334485 -0.113535546 0.09218861 -0.086849816 0.093231715 -0.13402861 0.12565656 -0.081556916 -0.05665222 0.07535438 -0.0014498205 0.15153934 -0.044673733 0.11327028 -0.07936439 0.077380784 0.12656654 -0.042714793
232 -0.100255094 0.070020154 -0.0153588215 0.06650799 0.21321377 -0.13596912 0.00012696198 0.14087462 -0.009797058 0.034110487 0.0072321203 0.027674407 0.07589058 -0.06799233 0.14347887 0.024923043 0.002873479 -0.11514893 0.035645153 -0.00865867 0.009364195 0.08439804 0.0015232537 -0.07768338 0.07591416 0.078849025 -0.00023209034 -0.03503513 0.14625742 -0.12705609 0.029938893 -0.12249598 -0.077625245 0.08804653 0.010586156 0.04241337 -0.06410331 0.041189704 0.020100717 0.10841006 -0.12768215 0.085018575 0.0620172 0.06963895 0.0731665 -0.072032176 0.11857348 -0.09789556 -0.041413955 0.08287198 -0.042511664 -0.08622545 -0.025524648 -0.09974113 0.0749932 -0.060383197 -0.17653973 -0.028955445 0.01675634 0.015634334 -0.06555291 -0.016832557 -0.044096958 -0.00124465 -0.094046 -0.07279291 0.039528735 -0.013676585 0.006213072 -0.0101544475 -0.022029497 -0.0044776886 0.008432621 -0.005334071 -0.020243967 -0.0122633595 0.035048075 0.043438744 -0.01441821 -0.020829795 -0.07108742 -0.13594143 -0.003694355 -0.10005548 0.09908449 -0.102362245 0.08176984 -0.10417089 0.17789437 -0.110909134 -0.059279792 0.103090286 0.029047735 0.17474897 -0.06525651 0.08247005 -0.11348056 0.016485246 0.14183107 -0.044124268
118 -0.0911098 0.07939478 -0.008370804 0.05037606 0.17260464 -0.09274063 0.013998879 0.11497478 -0.01326136 0.012474459 0.006715027 0.005233049 0.1052418 -0.087598816 0.14856507 -0.008271193 -0.008337672 -0.13788997 0.01647395 0.012955974 0.012443314 0.09771634 -0.044053588 -0.08425237 0.06864023 0.109525256 -0.01761364 -0.023936117 0.19060044 -0.15624544 -0.0076903133 -0.10527476 -0.056197297 0.09819116 0.015269601 0.05984688 -0.046874758 0.06283564 0.033789933 0.13361901 -0.14968136 0.052453734 0.06678471 0.05091895 0.047972064 -0.06797371 0.114451885 -0.105862536 -0.012216642 0.08324659 -0.03430622 -0.105110385 -0.030345628 -0.0957643 0.07335228 -0.052002292 -0.1839158 -0.02621772 0.015793817 0.026524875 -0.058673825 -0.01955598 -0.020698953 0.005479761 -0.094507575 -0.0412554 0.04078225 0.000864538 0.02804191 -0.025006434 -0.009198343 -0.013992282 0.006833555 0.00020334242 0.0300557 -0.0064444 0.025805777 0.015266008 0.009264742 0.0003668782 -0.071716465 -0.10852044 -0.011427534 -0.11883113 0.08808997 -0.055580266 0.09704397 -0.09219943 0.14276902 -0.119415805 -0.101653285 0.08970442 0.01278962 0.20094164 -0.059465315 0.10033998 -0.11225923 0.04240631 0.12034299 -0.025895396
88 -0.07711004 0.088443555 -0.0051506404 0.08701471 0.21365783 -0.11603562 0.030851016 0.124987684 -0.035575327 0.029302618 0.032904617 0.023794206 0.087040335 -0.07373312 0.13544899 0.007075446 0.008823567 -0.12150504 0.038767677 0.028153457 0.00047261178 0.0838298 -0.009103421 -0.0797118 0.027968412 0.0782155 -0.015166785 -0.026786122 0.21829326 -0.14808324 -0.0073796054 -0.1106674 -0.055864077 0.061027225 -0.0038379477 0.03356664 -0.07964241 0.074042365 -0.014890822 0.14532766 -0.1523381 0.05247465 0.04336169 0.07579106 0.043614276 -0.121755034 0.10615253 -0.067101054 -0.002332708 0.051969483 -0.05536105 -0.108424485 0.015121665 -0.08916605 0.05040068 -0.07119385 -0.19548371 -0.048172966 0.031439375 0.041020963 -0.0026396543 0.027202027 -0.049633376 -0.0056058774 -0.09476929 -0.02160296 0.03441521 0.007236266 0.038533606 -0.012543377 -0.0008315558 -0.023563098 0.04129448 0.003668349 0.009973157 -0.026931077 -0.016990822 0.031564035 0.0005922084 -0.00017401206 -0.050210103 -0.119325675 -0.013076341 -0.12401027 0.11978169 -0.083185874 0.091645494 -0.11470555 0.1379225 -0.0475887 -0.08915369 0.061740045 0.015548442 0.1682841 -0.022427298 0.11060074 -0.09844582 0.066653915 0.11894617 -0.026925841
210 -0.09053187 0.07997458 0.0052431626 0.029864889 0.19627458 -0.111978106 -0.0033929625 0.09436743 -0.027588613 0.028836437 0.013894575 0.028328128 0.08851938 -0.10561149 0.20207107 -0.0007819263 -0.013334884 -0.12643062 0.020826261 -0.0067226645 0.047980495 0.08468927 0.004566495 -0.04788461 0.043140844 0.10520125 -0.01151732 -0.011746687 0.19550237 -0.17104973 0.00552838 -0.089077756 -0.037308153 0.07376207 -0.023784805 0.065523244 -0.071445115 0.036529735 0.0013151445 0.12576023 -0.12745443 0.04371536 0.028971354 0.08159723 0.036684107 -0.085295364 0.09904922 -0.06976749 -0.053280536 0.076881245 -0.03483656 -0.11196996 -0.017500943 -0.0936005 0.08131113 -0.024273138 -0.17427605 -0.022523403 0.021278191 0.006973837 -0.047140375 0.0188261 -0.0049758246 -0.022312377 -0.14915004 -0.06388425 0.10079276 0.018947365 0.031521432 -0.04048052 0.019655697 0.0021996158 0.056650024 0.0010175708 0.010912311 -0.055428304 0.012081594 0.047946773 0.042058893 -0.025289282 -0.055140857 -0.12562326 0.008770512 -0.1037291 0.08077302 -0.07347559 0.067922786 -0.11312308 0.16305535 -0.10990962 -0.061409365 0.071283154 0.036612168 0.14035974 -0.07095874 0.07122665 -0.09684956 0.0422221 0.13802572 -0.012409476
201 -0.08340455 0.076585 0.008867488 0.063732624 0.18141025 -0.11511944 0.024958823 0.102423355 -0.010703837 0.044450235 0.02470602 0.01882499 0.09512218 -0.08480498 0.14456846 0.02979211 -0.011918796 -0.14694683 0.013809626 0.021120705 0.019673513 0.11111071 -0.015566421 -0.07529946 0.07108987 0.07861429 -0.010388663 -0.03561942 0.18835224 -0.15751132 0.00877485 -0.08770385 -0.031393375 0.07850158 -0.039072316 0.05918855 -0.09837671 0.037462752 -0.009515456 0.15449017 -0.13848576 0.013477247 0.04774299 0.05512372 0.055097174 -0.076360926 0.08415336 -0.1024017 -0.025560174 0.078520924 -0.032886107 -0.15310511 -0.0042106067 -0.09817983 0.062299345 -0.03233399 -0.19454546 -0.04623501 0.02296182 0.030980663 -0.009576453 -0.00061636884 -0.06895683 0.024571288 -0.111398496 -0.044954505 0.056055445 -0.017633855 0.01445257 -0.02627903 0.017732123 0.0007168016 -0.008596508 -0.00012586119 0.010048859 -0.018028205 0.017449854 0.0463552 0.002936159 0.008300762 -0.06622879 -0.10076433 0.049151767 -0.100942366 0.110498756 -0.06743299 0.11521594 -0.15025671 0.1033528 -0.07202464 -0.06537445 0.071914315 0.04368799 0.17629947 -0.07128149 0.10283474 -0.09471057 0.063120715 0.09917405 -0.00605692
105 -0.07554092 0.09406626 0.00023473444 0.07274109 0.20855388 -0.18520266 -0.0020135434 0.163619 -0.035739847 0.058299854 0.0048992927 0.00079258485 0.07528361 -0.073230445 0.13432302 0.009837222 -0.003805192 -0.09592277 0.0067448304 -0.004475963 0.02720776 0.11126875 -0.00020946976 -0.06598393 0.050667368 0.06301009 -0.035766367 -0.030542804 0.20001662 -0.119874746 0.015106704 -0.09005144 -0.05448292 0.05511007 -0.02212318 0.05709247 -0.08190663 0.02787274 -0.00044588337 0.13733171 -0.107194446 0.04672743 0.072727 0.07558839 0.045223203 -0.061257858 0.09350468 -0.05812996 -0.030338164 0.10148792 -0.026080705 -0.14082615 -0.013035651 -0.07222126 0.1085506 -0.048636068 -0.17413072 -0.03687976 0.04195588 0.028467486 0.008783127 0.0012582814 -0.054206606 -0.01707916 -0.09326171 -0.06328231 0.068247445 -0.0044911434 0.015809309 -0.03825965 0.013967459 -0.007812241 0.013325925 -0.0121457465 0.03507425 -0.028616901 0.0020050637 0.026981222 0.05074874 -0.028630985 -0.05114686 -0.14146909 0.02595261 -0.114650644 0.13840091 -0.04294418 0.09330903 -0.1317155 0.1266826 -0.10238443 -0.060379036 0.08069625 0.03978933 0.15518709 -0.052692648 0.089057796 -0.07830427 0.049714256 0.14701122 -0.009447815
240 -0.09634574 0.079170786 0.013763885 0.071708485 0.22653341 -0.11927061 -0.008665605 0.14582029 -0.023135955 0.04730261 0.03113666 0.030685939 0.1031815 -0.091295 0.15966335 -0.0010209589 -0.013125556 -0.15861294 0.022781603 -0.009729429 -0.010737059 0.12214336 0.031160561 -0.07504677 0.035284992 0.042718984 -0.014172469 -0.042351354 0.19981508 -0.13871208 0.029093795 -0.11273984 -0.062366128 0.030804057 -0.02433881 0.116446026 -0.07932305 0.009994982 0.032160286 0.12027108 -0.12142967 0.03589922 0.10880937 0.07178265 0.042602997 -0.08318018 0.12624994 -0.12220493 -0.06924047 0.10241457 -0.033884566 -0.105731845 0.012697887 -0.11377825 0.087834805 -0.053071253 -0.14942549 -0.02580719 0.0103069 0.01601937 0.013804156 -0.027338402 -0.06612645 0.025108485 -0.07878315 -0.03838059 0.05015222 -0.042358387 0.040596806 -0.029804144 -0.0140117025 0.011080949 0.0012836471 -0.008257312 -0.03639294 -0.0068213847 0.022502553 0.03718254 0.033126354 -0.0011058281 -0.060425214 -0.0842403 0.040549416 -0.08102911 0.09812893 -0.0578644 0.097966604 -0.09605648 0.12548405 -0.048887484 -0.05654289 0.07411569 0.057595897 0.15529825 -0.06513131 0.09630711 -0.08936331 0.022466213 0.14986397 0.0042639836
46 -0.08723996 0.09918892 0.020488495 0.06690429 0.14512655 -0.102684826 0.03361738 0.07304655 -0.0019213991 0.020943562 0.022286713 0.029244542 0.13064463 -0.10078294 0.1832655 -0.0031488456 -0.016191177 -0.12672861 0.054411717 0.0141600175 -0.0019479757 0.08114362 0.008072338 -0.061604436 0.090284705 0.09188328 -0.009040075 -0.0523987 0.18050297 -0.13095255 -0.011331065 -0.09790377 -0.040072877 0.06834011 -0.055709813 0.06681948 -0.086582154 0.05205087 -0.017969275 0.13803612 -0.13688898 0.01435835 0.058841337 0.07973794 0.029514922 -0.057363592 0.09731 -0.12027683 -0.010697162 0.07898137 -0.023189088 -0.14012793 0.030440317 -0.10594068 0.058577616 -0.026136678 -0.16504382 -0.01203495 -0.0058391592 0.0049402285 -0.04593466 0.006906784 -0.030887093 0.02791056 -0.10274576 -0.008187303 0.07521791 0.0086641675 0.026100805 -0.03555024 0.020471707 0.021835992 0.0024782454 -0.01696948 -0.0021182473 -0.026661798 0.0029371176 0.028639976 0.004192357 0.013824473 -0.06445391 -0.13016364 0.011698562 -0.12019699 0.10334035 -0.07791127 0.11477248 -0.14453435 0.113464326 -0.07558336 -0.08688383 0.09118856 0.022900486 0.18046598 -0.08173601 0.122336216 -0.058451753 0.106795825 0.1517431 -0.018205397
247 -0.1036685 0.054926492 0.0024220112 0.067032605 0.19383545 -0.106813736 -0.0039393585 0.110101625 -0.02014912 0.029843362 0.007339393 0.05949107 0.09952473 -0.104174666 0.15254393 0.0008612858 -0.009448651 -0.12970224 0.04118083 0.020828111 -0.0388043 0.12156279 0.023260076 -0.09229056 0.06795084 0.09856112 -0.006864452 -0.03695081 0.19270106 -0.13642378 0.027854042 -0.06561172 -0.03675381 0.08543572 -0.009516421 0.10096394 -0.06668781 0.06322642 0.02444337 0.12830848 -0.12037311 0.044817757 0.07469196 0.06323711 0.067744106 -0.06827291 0.15808864 -0.11117777 -0.030293563 0.10317796 -0.05560627 -0.097151205 0.039684497 -0.10165543 0.08065439 -0.06703524 -0.15724169 -0.045816187 -0.008490158 0.016070653 -0.0092001725 -0.020445868 -0.018113706 0.0071048546 -0.15290307 -0.05878451 0.07091355 -0.008332131 0.032807153 -0.011165078 -0.03741195 0.00876835 0.02064357 0.0014725602 -0.013171523 -0.009142058 0.046045292 0.037436727 0.029069465 -0.038697768 -0.083260916 -0.11337115 0.014920877 -0.101683445 0.07408628 -0.05923826 0.09890165 -0.08702562 0.12753089 -0.07445383 -0.056164835 0.0808057 0.040517613 0.16559191 -0.060101822 0.082278885 -0.09921317 0.03744048 0.11069841 0.0112505155
180 -0.063366346 0.052387778 0.027678508 0.023807317 0.18973736 -0.14537326 0.03326097 0.14143346 -0.010952729 0.037960827 0.029085178 0.054404803 0.12012911 -0.086372934 0.14852777 -0.0058560926 -0.016832756 -0.13140345 0.0058316877 0.0046189004 -0.017252928 0.11379702 -0.017061079 -0.08558102 0.07163615 0.06857562 -0.016301457 -0.022489283 0.1645488 -0.11820874 0.016222475 -0.09114514 -0.059215445 0.09791486 -0.029850706 0.059334878 -0.06839513 0.033462923 0.009047942 0.12743556 -0.1331018 0.046878085 0.051999047 0.06914664 0.08376117 -0.07167676 0.13912149 -0.08704138 -0.005338003 0.0881197 -0.07297491 -0.088420704 -0.01193794 -0.12519142 0.0866947 -0.047260948 -0.14847782 -0.019615013 0.005009139 -0.009935465 -0.061579768 0.004308086 -0.048311338 -0.0021091541 -0.13419059 -0.08031237 0.03970106 0.008212997 0.011152078 -0.008318495 0.017646888 -0.006570609 0.030084288 -0.007814707 -0.0068143373 -0.017124556 0.020491226 0.054427873 0.024179462 -0.0051123207 -0.060991995 -0.10352152 0.017494757 -0.12228338 0.051640157 -0.08213315 0.09397618 -0.13177574 0.14747435 -0.08444542 -0.07933303 0.10021922 0.052009888 0.15265507 -0.049257867 0.09794465 -0.09700259 0.054349184 0.15570004 0.025006482
145 -0.08360674 0.081257865 0.0066410108 0.07236227 0.21898863 -0.1296658 -0.0053677303 0.1352916 -0.026339283 0.02172311 0.030984823 0.040451415 0.09196651 -0.09063886 0.1510543 0.0121751 -0.018600803 -0.095706806 0.03262 0.017271865 0.0189624 0.106361255 0.043737013 -0.101993404 0.057132866 0.06725199 -0.014198918 -0.03235826 0.20719875 -0.13208638 -0.0022515452 -0.08556663 -0.05285407 0.04399349 -0.056974087 0.057614423 -0.10800054 0.05151132 -0.015957065 0.13831115 -0.110781856 0.02138236 0.028998727 0.07298239 0.055473678 -0.0930431 0.09179223 -0.083582275 -0.00788361 0.08629164 -0.05894349 -0.12564863 0.0077800066 -0.09763871 0.097532816 -0.012152326 -0.19232383 -0.030222546 0.034903325 0.034240257 0.0047087013 0.013312639 -0.039563328 0.01196982 -0.10373915 -0.042706624 0.06609923 -0.023195663 0.060671993 -0.03632459 0.017401844 0.010699075 0.022196867 -0.0020542953 0.025428433 -0.043749742 0.01748679 0.0328955 0.037864655 -0.022997374 -0.082605995 -0.10019485 0.025525518 -0.08647902 0.11548919 -0.050665848 0.07097096 -0.11159135 0.124871 -0.08061868 -0.079597995 0.07083227 0.042035356 0.1380491 -0.09254598 0.11415398 -0.094389185 0.070807524 0.11972038 -0.0070258477
85 -0.08657675 0.045495603 0.009690097 0.009956942 0.12610373 -0.08890849 0.0064516277 0.06342615 0.0029069616 0.03720973 0.012930646 0.02234328 0.10347601 -0.114023715 0.17610031 0.0068985587 0.004184369 -0.14064549 0.0013698656 -0.02157463 0.024010487 0.10556977 -0.021663873 -0.038146462 0.07041636 0.113096245 0.010481854 -0.021652928 0.17456254 -0.13260627 0.0065374053 -0.09368904 -0.045746062 0.07619021 -0.0244634 0.07157577 -0.09889357 0.06192298 -0.0073993737 0.10154695 -0.12838069 0.069622435 0.062316798 0.08759344 0.08572623 -0.07483144 0.121345475 -0.10771452 -0.050338607 0.12657447 -0.03898143 -0.08729392 -0.037577193 -0.08322284 0.08969741 -0.044537816 -0.15434647 -0.039584223 -0.0007656352 0.027459778 -0.014360735 0.007633752 -0.017120307 -0.009241094 -0.1661919 -0.109597296 0.10406967 -0.0035801718 0.02887398 -0.035623297 0.026348589 0.024120096 0.03854096 -0.0048755975 0.0020133525 -0.025716057 0.03486606 0.08186491 0.003982733 -0.036342394 -0.0653164 -0.10354543 0.038996954 -0.09424092 0.10850153 -0.10512205 0.06748127 -0.12703198 0.16874227 -0.0989238 -0.07844267 0.11981767 0.018521942 0.16944487 -0.07343517 0.08374085 -0.10693194 0.027012018 0.1511431 -0.006958144
262 -0.096220545 0.11324131 0.011600018 0.09903432 0.24215668 -0.13741799 0.026709687 0.12654437 -0.035153102 0.039880026 0.043708812 0.04393606 0.09457014 -0.072820045 0.15255609 0.023122191 -0.008936736 -0.102331385 0.067484856 0.024592876 -0.00139646 0.06322069 0.022435114 -0.08611443 0.07685413 0.074508235 -0.016588883 -0.029647961 0.18503349 -0.15323202 0.0059746117 -0.090978175 -0.051280007 0.062453475 -0.03099235 0.045241483 -0.07982496 0.06297437 -0.019062962 0.15253186 -0.13234702 0.02516861 0.062493335 0.07264751 0.045319043 -0.07669175 0.08841436 -0.0823373 0.009746285 0.05181082 -0.016988214 -0.112574145 0.049647994 -0.07379418 0.06687283 -0.06280819 -0.17572427 -0.0480071 0.001034827 0.0041975696 -0.01145457 0.0003540907 -0.044403944 0.02931023 -0.09179575 0.0032469009 0.03453867 0.01256466 0.043837234 -0.020802822 -0.01956115 0.00047222478 0.012520658 -0.008782359 0.020079995 -0.015761476 0.026116075 0.03131337 0.012405529 0.012347296 -0.059745815 -0.1102192 -0.017348504 -0.12041524 0.1099263 -0.06980233 0.0894595 -0.114149354 0.13025726 -0.06493862 -0.067078926 0.075083874 0.03746984 0.19286382 -0.0717052 0.12437807 -0.09987275 0.055975687 0.104228124 -0.025481129
80 -0.041999083 0.041427407 -0.0008425618 0.024084922 0.18287423 -0.07986704 0.003284451 0.11707442 -0.022659076 0.012619789 0.026284024 0.010086963 0.097808935 -0.084626995 0.15990548 0.0001612866 -0.017205577 -0.13847443 0.009382041 -0.0059702154 0.023106158 0.12645967 -0.00657268 -0.03404497 0.06553366 0.09397763 -0.014779915 -0.02396126 0.1803443 -0.1573418 -0.011542171 -0.09179237 -0.032278817 0.08799645 0.001288674 0.052103363 -0.081015654 0.06315513 -0.0111515615 0.10561289 -0.11944897 0.02722298 0.03441862 0.069842085 0.065349475 -0.0887935 0.120642945 -0.06708592 -0.042638738 0.08842719 -0.02274098 -0.13548356 0.006699837 -0.11313242 0.08223949 -0.060030308 -0.1785922 -0.012126787 0.016244153 0.061488934 -0.019535972 0.032369368 -0.0634738 -0.019157931 -0.15320559 -0.07534333 0.08305021 0.0270594 0.013191149 -0.025594115 0.015089855 0.021403259 0.010263591 0.010678058 0.016469268 -0.038106084 0.011678416 0.052431054 0.0073847324 6.887124e-06 -0.039002463 -0.12590729 0.02139328 -0.13015856 0.1014735 -0.090937115 0.07160051 -0.14121965 0.13095124 -0.09717526 -0.06972153 0.07229084 0.06629708 0.15325849 -0.05893656 0.08795735 -0.085808985 0.05670682 0.16788633 -0.017359175
173 -0.010755179 0.075379 -0.007272452 0.028420426 0.1557568 -0.0749632 -0.023332352 0.15379009 -0.0103625655 0.008595046 0.05097843 0.006180996 0.13443537 -0.09769789 0.18509376 0.04027536 -0.020991594 -0.081491105 0.015711214 0.0433562 0.05093871 0.09951543 0.030312197 -0.0623955 0.08475392 0.091933064 -0.017527003 -0.010811927 0.19743112 -0.14249855 0.01435315 -0.08537729 -0.08027431 0.07129691 -0.02478265 0.028777488 -0.09669736 0.050203662 -0.012843501 0.15730575 -0.13522086 0.04631874 0.0374602 0.07768743 0.06672563 -0.10065273 0.11506741 -0.08358994 0.004942284 0.06404963 -0.04685733 -0.15585504 -0.0029903217 -0.109029196 0.08752153 -0.060598712 -0.18479872 0.001203733 0.01905335 0.04671211 -0.02852984 0.03141524 -0.040977027 -0.01669276 -0.08903839 -0.026016708 0.04350245 -0.0043487274 0.0026177447 -0.0028744652 0.0070941225 0.028946916 0.021159196 0.024165003 0.027857535 -0.0026569546 0.036155205 0.06367726 0.020661818 -0.02574043 -0.06771137 -0.10094664 0.010515877 -0.12914814 0.12158242 -0.07118284 0.09300684 -0.12286216 0.12098453 -0.07282266 -0.09036612 0.061743435 0.08735672 0.13924684 -0.072549805 0.09649261 -0.08192907 0.042325214 0.16592643 -0.0067355954
103 -0.113337114 0.0692943 0.009339537 0.07430382 0.1972596 -0.13522133 0.05122084 0.107186645 -0.021499353 0.031521928 0.020107761 0.041083593 0.09638863 -0.06898317 0.17668635 0.0146739315 -0.013336503 -0.113713115 0.033824246 -0.0048059453 -0.004582636 0.06490077 0.0046778377 -0.06551113 0.08724298 0.08827853 -0.02084063 -0.040451895 0.2003733 -0.1344728 -0.008053164 -0.09197184 -0.04911814 0.07491487 -0.035587918 0.06914692 -0.069701664 0.058985874 0.0030554447 0.124193184 -0.12443642 0.049558297 0.055417404 0.0780378 0.058104333 -0.04216777 0.1039318 -0.088913225 0.00010587181 0.062038828 -0.04064842 -0.12194752 0.022451777 -0.06599858 0.08882407 -0.043579467 -0.15023625 -0.04432149 0.0124606285 0.0007642454 -0.030045085 0.013589291 -0.036123637 0.0074306233 -0.13544278 -0.0545738 0.057059754 -0.0060215034 0.016548194 -0.02491758 0.009107492 -0.018592257 0.02681443 -0.040049173 -0.010187067 -0.04589659 0.0254563 0.04107692 0.0054088985 0.015804015 -0.07301781 -0.12572792 -0.021473639 -0.116709545 0.094648905 -0.101384744 0.07861958 -0.119440086 0.14249906 -0.09992344 -0.07669767 0.0808161 0.0036605317 0.1791286 -0.064725876 0.08980746 -0.10142248 0.05869398 0.12827756 -0.03416624
39 -0.07877291 0.096794836 0.024290362 0.06804936 0.18197626 -0.11131513 0.02451815 0.12641436 -0.024243712 0.020918652 0.031916704 0.056658473 0.102299504 -0.0653293 0.14638156 0.028310116 -0.017216932 -0.10588816 0.038198564 0.0023585334 -0.01149076 0.09331733 0.026227852 -0.08388113 0.090382196 0.05514336 -0.006452894 -0.05281047 0.2243395 -0.13466488 0.0027213579 -0.07484592 -0.069929995 0.04650107 -0.029333396 0.038246308 -0.08050713 0.055184215 -0.003906099 0.15926643 -0.11981553 0.022480423 0.060519096 0.06500418 0.040390626 -0.098187305 0.12975952 -0.078557156 0.015053953 0.11314618 -0.048720576 -0.14138252 0.031535454 -0.08309979 0.08089964 -0.027763356 -0.15687993 -0.04844408 0.050228484 0.0143851265 -0.03706721 0.033181425 -0.041219726 0.00322382 -0.11627243 -0.009851537 0.03902139 0.02309437 0.03523694 -0.022980096 0.018090969 -0.016792271 0.031860754 0.0010578632 0.0029639294 -0.03757517 0.03462568 0.022961952 0.021262102 -0.0047657574 -0.06432702 -0.10968673 -0.013074335 -0.10882237 0.100828655 -0.07746473 0.08536982 -0.080008335 0.15925954 -0.08563971 -0.08337669 0.087126434 0.039954126 0.18836416 -0.036217105 0.10742165 -0.0902765 0.03988903 0.12462635 -0.024716036
194 -0.06823902 0.095209956 -0.005717514 0.04588062 0.15264276 -0.08666394 -0.005795992 0.09648153 -0.021252088 0.027644787 0.016834212 0.02473914 0.11733834 -0.105050884 0.15922546 -0.0017702011 0.00024271433 -0.11291045 0.021953745 0.029337272 0.01891762 0.09924195 0.016175104 -0.056037486 0.060443655 0.1091349 -0.0035373962 -0.004787229 0.19760641 -0.16664787 -0.0036469013 -0.077749364 -0.039739583 0.09017804 -0.022531781 0.0073210024 -0.09390639 0.07910394 -0.011249478 0.14816429 -0.14307864 0.04703503 0.038699836 0.08160046 0.049212817 -0.08386025 0.13185032 -0.08179957 -0.0041226116 0.05276033 -0.059490878 -0.12008172 -0.019335825 -0.0973286 0.077730045 -0.049244437 -0.15851158 -0.029153535 0.010121969 -0.005404345 -0.0037382797 0.012858793 -0.046123914 -0.011780969 -0.12674727 -0.03502331 0.055707876 0.005424749 0.0083288215 -0.01891036 0.0070812893 0.00088744145 0.025108851 0.0052031903 -0.011406168 -0.022208784 0.022190385 0.05924881 0.016044654 -0.026618522 -0.06456549 -0.11981812 0.038950283 -0.13344228 0.097224995 -0.08352767 0.112969235 -0.15254319 0.14973673 -0.08767769 -0.07693641 0.050360523 0.05223967 0.17377909 -0.05557197 0.08640087 -0.06756259 0.06877555 0.13117427 -0.0008063847
147 -0.10067463 0.09284839 0.00014012224 0.05617709 0.18408474 -0.10967519 -0.0027338665 0.1062282 -0.03510805 0.032170124 0.030945458 0.040620513 0.088745244 -0.10583122 0.15190439 0.007847272 -0.015812447 -0.113591105 0.018135583 0.028206296 0.00013587928 0.098648265 0.021807164 -0.066842265 0.061304852 0.09678338 -0.022331474 -0.022271128 0.21486197 -0.16605707 0.010092721 -0.10807948 -0.059161782 0.047865547 -0.032991037 0.045952052 -0.111416854 0.067481026 -0.022618221 0.14543116 -0.118583955 0.051112287 0.045090903 0.08715023 0.04104016 -0.085144676 0.14528969 -0.0974599 -0.028195487 0.093041584 -0.046398047 -0.091501296 0.011858092 -0.07575443 0.06963789 -0.046850055 -0.1851951 -0.024421595 0.0026619444 0.0042006494 -0.007725654 -0.002630111 -0.037189547 0.011413856 -0.11310107 -0.052814372 0.050262064 -0.016781911 0.034059033 -0.023646925 -0.00023306817 -0.015862558 0.032347135 -0.01691737 0.007015519 -0.018720407 0.029448297 0.04834301 0.022403082 -0.053479612 -0.07298268 -0.112373166 0.015738739 -0.10009671 0.10967174 -0.059376795 0.076012306 -0.10967842 0.1408103 -0.06521165 -0.04127576 0.083526045 0.048704196 0.14925984 -0.073440775 0.08179867 -0.076065004 0.056418765 0.11276328 -0.0044531547
