264 100
63 -0.0016315901 -0.005844726 0.0016885211 0.0024503774 0.003435586 0.004114075 0.0033971753 -0.00073632755 0.0030190032 0.0002044678 -0.005320138 0.0070427395 -0.002091192 -0.0019824603 0.0037957972 -0.0006303381 -0.0076158303 0.00514458 -0.00522194 0.00047810518 -0.0069472115 0.008809406 0.004380776 -0.011241625 -0.0036504641 0.014041564 0.004022306 0.00046131833 -0.0015510644 0.0011999015 -0.004231208 -0.0006188413 0.006280861 -0.0019089516 -0.0060076853 -0.009361683 -0.011005249 -0.010702665 0.0009903201 -0.004428413 -0.0069923485 0.0016174903 -0.0075905025 0.0009341418 -0.0037153515 0.0033410096 -0.0032403031 -0.00097626215 -0.009543673 0.009005865 0.005630349 -0.0011259216 0.0052840644 -0.005245136 0.0075516533 0.005307803 -0.012729005 -0.0028848443 -0.0023120246 -0.002681378 -0.0024958744 -0.0008662089 0.0048733293 -0.006618463 -0.012897958 -0.0020010225 -0.008090332 -0.003264207 0.00030956932 -0.00589684 0.0074492553 -0.0007520579 -0.0038278946 0.008607818 -0.002231095 0.0027564415 -0.0058268737 -0.0051169707 -0.0076466515 -0.0076791905 -0.0013254273 -0.0049466784 0.0039395094 -0.006365983 -0.006357367 0.00069923024 0.006240963 0.0042968607 0.0026336983 0.0016278331 0.003341639 0.0004755825 -0.005000308 0.002674742 -0.0029968575 -0.004664515 -0.00016604767 -0.007472123 -0.006351032 0.00061791635
75 0.0017479365 0.0018629044 -0.001605468 0.00024839665 0.0059974263 0.0006837453 0.0016866603 0.006487107 0.0032878243 -0.0011230542 -0.0002934954 -0.0015751193 0.0073060268 0.0021503726 0.000109280394 -0.0004971618 -0.006746499 -0.0003515169 -0.004945791 -0.0011987408 -0.0021769784 0.0019209222 0.008171366 -0.007732269 -0.0037675737 0.013931127 0.0014561999 0.0026168297 0.0015347509 0.00087242073 0.0025250623 -0.0051501864 0.0005734672 -0.003671194 -0.0063810013 -0.0058693695 -0.003849681 -0.007743774 0.0052310624 -0.0063859755 -0.007530138 0.0061086356 -0.011116494 0.0011695985 -0.0036309164 0.0035989152 -0.0021717611 0.004508535 -0.0062295385 0.008784576 0.00037625397 -0.0012368406 -0.003499522 -0.0043847524 -0.00089136837 0.008552021 -0.008504166 -0.0017822867 -0.0027762265 -0.0039636823 -0.0074317926 0.0032171777 -0.001047669 -0.0060212254 -0.0059965723 -0.0023324816 -0.0010928985 -0.0022158304 0.0017769699 0.0016934011 0.00034721193 0.0043037124 -0.0039840196 0.003353739 -0.0060228216 0.005534518 -0.002633414 0.0006680885 -0.007270888 -0.0055078613 -0.0033402746 -0.0064866883 -0.0032906067 -0.0052916445 -0.004348925 0.0036979557 -0.0011070905 0.0044495426 0.011673577 0.0011527375 0.004261512 -0.0035183022 -0.0054103266 0.0010775378 -0.003604346 -0.0049241027 0.00012657495 0.0003252532 -0.0077053187 -0.00034835812
29 -0.0052252244 -0.0003815895 0.0033969153 0.008820004 0.0011502302 0.0028006819 0.002769817 0.0045688096 0.01087983 -0.007188454 -0.008487326 -0.0026416127 0.0036033315 -0.0059385346 0.00543325 0.0054070996 -0.0039494755 -0.0018660183 -0.0059199575 -0.0043935007 -0.0049830372 0.007662762 0.006232761 -0.0070500765 -0.0026526586 0.012338821 0.00016732884 -0.0022324154 0.00059524504 -0.0019938159 0.0011471651 -0.0019458762 0.0028972472 -0.007403315 0.0019561287 -0.0018628918 -0.006360227 -0.011000852 0.00406077 -0.0023511501 -0.012985048 0.0102336 -0.009599458 -0.0040244325 0.003285208 0.0011520318 -0.0009974533 -0.0050428114 -0.0020529681 0.008879816 0.0056441515 -0.001292664 0.005323537 -0.001441077 0.0012836282 0.0019454488 -0.00938602 0.003931424 -0.0011886471 -0.010878219 -0.0024523053 0.007824662 0.007163366 3.2679392e-05 -0.0039621815 -0.0005470117 -0.006835517 -0.0016905437 -0.005617971 0.0015786686 0.0026645972 0.0003385621 -0.0056383032 0.010926958 0.0005534632 0.004065212 0.00093704544 -0.0027168056 -0.002310557 -0.006512812 -0.0056231967 -0.005735814 -0.0048889457 -0.0028548916 -0.00012708784 -0.00014979727 0.0015420082 0.0071634785 0.010214737 0.0014137902 0.0010303403 -0.0009409132 -0.0049411603 0.005917031 0.0024722698 0.00010744208 -0.0041795494 -0.002762996 -0.00788107 -0.0047074445
201 -0.0065185823 -0.006633345 -0.0025141085 0.0014314257 0.0018683096 -0.0038277246 0.004857342 0.00090631016 0.004254112 -0.0055792313 -0.005040382 0.0030378809 0.0043604625 0.00019630001 0.0043314938 0.0021272856 -0.0069388836 0.005160694 -0.004638843 -0.0028693678 0.0023563015 -0.00011691418 0.006057989 -0.010997102 0.0005544234 0.009686848 0.004942908 0.003221286 -0.0022922817 0.0025558176 -0.0033864302 0.0011711731 0.007285078 -0.0063475687 -0.005335286 -0.004483246 -0.009557029 -0.012960412 0.0033389416 -0.0011136078 -0.012794736 0.008834436 -0.0038678413 0.0044586216 0.0043696538 0.0005607677 0.0021759148 -0.0031972069 -0.009520958 0.0071639265 0.0011780414 0.0085127745 -0.0017820678 -0.0031445536 0.0074552614 0.004185354 -0.010394359 0.0017730665 -0.0010672251 -0.007723639 0.000132896 0.0007317804 0.00046830293 -0.0025529086 -0.012739398 0.0062528453 -0.003211027 -0.00082624384 -0.0063169203 -0.007894916 0.0004031786 -0.004273818 -0.007184351 0.009731394 0.0021984107 0.0032192308 -0.0063842074 -0.0048179016 -0.008413396 -0.00064320123 -0.005133174 -0.006028947 -0.00019253562 0.0010553615 -0.004021162 -0.0007245381 -0.002330568 0.0006158219 0.011067469 0.0042937626 0.004066549 0.0021604563 -0.0033349085 0.0038112304 -0.0048687044 0.0020138158 0.0007149281 -0.0045509906 -0.008273243 -0.0032865366
225 -0.0025362242 0.0013401402 0.0003808745 0.0017193251 0.00042992915 0.0010938827 0.004296192 0.00633629 0.0031998297 -0.00023124694 -0.006690463 0.005873416 0.0013123465 -0.005337371 0.0007681908 0.0014534664 -0.008098187 -0.004315723 -0.009363588 -0.003774893 -0.006115833 0.0061111758 -0.0011733794 -0.012349678 0.002083244 0.013939041 0.0056122383 -0.00062354736 -0.0031370488 -0.0008260771 0.003619069 0.0029386794 0.0010291316 -0.0027125776 0.0007195708 -0.0062089823 -0.010749958 -0.009417369 -0.00064828934 -0.0027672516 -0.010634792 0.008873851 -0.0085800495 0.0044989605 -6.808834e-06 0.003662011 -0.0018442363 -0.0005094649 -0.00051330565 0.0086173015 0.00049090217 -0.0007297562 -0.0021877536 -0.0027959691 -0.00014078396 0.003379029 -0.008627117 0.00072329806 -0.001548672 -0.01084241 -0.00667054 0.0041020424 0.0037258803 -0.0049159564 -0.011219558 0.0030550987 -0.009816958 0.0035198329 -0.0007663868 -0.0030936503 -0.0025370975 0.0044237473 -0.008212925 0.004131217 -0.0024255908 0.004214033 0.0026505922 -0.00011421529 -0.0044127405 -0.006380201 -0.0032497006 0.0020771273 0.0015363874 0.0013379701 -0.00348434 -0.0013672808 0.00042815012 -0.00056676986 0.0016726356 0.0024739916 0.0048272135 -0.0015720193 -0.0031754428 0.0076315473 0.0010625167 -0.0048440015 -0.00095525006 0.00011254454 -0.0076972167 -0.0040902137
227 -0.001550137 -0.003934584 -0.005298402 0.0019809615 0.0058188746 -0.0011002008 -0.001732401 -9.3928094e-05 0.0055011003 -0.004039651 -0.007635855 0.0068699624 0.004661216 0.002482848 0.0031636623 0.0050820606 -0.0041356743 0.00547736 -0.0032876513 -0.0058768922 -0.006837085 0.005856624 0.0045342534 -0.008638394 -0.0007558967 0.011408902 0.0012072499 0.005547017 -0.004283218 -0.0033973898 -0.0020202782 -0.0060141827 0.001549436 -0.0005516769 0.0015986426 -0.0037104927 -0.009204623 -0.010486785 0.0040714373 -0.005522679 -0.0058938554 0.0007868853 -0.0028007806 0.0012657347 -0.0030644217 0.00417204 9.240525e-05 0.0041957996 -0.004997579 0.004014156 -0.0010853701 0.0055690706 -0.0029902076 -0.0073082238 0.0035315016 0.008843289 -0.002579146 -0.003846806 0.0036076985 -0.006116421 -0.0031275495 0.0002102342 0.007530379 -0.008342549 -0.011710024 -0.0024193814 -0.008493096 -0.0028361254 -0.006789361 -0.000293347 -0.001899309 0.0023850116 -0.0043045534 0.00883905 -0.0038804607 -0.00220573 0.00014496662 0.00071118097 -0.008004054 -0.000960489 -6.823153e-06 0.00060841197 0.0001167056 0.0021780366 -0.0009048177 0.0026135498 -0.0011760442 0.0006529355 0.0014359602 0.0069685928 -0.00047849386 0.0012483589 0.0010391481 0.0060026017 -0.005883206 0.0004997065 0.00023002786 -0.0014016309 -0.0048236214 -0.004845256
233 0.0016703961 0.0014156674 0.0035254161 0.0040697902 0.0065688384 0.004052801 -8.15374e-06 0.001740335 0.004740665 -0.0045868186 -0.000897655 0.0019151215 0.0018836892 -0.0040787887 -0.0033010517 0.00071279495 0.0018416955 -0.002414084 -0.0060164207 0.0014770271 0.00052429835 4.37917e-05 0.008334223 -0.0093747955 -0.0029693418 0.0107297655 0.0046359864 0.003643062 0.0043230825 -0.0011483171 -0.0051753432 -0.0004883919 0.0028780384 -0.0030691563 0.0025302568 -0.004568183 -0.005225941 -0.011317748 4.3530817e-05 -0.0073782355 -0.0030127873 0.0013783339 -0.0066437325 0.0034561213 0.0022823885 7.924857e-05 -0.0029820418 -0.004444158 -0.006837674 0.008492368 0.0012935562 0.0042863237 -0.0010426217 -0.0002463868 -0.0004481633 0.008399135 -0.0087316735 0.0008735653 0.00052334677 -0.011000772 0.001921392 0.0070861643 0.0012805251 -0.0052844966 -0.005691481 0.0052681724 -0.006984858 0.0011661868 -0.001395498 -0.0066150352 0.00076365424 -0.0036485621 -0.00804959 0.009612884 -0.00029893225 0.0012509123 -0.00039001618 -0.0048300177 0.0014714892 -0.0041485545 -4.2214357e-05 -0.0026723351 -0.0018287075 -0.00255249 -0.0026329914 -0.002218807 0.0022404979 0.006294725 0.010279015 0.0018456166 0.0040131626 -0.0013502891 -0.0022030848 0.0015235905 0.00337342 -0.003244327 -0.0023445154 0.0014787556 -0.0045662504 -0.0013983882
202 -0.0027041768 0.00082747155 -0.005040627 0.008884621 0.006038782 0.0013053026 3.0491938e-05 0.0081041455 0.012859276 -0.0011995813 -0.0018606768 0.006205624 -0.00029031694 0.0017943349 -0.003010141 8.788855e-05 -0.0073895263 -0.0023842826 -0.008735062 -0.003037249 -0.0049016997 0.0076074027 0.005155693 -0.01153667 0.0016716481 0.014957364 -0.00020377684 0.0063815564 -0.0014278048 -0.006087005 0.0011766292 0.0029282286 0.006457585 -0.004988879 -0.0011137312 -0.004661077 -0.0067616287 -0.0077056577 0.0037452313 -0.0057201968 -0.012385674 0.0021294826 -0.0039162776 0.0029498567 0.0032849817 -0.00017793446 0.0002158694 0.0016886103 -0.0067536095 0.004687102 0.0028041438 8.608598e-05 -0.0006248 0.0016738434 0.00045922108 0.004925872 -0.005325732 -0.0036085658 -0.0053186445 -0.011126618 0.00034181328 -0.0005385559 0.006630547 -0.0052684136 -0.009343164 0.0018856109 -0.0021598814 0.0028871393 -0.004316531 -0.0003834305 0.005102937 -0.0029464972 -0.0011151271 0.008843169 -0.006515121 0.004175087 0.0026582074 -0.0063236575 -0.0019223995 -0.0016117914 -0.0025590442 -0.0047125896 0.003602388 -0.0065444824 -0.0003683661 0.003708732 -0.0027193234 0.008834632 0.0075067137 0.0016857526 0.0030889662 -0.003985915 -0.005226824 0.007665676 0.00061980734 -0.0030519336 0.0031929524 -0.0021020395 -0.009238097 -0.0013627477
199 -0.006600324 -0.0010150247 -0.0037707086 0.0029693425 0.0025081956 -0.0025001573 0.0019567264 0.0027651906 0.010275468 -0.0045741275 -0.00117421 0.0052637374 0.003131292 0.0020500128 0.0061982363 0.0014516998 -0.0029301292 -3.0244737e-06 -0.0051510097 -0.0027180738 -0.0028282963 0.0011198143 0.0012439262 -0.014280568 -0.0010144312 0.019613458 0.005915056 0.0018013001 -0.0023408418 -0.0035740007 -0.0047333073 0.0015456717 0.0054993643 -0.0043295715 -0.0020530955 -0.002874318 -0.008434359 -0.013174312 0.0065142526 -0.006370762 -0.015850555 0.00798347 -0.0074030985 -0.00026612438 -0.0025617743 0.006629368 0.0009679988 0.004215485 -0.007816742 0.010585791 -0.0028197793 0.0063271024 -0.0013623519 -0.007232991 0.0044205617 0.0047369045 -0.008857091 0.0031017393 0.0037348603 -0.006552418 -0.0041442085 0.00036154757 0.0021239358 -0.008381224 -0.010459974 0.00166177 -0.0068642083 0.0054847253 -0.0047155526 -0.003993863 0.0027337137 -0.0012010311 -0.0025206287 0.013092548 -0.0024414377 -0.00035333217 -0.0032564532 -0.0055185063 -0.0076221107 0.0007936955 -0.0013087934 -0.00032016909 -0.0018811513 -0.002769132 -0.000578856 0.002947021 0.005778716 0.0004043785 0.0058621266 -0.0017059345 0.004145231 0.0024731224 -0.0066003515 0.0052555855 -0.006357522 -0.0046875817 0.0018661373 -0.0023623887 -0.008938732 -0.0039491956
124 -0.00061495113 0.0007383421 -0.0015670749 0.0030926 -0.001147147 0.00026126698 -0.0014539753 0.004369647 0.001935488 -0.004982566 0.00050195865 -0.00135047 -0.0015735299 -0.0023742544 -0.00031534146 0.0031557502 0.00055671914 -0.00037695176 -0.0054770084 -0.0026189818 -0.005844973 0.0017945652 0.0044258307 -0.0067397607 -0.0036789058 0.007566197 0.0028820748 -0.0035900131 0.0028780145 -0.002803249 0.00075318874 -0.003529648 0.0055778716 -0.004707676 -0.0012133132 -0.0016595979 -0.010219787 -0.007828572 0.0071791825 0.0005900845 -0.011504258 0.007071975 -0.0066918 -0.0009225365 -0.0013250028 0.0027491336 0.0016680646 0.00031381613 -0.007880504 0.0077337464 0.0016563014 -0.0017106464 -0.0006532788 -0.004012566 0.0067555686 0.007334542 -0.010817835 0.0032659296 -0.004859061 -0.0041158344 -0.0013785396 0.0060059684 0.00049816864 -0.0020481283 -0.009188529 0.00027388675 -0.008356299 -0.0019945062 0.0019268822 -0.0034999596 0.0048351944 -0.0022735072 -0.007383859 0.0049748356 -0.0058478145 0.0032892907 -0.00058363855 -0.0075740837 -0.007757214 -0.00044531078 -0.007874108 -0.005468491 0.0025973676 0.0013410057 -0.0059700287 0.006117306 0.00062752713 7.113329e-05 0.0070821606 0.0061573554 0.0019368803 -0.002002552 0.0017319301 0.0058409027 -0.0012791298 0.0011985317 0.00024124759 -0.0005555938 -0.002518218 0.0022461442
15 -0.001326542 -0.004614634 0.0020011326 0.004186758 0.0011254072 -0.0031442882 -0.0035809884 0.008033047 0.012523321 -0.0026244645 -0.006396531 -0.00071564515 -0.0020401664 0.0018888187 0.0021237296 0.001631507 -0.0021756869 0.0050943415 -0.007752194 -0.0041060993 1.30317785e-05 0.0009159555 0.0016428469 -0.01592675 -0.004844328 0.009200455 0.0049115694 0.0036114852 -0.004722344 -0.0031526382 -0.004467541 -0.004865555 0.0015766541 -0.0014628931 -0.00048037685 -0.0025867412 -0.0038617759 -0.0053731855 0.0017042512 -0.0073869703 -0.006921696 0.0027418297 -0.0118149975 -0.0008713406 0.0032063834 -0.002451575 0.0019008265 -0.0018710344 -0.009614432 0.007730755 0.0010828064 0.005796493 0.0012625727 -0.003870136 0.002922789 0.0033067644 -0.007149995 0.004369177 -0.0037446995 -0.010927387 -0.0037800923 0.0036463968 0.0055735116 -0.008954084 -0.005629655 0.006862474 -0.0044784388 0.0030265413 -0.0038502263 -0.0076814885 0.0008370376 0.0048777615 -0.00873757 0.011387056 -0.0035137536 0.002015432 0.0005374004 -0.00069135905 -0.0010437839 0.0004019009 -0.0030296254 -0.004959223 -0.0032844616 -0.0065229717 -0.0029344768 0.005394004 0.004114521 0.0027643705 0.012094088 -0.0023338087 0.0012670772 0.0020686411 0.0002760339 0.0010202185 -0.0027781387 0.004390276 0.0039870567 -0.0058214837 -0.00815824 -0.0013423644
91 -0.004215363 0.0014047107 0.00055913255 0.009982713 0.0029425272 -0.0020198463 0.0028632397 0.008244817 0.0114867315 -0.004279477 -0.0005361502 0.0071539315 -0.00011105058 -0.00041189053 0.0029209212 0.0060174884 -0.007777848 0.0053206803 -0.0051592174 0.00016557379 -0.0018679771 0.004964662 0.0035672355 -0.012484112 0.0028754869 0.010534115 -0.0023384276 -0.0009874323 -0.0050939783 0.0010266026 -0.0033112806 0.00015912463 0.0015596732 -0.0026726087 -0.0039866795 -0.004658326 -0.0050395485 -0.011968506 0.0007123954 -0.0047859135 -0.012257099 0.00095191103 -0.0030839138 -0.00037412782 -0.0034360748 0.0060042385 -0.0025527903 -0.0006922836 -0.009113584 0.0042219544 -0.00077867915 0.005548173 0.0014813166 -0.0050639557 2.020561e-05 0.0027894566 -0.012902203 -0.0019387563 -0.0044107153 -0.002892167 -0.0014720106 0.0059787715 -0.0008376276 -0.0025208844 -0.008360398 0.003258947 -0.0035083634 0.006018649 -0.0018636546 0.0003495648 0.006516434 0.0053228685 -0.0053621675 0.0032576662 -0.0044712666 0.0015578064 -0.0048047854 -0.004128208 -0.004871971 -0.0076794224 -0.00852345 0.0012392947 -0.0031699273 -0.00369273 -0.0017211047 0.005030869 0.001770276 0.0009648548 0.0061089355 0.0016776822 -0.002447367 -0.00092436845 -0.006982971 0.0042679436 -0.0042256434 0.0031876413 -0.0037935034 0.0009942404 -0.0017334702 -0.0068199164
38 -0.0027792098 -0.00097505964 -0.002961031 -0.00047984754 0.0062989276 -0.0009544913 0.003134625 -0.0012744984 0.006219004 -0.006519179 -0.006532691 0.0046274327 -0.0021415104 -0.001271958 0.0022789808 0.0035745858 -0.0027359738 -0.0008109366 -0.0050793025 -0.0022285008 -0.00028061445 0.0062013953 0.005065211 -0.007869378 -0.0024615363 0.01312301 0.00013149704 0.0006096997 -0.005442903 -0.00093782955 -0.003494743 -0.005279259 0.0038218745 0.0012413571 -0.004359247 -0.006255157 -0.0041939584 -0.008958632 0.0041386886 -0.007879466 -0.010039892 0.00048695912 -0.0071946564 0.0039595836 -0.0012479608 -0.00017279109 -0.001829597 -0.004552174 -0.003707665 0.0074169575 0.0005041546 0.0060756668 0.0013503724 -0.0020915098 -0.0019813213 0.009356408 -0.009409752 -0.0015959358 -0.0002844806 -0.007652466 -0.00023951629 0.002665821 0.007792787 -0.0058065667 -0.007392375 8.342821e-05 -0.0033064582 0.00038991668 0.0010856562 0.0019969393 0.0036557459 -0.0006789301 -0.0059177466 0.010697726 0.0032791279 -0.0022370198 -0.00055877777 -0.0036516758 -0.001728425 -0.0042944546 -0.0019031735 -0.0011582752 -0.0059379106 -0.0040957406 -0.0066775344 0.0014552324 0.004474251 0.0058287363 0.002326863 0.005940462 0.004351733 0.0017706142 0.0011263966 0.000104099156 -0.0023907325 0.000609947 -0.0014986459 -0.0001222573 -0.006904652 -0.0056050825
120 -0.0049317237 0.0020394397 -0.0013829945 0.0020009906 0.0059289485 -0.0021086633 0.004857508 0.0003580315 0.006398919 -0.005206064 -0.003830045 0.005093409 0.0025741898 -0.0054435725 0.0061547393 0.0047302246 -0.002082814 0.0051241843 -0.0068429634 0.00034996783 -0.006277291 0.009085382 0.0050746254 -0.011133354 -0.00028733863 0.016948584 0.006634524 0.0005245908 -0.0031508605 -0.0016032823 -0.0024866115 -0.0014549517 0.0023590948 -0.00026837277 0.0013026095 -0.010126942 -0.011623455 -0.0124150375 0.008360154 -0.008129631 -0.00847 0.0087939305 -0.008000981 -0.00017013938 0.0018436111 -0.00033848805 -0.0045303367 0.0027840917 -0.00858396 0.0028879074 0.006099803 0.00082924176 0.0046432554 -2.0218497e-05 0.0013593972 0.004766146 -0.014188604 0.0018575366 0.003774202 -0.013288603 0.0007004136 -0.00069146394 0.0012168947 -0.010977198 -0.014567755 0.0015660755 -0.0026890063 0.0005867206 -0.004496685 -0.00383869 0.0018172076 0.0038424765 -0.0093509685 0.01058986 -0.004102638 -0.00021553838 0.00036429346 -0.008420845 -0.0016618633 0.00039546646 -0.008328464 0.00030423363 0.0011846926 0.0002330422 -0.0028156035 0.006780775 0.0061219237 0.0027510538 0.012411455 -0.0014139309 0.00047307392 0.0015874909 -0.0040314933 0.008831209 0.002484079 -0.0024395604 -0.0015007309 -0.002435605 -0.009992642 -0.007930603
221 0.00014849736 0.0028039424 -0.0043864087 0.0035559703 0.008267053 -0.00067254883 0.00510774 0.005630391 0.010857937 -0.00080691045 -0.0009301739 0.0022817834 0.0018382866 0.0014382574 -0.0014587729 -0.0013897746 -0.0013736362 -0.0014658916 -0.0051920284 -0.0024188878 0.00218785 0.008135025 0.00261916 -0.0141810365 -0.0050423597 0.014470952 0.0034058522 0.00021073855 -0.0010858389 -0.0018684859 -0.0027806254 -0.0034322375 0.0006540799 -0.006292303 -0.0055280803 -0.001606477 -0.001568605 -0.008247937 0.007145654 -0.005025625 -0.008269732 0.0031864415 -0.0021721974 0.0018378028 0.004399199 0.00068684935 -0.0032367297 0.0015395216 -0.0035774019 0.007927166 -0.0016188526 0.006535656 0.003802136 -8.7360015e-05 0.0072695105 0.0024229167 -0.008600988 0.0041408516 -0.0014432184 -0.0021396722 -0.0003781049 0.0021579461 0.0040176865 -0.0026642908 -0.005750857 0.003155383 -0.00437329 -0.00022923715 -0.0048078345 -0.003450305 0.00181389 -0.0045258678 -0.0028717262 0.005569241 0.0017809726 0.0050206366 -0.0005019277 -0.006712015 -0.0034968862 -0.0014783186 -0.0057960027 0.00069691567 -0.0034133561 -0.0064356825 -0.005342181 -0.0017765476 0.0068530785 0.0070958463 0.0022940235 0.0052270372 0.000910477 0.00028694124 0.00071063224 0.005213839 -0.0019710837 0.0014294373 0.0014528501 -0.0028000486 -0.008263605 -0.0055869776
245 -0.0052885776 -0.0047949296 -0.0015689087 0.0057055205 0.001070167 -0.0022319495 -0.0005674732 0.0022185228 0.0073000845 0.0027831611 -0.005169779 -0.0019208853 0.0025512513 0.0012058713 0.0012038066 -0.001408591 -0.0032819754 0.0002909399 -0.007585029 -0.0030043158 -0.004307906 0.0056084 -0.00043506094 -0.013715879 0.0015690802 0.016473474 0.0018263807 0.0021647275 -0.00095976266 -0.006602026 0.0027610338 0.0025275182 -0.00027875317 -0.003531009 -0.0046402393 -0.0020100123 -0.009030782 -0.008962606 0.0046291924 -0.0012100262 -0.009474745 0.0068846038 -0.010407205 0.004206566 0.001445717 0.0009522669 -0.0034058464 -0.0007041052 -0.0021695932 0.0012241743 -0.0018094927 -0.001483612 0.0008752197 -0.007040967 -0.0008348959 0.0046302276 -0.0052134786 0.0014052921 -0.004761374 -0.011169324 -0.0033361197 -0.001588617 0.0023879001 -0.0023286843 -0.011552346 0.004535103 -0.005063439 0.0027526077 -0.003102739 0.0005322088 0.0040337024 0.00260852 -0.00056773436 0.009617593 -0.004387132 0.006097149 -0.0044237413 -0.003959877 -0.0019142211 -0.006068915 -0.0033396515 0.002319109 -0.003131737 -0.0059523284 -0.005757651 0.0062559512 -0.0025746129 0.008509044 0.0036607801 0.0006494017 0.00058007374 0.0009394219 0.0014528701 0.0013592888 -0.003120823 0.0022635835 0.0023330003 -0.0041477922 -0.0035946225 -0.005890405
258 -0.0043869116 -0.004550739 -0.0010011977 -0.0006496426 0.003218938 0.0015381853 -0.00080096786 0.0016151967 0.0076151663 -0.0044070617 -0.0084284805 0.0040517156 -0.0021785921 -0.004344487 0.004436647 6.586616e-05 -0.007953329 0.0013238414 -0.0085240025 0.00257475 0.0019337264 0.0031559132 0.007997727 -0.008816632 0.0033276624 0.014124736 -0.00068265083 -0.00058505323 -0.0026619157 -0.005708401 -0.003607228 -0.0050297827 0.002686184 -0.0034193774 -0.0046574995 -0.005887515 -0.007778601 -0.010284823 0.002976229 -0.0062198006 -0.010728976 0.0064799017 -0.004548311 -0.005435647 0.00068100874 0.0026134592 0.0039859945 0.0031690304 -0.00051057053 0.008705313 -0.0016119917 0.0040646284 0.0033124494 -0.003090844 0.0019677212 0.003079552 -0.0030407545 -0.00019904657 -0.00045137448 -0.009614436 -0.00651506 -0.0021692864 0.004198196 -0.0021171242 -0.006055608 0.006103264 -0.0025966761 -0.0025984552 -0.00018965371 -0.0051246597 -0.0019776223 -0.0017079796 -0.0062167654 0.010321255 -0.00546485 0.003392908 -0.003920072 -0.0024775197 -0.005473195 -0.002210571 -0.00035905972 -0.0006001504 0.00087821623 -0.0010457728 -0.0025231016 -0.00027337705 -0.00092471647 0.006558562 0.004878287 0.00040379172 -0.0006623666 0.0055706184 -0.004336093 0.0052745105 -0.0043512667 0.0035506163 -0.003257081 0.00023471293 -0.0015477703 -0.001836352
53 0.001965317 0.0013778302 -0.0031869907 0.005507405 0.0014129755 0.0052151964 -0.0022488239 0.0064756465 0.0046394803 -0.0020939757 -0.0061425855 0.00088628754 0.0022547082 -0.005936401 0.0007299324 0.0020189306 0.00052178965 0.00497155 -0.0026328845 -0.0034889905 -0.0014357261 0.0031635563 0.00021980557 -0.012662222 -0.0034795925 0.014537677 -0.00042479235 -0.0026902563 -0.00192593 -0.0028410468 0.0028364041 0.00254321 0.0057144267 -0.0067115654 -0.0036391327 -0.003726952 -0.00908134 -0.012370225 0.0010269718 -0.0015919708 -0.013381809 0.0029338459 -0.004578445 0.0033391535 -0.0024611552 0.0025913902 7.7461955e-06 -0.0032251917 -0.007617556 0.0029792176 -0.0030705861 0.001775553 0.0006659466 -0.00023802368 0.0061564725 0.004802331 -0.0037070527 0.0032270052 -0.0024466321 -0.0041691856 -0.002337016 0.0010869837 0.00578687 -0.0012174917 -0.010525816 0.003475889 -0.0059878314 9.430727e-05 -0.0041838647 -0.0048136516 0.0007686094 0.00063078356 -0.0078845555 0.0027412197 0.0012236198 -0.0012451857 -0.00081466883 -0.0062199403 -0.0029441246 -0.004498314 -0.0037060217 -0.0017424106 0.00023779523 -0.006700208 0.0006465299 -0.0006174265 0.0052542835 0.0006400198 0.007282052 0.0072410763 0.0021967983 -0.00032284312 0.0023150898 0.007299716 -0.0006001794 -0.0046940185 0.00038395007 -0.0009057472 -0.0068681827 -0.005326182
128 0.0017921006 -0.0064011486 0.000954299 0.004284556 0.0013485885 -0.003079918 0.0019590496 0.0014473961 0.002001099 -0.002102806 -0.007348325 0.0011711799 -0.0002489713 0.0023948995 0.0019498729 0.0011611009 -0.0053049685 0.00014554037 -0.0020838422 -0.0060509923 -0.0066119344 0.0015186118 0.0012696214 -0.011610512 -0.0014835475 0.0069843926 0.0003427852 0.004732864 -3.9196108e-05 0.0023919635 0.0027767222 -0.005146084 0.0070166946 -0.0039799595 0.0016171966 0.0007055792 -0.00610076 -0.0020273952 0.0010433041 -0.0064808573 -0.008400789 0.0032215845 -0.0050356775 -0.004415424 -0.003165289 0.001307968 -0.0042245532 0.004197352 0.0004322671 0.008692648 0.005306019 0.006818383 8.8469424e-05 0.001569408 -0.0004294162 -0.00053662475 -0.007692646 -0.0033150087 0.00052731665 -0.009336677 -0.0023119696 -0.001800548 0.007200004 -0.00047988494 -0.011337416 0.0032685741 -0.008978144 0.003217198 0.00048590568 -0.0020374514 0.004334791 0.0026166413 -0.0022284803 0.0007629618 0.0021550646 0.002287137 -0.001970438 -0.0009598949 -0.006907764 0.00268938 -0.0077710594 0.0010996938 -0.0052166455 -0.004239766 0.0016955514 0.000861281 0.0063932985 -0.0011667961 0.007163386 0.0031056888 0.0039979946 -0.0017946592 -0.0038283807 -0.0023128022 -0.0049766074 0.0003437083 -0.0037054848 0.002144518 -0.008530232 0.0006023578
65 -0.0011535477 0.0015348053 0.0029986072 0.0055975704 0.0030997568 -0.004462788 0.0048293807 0.002230852 0.011394317 -0.0037946294 -0.006619623 0.0064285807 0.0020163865 -0.001040994 0.0035074144 -0.0032650048 -0.002813398 0.0044831564 -0.0071959565 -0.0031996435 0.0010501526 0.0036134843 0.003123868 -0.014067606 0.00064146484 0.009586047 0.0064159664 0.001345494 -0.0013257012 0.0006139658 -0.005244676 0.00066560926 -0.00039255965 0.0010940926 -0.0065042414 -0.0031136428 -0.009432434 -0.01349972 -0.0011144589 -0.0046511427 -0.0055922703 0.0015273261 -0.009903887 -0.0030765461 -0.004126083 0.0030875055 -0.004170556 -0.0035462137 -0.003386802 0.007610609 0.00026712325 -0.0010657886 0.001741353 -0.0010914996 0.00590741 0.0005814455 -0.0057406765 0.0024321477 -0.0005630499 -0.0044043395 -0.00037515422 0.0048732585 0.002828359 -0.0051473384 -0.01067397 0.0005392546 -0.002256884 -0.0017980267 0.00027113804 -0.0015029167 0.0059821303 0.0023639237 -0.0016903883 0.0095473025 0.0013665878 0.0051316214 0.00019143659 -0.0018991444 -0.0005698409 -0.0009435417 -0.0072713643 -0.0024020772 0.0029562695 -0.0031598469 -0.00678483 0.0046581593 0.0042743725 0.006553754 0.004328874 0.0010821053 -0.00023225186 -0.0014692593 0.0005900462 0.0010563276 0.0019767962 -0.0049811243 0.0037141456 -0.00496769 -0.010236763 -0.006667634
105 -0.00353486 -0.0046114456 0.0032151719 0.00010546367 0.0085333465 -0.0012148136 -0.0021802452 0.0050366716 0.0114254225 -0.0050202077 -0.0054466664 -0.00019400055 0.0009522813 0.0023666355 -0.002188142 0.00234756 -0.0012062619 0.0025736527 -0.0049582426 -0.0024012031 -0.005476731 0.0076950616 0.0051785526 -0.016171385 -0.0050626467 0.014947545 0.0047761714 0.0032320905 -0.0035891305 -0.00605133 -0.0036003457 -0.005033516 0.0012485187 0.0015763483 -0.0025831421 -0.001788504 -0.009920272 -0.008882272 -0.00067700044 -0.0043614777 -0.012297104 0.0070223934 -0.006498228 0.004349251 -0.003420092 0.0017507693 -0.0015919451 -0.0023001668 -0.006368704 0.0038637377 0.005733389 0.0014407843 -0.0019176259 -0.0025354612 0.0052894205 0.0029601678 -0.011434328 4.9624363e-05 0.0003546842 -0.00782787 -0.004603715 -0.00021680875 0.0043545137 -0.008429163 -0.010418487 0.003616607 -0.008817336 0.005663145 0.002086067 -0.002214487 0.0039268215 -0.0037715617 -0.0043666684 0.006614937 0.0012891191 0.0039766296 -0.004319896 -0.0057287 -0.0004749535 -0.0007346103 -0.0015813345 0.002680066 -0.004264166 0.0023650315 0.00062410516 0.0044489424 0.002924817 0.0068080844 0.008063886 0.0050801993 -0.00084885897 0.0015560841 -0.0062164944 0.00588536 0.002626781 -0.002074152 -0.00073925254 0.001814992 -0.005627176 -0.00023291778
9 0.00029085323 0.0014540796 -0.0053627207 0.002474841 1.4789111e-06 -0.005043215 0.0022575452 0.00012922002 0.009640792 -0.0069301366 -0.0077352226 -0.0013675357 0.00039564044 -0.002069427 0.003680463 0.00096635096 -0.003941745 -0.003288794 -0.0030452358 -0.0009647924 -0.0018189818 0.006208739 0.005569848 -0.013971194 -0.0039826096 0.011999769 0.0020746468 0.00218101 -0.0016880437 -0.002366603 -0.003276761 -0.0031739892 -0.0015494783 -0.0053701904 0.00092215376 -0.00605626 -0.011207573 -0.004999531 0.0023300478 -0.00470941 -0.010160685 0.009964123 -0.008986751 1.6058444e-05 0.003647614 -0.0027981896 0.0017188754 -0.0014103481 -0.0069795116 0.0094996225 0.0021096496 0.0070349853 0.0022775503 -0.0013472751 0.0036354205 0.00815218 -0.006672983 -0.0018444925 0.00081742305 -0.010212356 0.0010434757 0.0061147427 0.0048844097 -0.00754866 -0.0038630276 -0.0005772248 -0.007026086 -0.00022119393 -0.0052033714 0.001342184 -0.0015075487 -0.002944674 -0.00067109935 0.0066006808 -0.00077566074 0.0053665373 0.0020019854 -0.006206502 -0.0030511704 -0.0018246894 -0.008191864 -0.0011167412 -0.00527114 0.0028170107 -0.003428738 0.006282241 0.0041090683 0.0051106107 0.005133403 0.006036829 0.0051452327 -3.506584e-06 -0.0067682364 0.00583839 -0.0027727773 0.0031974432 0.0023740386 -0.005167774 -0.008010618 -0.006153222
60 -0.005186895 -0.0039865333 0.002221387 0.0027821544 0.0051495833 -0.0029379972 -0.0006912858 0.0021492387 0.008373949 -0.0015836664 -0.004421986 -0.0024238948 -5.7426336e-05 -1.8379507e-05 0.0044057043 0.0028362672 -0.007235657 0.0016227674 -0.0050434796 -0.0022948305 -0.0021518704 0.008756101 0.004618474 -0.015478386 -0.0017706583 0.016947862 0.004317066 0.0020127622 -0.0007369786 -0.00033332963 0.0035476198 -0.0048627146 -0.0016462905 0.00072696985 0.0009214958 -0.0077606402 -0.004128502 -0.0060228026 0.0080012735 -0.0010875945 -0.012462872 0.004711224 -0.005799575 0.0018381687 0.00015093901 -0.0016437296 -0.0015053813 0.0032579876 -0.0020263658 0.007780969 0.000993555 0.005354007 0.002647453 0.0006214311 0.0023736034 0.0042877463 -0.0052753226 -0.0027142086 0.0042017056 -0.008774447 -0.0031015538 0.005040699 0.0064143534 -0.007902565 -0.012465117 -0.0022318817 -0.003815033 -0.00189987 -0.0028029985 -0.007536273 0.0070008626 0.0034333896 -0.008826475 0.010351599 -0.0045886515 0.000681211 -0.001365047 -0.006433348 -0.0078362385 -0.0077277026 -0.008517711 -0.002798716 -0.0019748816 -0.0021974365 -0.0038541884 -0.00058053806 0.0021591217 0.004595743 0.0030656122 0.0039002472 -0.0031151234 -0.0020341391 -0.0008886211 0.0075037433 -0.005227654 0.00030338348 -0.0017700724 0.00023431357 -0.0013545703 -0.004388041
130 -0.0019488236 -0.0051918672 -0.0035575891 0.0076301796 -0.0019536167 0.0048999176 0.0035575337 -0.0016009295 0.006837 -0.003352185 -0.007939244 -0.0008665789 0.006070839 0.004089141 0.0023910755 0.0038081056 -0.0040303105 0.0024662276 -0.0034278806 -0.0037188549 0.00038651426 0.0036404235 0.0011662712 -0.008211501 -3.697969e-05 0.0072314166 0.006481143 -0.0034054618 0.0025545892 0.0029842625 -0.0033908496 -0.004749954 0.003059066 -0.002665715 -0.000407552 -0.004424459 -0.0066932826 -0.006725731 -0.0005888743 -0.007271405 -0.0047794646 0.0007659468 -0.008384097 -0.003705579 -0.0024989585 0.002673496 0.0012230768 -0.0036207936 -0.004719567 0.00663479 0.0040591606 1.9033214e-05 0.004343026 -0.00049723964 0.0028391045 0.005169397 -0.0066376897 -0.002124127 0.00014787157 -0.00769862 -0.004910752 0.003990216 0.006760594 -0.0070721325 -0.007824854 0.0024754107 -0.0063409936 0.002270093 -0.00505675 -0.00500718 0.0029527668 0.002223294 -0.006438554 0.0041444753 -0.0023025281 0.0064744037 -0.0024137264 4.05257e-06 -0.0061880792 0.00025872455 -0.0007532937 -0.0027958339 -0.0021539812 -0.0005853583 -0.0021072445 0.0016598605 3.6389174e-06 0.0064425673 0.0010753532 0.0032902372 -0.0003308229 -0.0036651057 -0.003711935 0.002142482 0.0020144372 -0.0053996923 0.0021956537 0.001203959 -0.004297366 -0.0001284576
215 5.843051e-05 -0.006111369 -0.006221957 0.003465762 0.0087778075 -0.0034623395 -0.0042474647 0.0065957997 0.00305056 0.0011870129 0.00013942187 -0.0017194861 -0.0023907144 0.0028890385 -0.001967237 0.0028722128 -0.00822777 0.0008135711 -0.000639832 -6.22684e-05 -0.0023148893 0.0013029068 0.008797233 -0.010000003 -0.0031540752 0.015729401 0.002345515 -0.0035475742 0.0039604455 0.003041558 -0.0015419794 -0.0036341385 0.00065409794 0.0023041375 -0.0047591827 0.00043677434 -0.004985847 -0.0074887816 -0.0013635514 -0.002515439 -0.006244907 0.005987705 -0.0049644914 0.004056345 -0.0015834166 -0.0026195454 -0.0019262154 -0.0029652887 -0.00941923 0.0032327888 -0.002816018 0.0015060687 0.0031207516 -0.0005082276 0.004825548 0.0072993906 -0.0054400912 -0.0025366736 0.0007361764 -0.0066123987 0.0012276267 0.005690516 0.0060000774 -0.0011963978 -0.012649593 0.0043642484 -0.0105784815 0.00046688982 -0.006799199 -0.0037401556 0.0039953217 -0.0036237857 0.0010306328 0.010983289 0.0030266463 -0.0021536394 0.001369968 0.00013685049 3.2358563e-05 -0.005464874 -0.00233926 0.0024484831 0.0041797976 -0.0035838808 0.002227676 -0.0007008063 0.002293075 0.001271019 0.0055267154 0.0062703793 0.0010067268 0.0056375745 -0.0021257068 0.0011524196 0.0015392157 0.002236704 -0.004704455 -0.0022685488 -0.0067878407 -0.0068980306
243 0.0022832798 -0.004418597 -0.0011558388 0.004401395 0.0037323425 0.003932144 -0.0033531797 0.004413233 0.008525303 -0.0058507076 -0.0061877044 6.415032e-05 0.0019037744 -0.0009349523 0.0054411357 -0.0023772954 -0.0069842516 0.004623623 -0.0005585004 -0.0013937491 -0.0019471056 0.0034028068 -0.000371331 -0.006430603 0.0017860677 0.015076236 0.00087960326 0.001409814 -0.0036885187 -0.0045251176 -0.0024958865 0.0013056287 0.0043685967 -7.418381e-05 0.0026346592 -0.0039600884 -0.010612807 -0.007004105 0.0049572587 -0.0027276285 -0.0027088088 0.0067297244 -0.005260998 -0.0028796818 -0.0003879263 0.0018884523 -0.0014086479 -0.004795133 -0.006800924 0.00833616 0.005843768 0.00042514558 -0.0013381222 -0.0058152573 -0.0014580452 0.00588335 -0.011481749 0.00095727167 -0.0041686213 -0.0043641552 0.0019582268 -0.0012299533 -7.175366e-05 -0.0049598548 -0.0073907753 0.000689299 -0.0056923106 0.0022744425 -0.006403744 -0.0014274177 0.0015218797 -0.0013219722 -0.006106814 0.010010951 -0.000971839 0.0042883465 -0.0006165414 0.0011792193 -0.0075055296 -0.0036620607 -0.004867063 -0.0035817844 0.00024793757 -0.0067374646 -0.0026480225 -0.001714921 0.001230567 0.003788084 0.0032603191 -0.0008294784 -0.0015585865 -0.0012303874 -0.0029442364 0.0025754266 0.0030974054 0.0013238258 0.001089111 -0.0064403755 -0.00095860736 0.0016848217
134 0.0033471007 0.00051167334 0.0010538753 0.0061918893 0.0047265617 0.003599608 -0.00025094388 0.0016079997 0.0058972235 -0.006216078 -0.0017564553 0.00044023493 -0.0028977422 -0.004015422 0.002565128 0.0052360273 -0.002712924 -0.0034068872 -0.00073626067 0.0030924622 0.00014759057 -0.00068652304 0.0008297498 -0.008297655 -0.0064240773 0.012718014 0.0029350831 -0.0008297181 -0.0054744547 -0.0048407908 -0.0014347577 -0.001330559 0.0016851167 -0.00091871584 0.0006104555 -0.0041540624 -0.0038129424 -0.0062866784 0.0051596644 -0.0018950773 -0.0036644994 0.0093714865 -0.004572982 -0.0045134453 0.00037384356 0.005454831 0.0012938135 -0.0004322215 -0.000118228345 0.0020389925 0.00026158552 0.005008371 -0.0022517499 -0.0062569636 -0.00090417673 -4.340367e-05 -0.0036951897 0.0021708633 -0.0031862496 -0.0068817525 -0.0052225897 -0.0018518396 0.0056491513 -0.0042068446 -0.009619644 0.00011522362 -0.009265389 0.0051531508 0.00091927213 -0.006499532 -0.0022317478 -0.0005079023 -0.0066496814 0.0017108817 0.0034522673 0.0038110767 0.0006102739 -0.00014622175 0.0009163265 -0.0040470776 -0.0040057213 -0.00021645664 0.0038514908 0.0027340034 -0.00027960556 0.0056509897 0.0013326424 -0.0009928601 0.007107207 0.0050983154 -0.0029560258 -0.0026552915 -0.0036238688 0.0036531957 -0.0045459876 0.0023956283 -0.0021031182 8.338109e-05 -0.004448387 -0.0005245346
212 -0.004769149 -0.004750628 0.0019372287 0.007011687 0.009594706 -0.00083968753 2.6380547e-05 0.005779536 0.0075582056 -0.003616078 -0.0025299971 0.002186295 0.005147819 0.0005493033 0.0009902274 -0.003004219 -0.0057544005 0.0030130073 -0.009555139 -0.0036144052 -0.0031854694 0.0078120073 0.006128904 -0.016132874 0.0016633255 0.015938776 -0.0017832142 0.0017846754 0.003136372 -0.0050893547 -0.0032373709 -0.0008070218 0.007249184 -0.00041610003 -0.0010644089 -0.004837663 -0.0042575775 -0.006774899 -0.0006187252 -0.00529133 -0.0149733955 0.01043697 -0.004081975 -0.004069676 0.003578055 -0.00090489653 0.0045448514 -0.0020268715 -0.0047916807 0.004454845 0.0018259895 -0.00033967246 0.0042090234 -0.004372025 0.001732586 0.009515396 -0.008509832 0.0010128716 -0.003125017 -0.01203789 -0.0005981833 0.0032902677 0.0020442572 -0.004236176 -0.0081332745 0.0033758201 -0.0035065755 0.00641042 -0.005859748 0.00073414587 0.0018606889 0.0015892782 -0.006405862 0.0055891797 -0.005173831 -0.00024086877 -0.0021157046 -0.0022182432 -0.0025183605 -0.0018233025 -0.0035851449 -0.0050309766 0.0028256525 0.0022323392 -0.0063932617 0.00238533 -0.0010790409 0.002114359 0.0059828865 -0.0013708496 0.0022813214 0.0018694351 -0.0041794796 0.00041316167 6.750387e-05 -0.002410948 -0.0046058157 -0.0008560206 -0.009651116 -0.0018826775
59 -0.0046013133 0.0008137978 0.00041088118 0.009250833 0.0030385144 0.00329623 -0.0032408198 0.008631821 0.012494532 0.00016504742 -0.0034516081 0.007374618 0.005216188 0.0028018523 0.00093894085 0.0060103713 0.00011051499 0.0012871386 -0.002065426 -0.0072565107 -0.005441045 0.009175956 0.0028530236 -0.013846702 -0.00045059912 0.018815681 0.005120357 0.005745602 -0.003199973 0.0021503703 -0.002734556 -0.0026858354 0.0058776676 -0.0032485123 -0.0062992154 -0.0017804401 -0.0068620676 -0.01223305 0.006728243 -0.0075583397 -0.010511753 0.009501088 -0.011639645 -0.0030780036 -0.0031028436 0.0035174855 0.003802905 -0.0051468113 -0.005889067 0.0041761254 -0.00011415567 0.008899892 -0.0026776234 -0.0019892992 0.0035985804 0.007858486 -0.010545978 0.0009397211 -0.0032765877 -0.0067608906 -0.0008251483 0.0015488181 -0.000762029 -0.0018574795 -0.010933352 0.0052657565 -0.009521155 0.00045321326 -0.0041545867 -0.0018711254 0.0066533205 0.0010546077 -0.0042511392 0.009020773 -0.0055068517 0.0064996644 -0.0005862091 -0.0026181596 -0.007426981 -0.0046798964 -0.009367861 0.0020627796 -0.0010908385 0.00019126589 -0.00047484608 0.0033336661 0.006208793 0.0015073258 0.007435043 0.0070262207 0.003028997 -6.0229973e-05 -0.0042829835 -0.0007663096 0.00095809845 -0.0010580481 0.0020740086 -0.0027986572 -0.0036590511 -0.001491966
206 0.0016460201 0.00027955696 -0.0039633033 0.0034876722 0.0015917176 -0.0029268316 0.004651828 0.003257679 0.00438409 -0.004720056 -0.006726131 -0.0007572345 0.0024447392 0.00039276888 0.00052831403 -0.0027752228 -0.001168491 -0.0029956892 -0.008731601 -0.0032237764 -0.0058100834 0.0029467985 0.0014772727 -0.014393505 -0.001795454 0.01571223 0.0013491296 -0.0027660583 -0.004636431 -0.002421566 -0.0023367272 -0.00047205976 0.005865212 -0.0063405125 -0.0026455189 -0.003031264 -0.009035842 -0.0072606974 0.0020371755 -0.009377555 -0.013352833 0.010384579 -0.009458276 -0.005274914 0.0038223867 -0.00029616986 -0.00042658398 -0.002102819 -0.007088582 0.0015427811 0.0021646323 0.0025751463 0.003003461 0.001474414 0.0058675283 0.0047192285 -0.0097018825 -0.0001480266 -0.00312709 -0.007266952 -0.0003564132 0.0036577624 0.00025451416 -0.0061857286 -0.005805539 0.002553173 -0.006435616 -0.0009948519 0.00280171 -0.0011940394 0.0064858533 0.0023915088 -0.0040179486 0.0027275549 0.00076982623 0.006750341 -0.00080745004 0.00071620115 -0.007330436 0.0002279442 -0.0027110344 -0.003394793 0.00026684263 0.00103778 -0.0015616866 0.005297716 0.0016977569 0.0040929536 0.0028883284 0.004954388 0.0064388514 0.0019603008 -0.0073082685 0.0016726153 -0.002705604 -0.001735277 -0.00060817617 -0.0029640195 -0.004926519 0.0016631742
171 -0.00074327074 -0.0022830132 0.0034660455 0.008741143 0.004224479 -0.0015946565 0.004865971 0.0049663414 0.006990845 -0.0061473665 -0.0060717836 0.002636094 0.006948731 -0.005723983 0.0007116589 0.0049941074 -0.007261099 -0.0020879589 -0.0066022114 -0.0035553027 -2.0804582e-06 0.0019784465 0.00802161 -0.013071873 0.0025207293 0.011964226 0.0011158416 0.0043113143 -0.0029472585 -0.0040335483 -0.00016308762 0.0023895584 0.0027806957 -0.007528424 -0.0020355352 -0.0036155547 -0.010954472 -0.008932594 -0.0012987239 -0.010498684 -0.013114838 0.009109533 -0.013149333 0.0037350259 0.00038641077 0.00389109 -0.0031932786 0.0019896198 -0.006818796 0.007276468 0.001767491 -0.00088207005 -0.00050020334 -0.0049786675 0.007356421 0.0066224127 -0.013184895 -0.00058877544 0.0012729154 -0.0029482434 -0.0026626773 0.0054188524 0.005469302 -0.0059316913 -0.0102445055 0.004902355 -0.008213065 0.0015736378 -0.0008945332 -0.0064307754 0.002031509 0.0014219044 -0.00842259 0.008366239 -0.0060806484 -0.0018963718 -0.004606265 -0.000394609 -0.005320086 -0.001908322 0.00011081155 -0.0053534326 0.00056646013 -0.0036785416 -0.00611517 0.0045064786 0.0025398924 0.0012645415 0.008587588 0.0063625346 0.0021682521 -0.0023347193 -5.1657233e-05 0.00013848896 -0.005199501 -0.003878244 0.0017665789 -0.00408724 -0.0030855173 -0.0023087214
80 0.00042706422 -0.0063002515 -0.0046288664 0.009864572 0.0031833502 0.0043107164 -0.002557386 -0.0008401119 0.0063500823 -0.0008825955 -0.0074015586 0.0049369517 0.0044571874 -0.0023413375 0.0058090743 -0.0023413943 -0.0048340512 -0.0034753731 -0.009442597 0.0016552102 -0.001522463 0.008253368 0.001578008 -0.01584535 -0.00033558908 0.016657703 0.0026413975 0.0059299045 0.0018069792 0.0022384897 0.004192363 -0.0020451525 0.0021973304 -0.0042203693 0.00010394634 -0.0011011935 -0.008796857 -0.014518861 0.0041285134 -0.004683741 -0.012317879 0.0062946323 -0.004587986 0.0017979001 0.0043997704 0.004048855 -0.004829687 -0.001989771 -0.0057069273 0.010497625 -0.0031014422 0.0059997286 0.0048899697 -0.0035795977 0.0029456443 0.008703233 -0.010566512 0.0035339496 0.0024239537 -0.006001894 0.0011981045 0.0043157386 0.0008607102 -0.0067475545 -0.0071889977 -0.0011561164 -0.010169668 0.0030717757 -0.0061359727 -0.00047078723 0.0068466594 -0.0037650226 -0.0036201456 0.01132996 0.002263886 0.00071085617 -0.0035516012 -0.00552698 -0.00824256 -0.0037836737 0.00048551933 0.00069326453 0.003242395 0.00086342567 -0.003356269 0.0076368744 0.0045630313 0.0025865543 0.010025876 0.0073397225 -0.0017284482 0.0006343203 -0.0057097096 -0.00014199634 -0.0042845476 -0.0024097664 0.003670458 -0.0030631437 -0.0015752594 -0.0014530291
241 0.0021649639 0.00074963423 2.940546e-05 0.0046159006 0.0055111297 0.0015094458 0.0025291229 -0.001386903 0.0088936 -0.0014714432 0.00074776064 0.0063427566 0.004520133 0.00091133144 0.0027849777 0.0035685059 0.0004996626 -0.0042478163 -0.00022540783 -1.9700747e-05 -0.005681875 0.0052401097 0.0021132685 -0.010464682 -0.003542446 0.014313038 0.0012252908 -0.0011914624 -0.005533928 0.0030241385 0.00014536397 -0.0036129272 0.006066622 -0.004260535 -0.0014496819 -0.0015300435 -0.006230944 -0.006760785 0.0022105225 -0.0056392746 -0.006290482 0.0074865706 -0.010850553 0.0034577916 0.002601718 0.0026010917 -0.0036008589 0.004461815 -0.0014564774 0.0024244466 -0.0012522811 0.0016004819 -0.0023073177 -0.0014589175 0.00020590691 0.0086211935 -0.0077414433 -0.002831956 -0.0029756078 -0.00990415 0.0013210039 0.0073283166 0.003814717 0.00020810426 -0.008527179 0.0063369824 -0.006795082 0.0028806585 -0.0023925924 -6.566712e-05 0.003063806 -0.0010730763 -0.0042925198 0.008711074 5.562233e-05 0.0016813836 0.0012970706 -0.0036064824 -0.0006194689 -0.0039602197 -0.002687556 0.00042219862 -1.1155666e-05 -0.0006682068 0.00033386413 -0.0019233676 -0.0024318758 0.0025161696 0.008919164 0.0035565852 -0.0019935984 0.0008193319 -0.005173966 -0.0010606848 0.0025626959 0.0038494524 0.003644641 -0.006176598 -0.002989403 -0.0006709649
74 0.0021516283 -0.0061082533 -0.0020491097 0.005428046 0.0059686573 -0.004381661 0.0038800435 0.0049657654 0.008701407 0.0019706949 -0.0069980067 0.00068760215 0.002707871 -0.003652236 0.00246005 0.0023176745 -0.005206078 0.0006410014 -0.00919899 -0.00035577547 -0.003175799 0.0041278875 -1.3713332e-05 -0.0164051 -0.0011243278 0.015531856 0.0055127656 -0.0027315286 0.0010112437 -0.0042735455 0.0041525657 0.0004598813 0.005393264 -0.0028371057 0.0012422932 -0.0038658963 -0.012501035 -0.007889267 0.0018429286 -0.009569459 -0.014890897 0.007626703 -0.0077880602 0.00058440334 0.0015002402 -0.0012496499 -0.000726123 0.0002680605 -0.0061179143 0.007366194 0.002781353 0.0031896068 0.0044949665 -0.0060237716 0.005499788 0.008204917 -0.007207649 0.0021553128 0.0030925355 -0.0034092467 -0.0031684095 0.0029811359 1.7293947e-05 -0.0047351182 -0.011783786 0.0030595248 -0.009953413 0.0034923025 -8.285268e-05 -0.0009657408 0.0019021098 0.004839336 -0.0066130217 0.010879327 -0.00393425 -0.0021702847 0.00071462046 -0.007368378 -0.008945804 -0.0045643225 -0.0050323633 -0.004012851 0.0022214153 0.0003902005 -0.0030084385 0.00676162 -0.00057200505 0.0064686723 0.010112872 0.0054234304 -0.000100591846 -0.002242355 -0.006010142 -0.001780174 -0.00049242674 0.0010728344 -0.0048830933 -0.0077411444 -0.0060367687 -0.005408781
112 -0.0065858047 -0.005388682 -0.00050033984 0.009613253 0.00393747 -0.002238135 -0.0005822173 0.0026390757 0.0053414083 0.00039143415 -0.0011468424 0.004934744 0.0051833843 -0.004273398 0.0063546957 0.0011899071 -0.009146792 0.0010916401 -0.004157466 -0.002074797 -0.0039515733 0.008629526 0.00693382 -0.01903495 -0.0042570983 0.017801119 0.005570123 -0.0013937523 0.001736898 0.00013650695 -0.0019072144 0.0017668298 0.005982925 -0.0042333663 -0.00033636618 -0.009844956 -0.012811833 -0.010566062 0.0022960687 -0.0052502123 -0.00989658 0.007132035 -0.011489334 -0.0024974493 -0.0003222555 0.0018858043 -6.710332e-05 -0.0041030687 -0.003447471 0.0053193234 0.003287455 2.4673664e-05 0.003228598 -0.0068054628 0.0048827664 0.0066820197 -0.009401043 0.002389039 -0.0022950761 -0.008812168 -0.0058767954 0.0043548946 0.0022449058 -0.009416351 -0.013397184 0.004181516 -0.0060720635 0.0062651397 -0.0059221867 -0.001984698 0.0009790262 0.004918767 -0.003308809 0.010040035 -0.0046788165 -0.0019671193 -0.006293998 -0.0024415755 -0.00054215966 -0.008023907 -0.0009013387 0.0027441552 0.001905589 0.00055201276 -0.005084113 -0.00034725957 0.0055754073 0.006242881 0.012388713 0.005449897 0.0045135035 0.00627937 -0.006128118 0.0031154812 -0.004666743 -0.00088477886 -0.0031415613 -0.0060016247 -0.0053521935 -0.0055637583
37 -0.0054867356 -0.0010897627 -0.0016016146 0.005423294 -0.00063055335 0.0015814836 -0.0011072274 0.0044684177 0.004782121 -0.0018521679 -0.005549853 0.0011800107 -0.001688852 -0.0031184247 -0.0018448808 -0.0032108494 -0.0038616909 -0.0028445278 -0.006946542 -0.005484866 -0.0011913506 0.007639042 0.006649266 -0.013486956 -0.005109115 0.0123888925 0.0006540619 0.005342305 0.00072566484 0.0011485826 -0.0004189455 0.0011837214 0.00041067592 -0.004691827 0.000990536 -0.0028564439 -0.0020536247 -0.0105986325 0.005957051 -0.006518119 -0.011294798 0.005390685 -0.007859811 0.0021731397 0.0030321903 0.0037166507 -0.0047729784 0.0044178725 -0.008167779 0.006971372 0.0056821294 -0.00064416847 -0.00084952085 -0.0022096462 0.0015161511 0.0067446684 -0.0053280224 -0.0012968155 -0.002829692 -0.01063616 0.0011410213 -5.825931e-05 0.0005449244 -0.007923128 -0.005272239 0.000928984 -0.004327956 -0.001765217 -0.006860274 -0.0076266774 0.002455491 0.0025942172 -0.006157401 0.010112952 -0.004890109 -0.0022536833 -0.0045430856 -0.0053943964 -0.004812109 -0.005142202 -0.00632984 0.0012980469 -0.004267202 -0.0012729573 -0.0058845263 -0.0009757078 0.0060738185 -0.0005362131 0.010167062 0.005494216 0.0031902788 -0.0024847882 0.003368646 0.0045074224 -0.0010284082 0.003127364 0.0013904355 -0.0036774597 -0.006900937 -0.0055296742
163 0.0019321162 9.089193e-05 0.00051771215 -0.00023247438 0.0006463044 -0.0018330507 0.0042630197 0.0003545356 0.003742673 -0.0032985487 -0.0031620252 0.0020454675 0.006820419 -0.00030047036 -0.000931211 0.0034085345 -0.0041923868 -0.0032358165 -0.00784277 0.0015798146 -0.0018514434 0.008813087 0.008256423 -0.01183513 0.00018238393 0.009560755 -0.0019535504 0.0010736097 -0.0008874349 -0.0014658275 -0.004563002 -0.006196213 0.006738746 -0.0045438926 -0.0063690934 -0.0006056661 -0.0045786095 -0.0070621246 -0.0009196593 -0.0034105345 -0.008284267 0.0017541797 -0.011000488 -0.0005429619 0.0035998907 -0.0011022594 0.0020166363 -0.002283322 -0.0023803478 0.004188046 0.0017080051 0.0063869995 -0.0006084602 0.0015604557 0.0056673517 0.004709119 -0.008334975 0.004001633 -3.7183858e-05 -0.0035645312 0.00059291825 0.006295514 0.0071629467 0.0005089137 -0.0089745615 -0.00081518263 -0.00491367 0.004872916 0.0012003469 0.00022442808 0.0056187054 0.0021916495 -0.0027946588 0.0071457694 -0.0033977774 0.005059741 0.0030639993 -0.0014526063 -0.005572737 0.0013850081 -0.004969628 0.0002673536 0.00069463043 -0.0050726524 -0.0023098348 0.0065346635 0.0012822273 0.0020398542 0.0046693454 0.006813306 0.004545287 -0.00054860517 -0.0048878747 -0.0015613755 0.00048585466 0.0043733167 -0.0026796437 0.0022684326 -0.008732747 -0.0061068987
57 -0.005173008 -0.0030657575 -0.005148368 0.0023125354 0.0012745865 -0.001402832 -0.004183186 -0.0018444556 0.010700035 -0.004773874 -0.008059713 -0.0025741823 0.0046826843 0.001803984 0.0038983214 0.0031810792 -0.007891926 0.0034114204 -0.008353403 0.002211014 -0.0064303563 0.006284656 0.003782047 -0.012212438 -0.002815858 0.012511834 0.0015715729 -0.000111773275 -0.00024259876 0.0025880334 -0.004997304 0.0012195988 0.001166252 -0.0071147634 -0.005050983 -0.0074037635 -0.0031994618 -0.0095322775 -0.0005179106 -0.005136204 -0.002873059 0.0062083397 -0.0075397044 -0.004804955 0.0016200979 -0.00042434878 0.0038402935 -0.004859607 -0.0037206751 0.0057534394 0.002821555 0.0037475247 0.004898849 -0.0018466079 0.0076696775 0.0027377093 -0.004304741 -0.0044209007 -0.0009268024 -0.0066060983 -0.0039429334 0.0048887753 0.002620394 -0.0041093766 -0.010282049 -0.00075608224 -0.008110265 -0.0029563368 -0.0021908304 0.0004193618 0.0049221236 0.0035824731 -0.005370264 0.0054019755 0.0006359007 -5.883749e-05 -0.00430715 -0.0013397086 0.0019383569 -0.00029303157 -0.0046927035 -0.0014788234 0.002470672 -0.0038566699 -0.0048060976 0.002714124 -0.0011687161 0.0010562252 0.007442197 0.0023531327 0.0032528092 -0.0006688878 -0.004038554 0.0016454946 0.0004245981 -0.0021517696 0.0026996296 -0.0011093379 -0.0048581543 -0.0071113277
238 -0.001038274 -0.0027605575 -0.0005762501 0.0073028984 0.008606541 -0.0013931012 -0.0022330505 -0.00031977196 0.010858343 0.0007180203 -0.0017045371 -0.00275118 0.0036397923 0.0023557446 0.0024168708 0.001387262 -0.001196655 0.0008967555 -0.004220694 -0.003948664 0.00051781884 0.004350831 0.0028664907 -0.013470047 0.00038952584 0.010289836 0.00061892526 -0.0005991008 0.0035235437 -0.0060522337 -0.0016680387 0.0032523966 -0.00039938153 -0.0071870117 0.0020465981 -0.006357767 -0.008906597 -0.0042717224 0.0045462064 -0.0033592812 -0.008607855 0.0076975347 -0.003581206 0.0034118283 -0.003973239 -0.0024417865 0.0034950105 -0.004894169 -0.0026467105 0.0009984474 0.00545913 0.003864403 0.0044215918 -0.0068734544 0.0044484297 0.0087284 -0.006348549 0.0022408732 -0.00013697812 -0.002956756 -0.0061033126 0.0066816737 -0.0002431157 -0.0048858523 -0.007231985 0.00040614037 -0.009292273 0.0043596746 -0.004356588 -0.0077492855 0.0006743417 -0.0020361976 -0.0036512497 0.0014188888 0.0012607528 0.002927253 0.0026378974 -0.003197022 -2.0799973e-05 -0.00043872633 -0.0046061445 -0.0065535605 0.0011951666 -0.00436504 0.0018267292 0.0050903354 0.0031040679 0.0053847483 0.0057484005 -0.002045216 -0.0007962618 0.0014093159 0.0023797469 0.0019678834 -0.002339454 -0.00091495283 -0.004860883 -0.0073192674 -0.00576871 -0.0061752666
19 -0.007502038 -0.0033304687 -0.00012637043 0.009697578 0.0029621962 0.0009052959 0.0014177628 0.007667196 0.010846552 -0.0026126339 -0.008592307 -0.000998909 0.0055013364 -0.0023440763 -0.0031687375 0.0018683564 -0.006251504 7.55022e-06 -0.0038615095 -0.0029568365 -0.0036591636 0.004678544 0.009440893 -0.011615021 -0.0020587149 0.0097234165 0.00086530286 0.00520453 -0.0015283426 -0.0054876166 -0.0014484794 0.0027563642 0.0038436267 -0.00016257739 0.0009236779 -0.0043008737 -0.012147179 -0.011914851 -0.0005474125 -0.005047245 -0.012272523 0.0012643109 -0.006380115 0.0009548636 -0.002198128 0.004503138 0.0038580212 -0.0016307151 -0.0020267994 0.0050729658 0.006200322 0.004088395 -0.0027186102 -0.001793063 0.005565919 0.0042675817 -0.008995895 -0.0026138187 0.0010525252 -0.011547967 0.0007296343 0.005959019 -0.0006695472 -0.0035304984 -0.014672253 0.0027082574 -0.0029299404 0.005200238 -0.00502293 -0.006885606 0.00018306356 -0.00063533394 0.00043165722 0.0029550535 -0.0064368662 0.0055025495 -0.005630456 -0.0018565084 -0.001045146 -0.00607208 -0.0028124058 -0.0014641286 -0.004741018 -0.0037904968 0.000673325 0.0035574653 -0.0012130153 0.005073754 0.0070288647 0.006917024 0.0033993348 0.004015925 0.0022054953 0.002240098 -0.0058936956 -0.0023803976 -0.0027819164 0.0014265545 -0.005572656 -0.002087213
116 -0.0046119858 -0.0008063309 -0.006042432 0.007575617 0.007812929 0.002809743 0.0041667935 0.0072656 0.007937924 -0.007089538 -0.0015710325 0.0060281474 -1.87434e-05 -0.0027332702 -0.002233475 0.0023499879 -0.0062781293 0.0061305715 -0.010500151 -0.0010734553 -0.006021252 0.002455669 0.0031638744 -0.018350942 -0.0054376363 0.015477536 -0.00035669561 -0.0025595636 -0.0015184752 0.0025251827 -0.0014545044 0.0031675538 0.0017155198 -0.0044852467 -0.0014924292 -0.0031567442 -0.0112561 -0.008469013 -0.000878954 -0.0057535493 -0.009376534 0.011155796 -0.0059615825 -0.0034821527 0.004164141 0.0063799266 0.0032301357 -0.0051467465 -0.011078728 0.005871697 0.0013746818 0.00797565 -0.0031434451 -0.0031818983 0.0004930048 0.0070580505 -0.007930134 0.0013020275 -0.0029103167 -0.0072429813 -0.006333643 0.0053603593 0.005378302 -0.010123264 -0.016262144 0.0066279634 -0.0072021033 0.002187137 0.0017213733 -0.0054695294 0.0042397934 -0.00409841 -0.007466374 0.005408084 -0.0039148727 0.004943583 -0.0061473805 -0.008697914 -0.003650915 -0.0025944095 -0.0010007446 0.0013630138 -0.0013544511 -0.0049378704 -0.004267689 0.006686286 0.007757453 0.00555115 0.012090611 -0.0010132656 0.0043794913 0.005137675 -0.0063397437 0.0037804183 -0.006064369 -0.0032816536 0.0026778032 -0.00558126 -0.011719224 -0.0049664346
97 0.0005120258 -0.0009657094 0.0017968997 0.010098616 0.0017337565 0.005187038 -0.0009944179 0.005012662 0.0064091426 -0.0013377196 -0.009733842 0.005864784 0.0056318273 -0.003050635 0.004941753 -0.0016305348 -0.002525359 -0.000512874 -0.007481528 -0.002060727 -0.0035924988 0.0016604282 0.008158266 -0.012217826 -0.005982192 0.015565826 0.0023100602 -0.0003793906 -0.0016075472 -0.0025517496 0.000909996 -0.0020787143 0.005054217 -0.0009440671 -0.0066438434 -0.0005351445 -0.0052112183 -0.014379523 0.00012250464 -0.010062396 -0.007514079 0.011272639 -0.009314539 0.0022042645 -0.0007333386 0.00455609 0.005269847 0.0017466454 -0.003937181 0.01014434 0.003426493 0.0058553843 -0.002804247 -0.0014353658 0.0017767056 0.009801004 -0.0061953277 0.001273375 -0.0035688353 -0.011938637 0.0015811934 0.0072492985 0.00567878 -0.0025431006 -0.013937196 -0.00152982 -0.0019629535 -0.003233409 -0.001597134 -0.0031121734 0.0010907954 0.0042562634 -0.00058040745 0.012349202 0.0012247867 0.001235738 -0.0028461132 -0.0027375035 -0.008339972 -0.0012475315 -0.002642114 0.0011583896 0.0026884268 -0.007364594 0.0009398579 0.003517917 0.0024163362 0.0042326353 0.006082041 0.0034664976 0.0028676712 -0.00049768697 -0.005434557 0.004658447 -0.005994174 0.0025448601 0.00038369632 -0.006057017 -0.0016349585 -0.007941544
186 -0.0017141196 1.9385487e-05 -0.002419916 0.001022649 0.0060772034 -0.0025323036 0.0050686286 0.0061543602 0.013177337 0.00060957746 -0.0032908681 0.007365455 -0.00046139112 -0.003029884 -0.003025809 0.00025851923 -0.005581095 0.0027743776 -0.006836998 6.6817636e-05 -0.0029224616 0.009665472 0.005331723 -0.01152885 -0.0002595137 0.014308288 0.006176459 0.0022192225 0.0028533451 -0.002430529 0.00031605852 -0.0027719543 0.006041799 -0.0014672551 -0.0075296126 -2.6471454e-05 -0.0037103537 -0.011173257 0.0067091654 -0.006483221 -0.011658433 0.009751459 -0.009183916 0.0016284684 -0.0046885726 -0.0024014465 0.00017743494 -0.0017966293 -0.0035823022 0.0031378022 -0.0013519983 0.00012437557 -0.004053938 -0.0072035263 0.003262952 0.0019825655 -0.006169989 0.0039813356 0.0043885275 -0.008562167 -0.0059999046 0.004387507 0.0020672118 -0.0008496966 -0.008539632 -0.0020506883 -0.0082724895 0.0065283948 -0.005345587 -0.0036845445 0.0070678424 0.0007250886 -0.0039181667 0.0071102576 0.0016506409 -0.00021793575 -1.7118677e-05 -0.00652447 0.0005748515 -0.00654896 -0.007627146 -0.005754782 -0.003728484 -0.004804858 -0.0058336994 0.0009591356 0.0047050533 0.006768691 0.004151024 0.00311961 -0.0010663477 -0.002285087 -0.0035292609 0.008058453 0.0008568701 0.0033127454 0.0029327956 0.0007759267 -0.006234027 -0.00234488
196 0.0003833148 9.3637937e-07 0.0009361592 0.0074544973 0.003622971 0.0013721806 -0.00069478183 0.0011447029 0.003788375 0.0021115066 -0.008857067 0.0019521075 0.0009507908 0.00020835441 -0.00208658 -0.0024976053 -0.0025577196 0.0021753884 -0.003343712 0.002858787 -0.0059972317 0.0064830943 0.004264553 -0.009165887 0.00018987161 0.013022857 0.0053026048 0.0042627538 0.0027305905 -0.0020833916 -0.00017777833 -0.005640274 0.003258622 -0.007183962 -0.002008869 -0.0056864736 -0.00423938 -0.013607087 0.0021083888 -0.0023473005 -0.0120417895 0.010535932 -0.0071598976 0.0020720547 -0.0032649457 0.0017771523 0.00047072474 0.0022572957 -0.008683502 0.0039740927 0.0060625626 0.0078924885 -0.002086364 -0.0019049288 0.0054765963 0.00829043 -0.004455408 0.0028811449 0.0025528627 -0.007957572 -0.004002122 0.006659536 -0.00015526201 -0.00483689 -0.0062593417 0.002236654 -0.0109160505 0.0020205504 0.002786558 -0.0024282984 0.0057844943 -0.001000462 -0.004823773 0.0059488746 -0.0035798876 0.00021163703 -0.0031419436 -0.004647601 -0.0073858746 -0.0038372036 -0.0020085867 0.00071525906 -0.001630327 -0.004802904 -0.00057393423 0.0011269016 0.00433721 0.0015286832 0.011726412 0.0020529847 0.0019697465 0.004469685 -0.0067959945 -0.0016173138 -0.0005298657 -0.004774854 -0.00016476821 0.001902393 -0.009294491 -0.0076277745
72 0.0014842674 -0.00011134133 -0.0043374007 0.009043132 0.0063563776 0.0030730595 -0.0028555538 0.005339338 0.0026639178 -0.0070454306 -0.00022551027 0.002909796 0.0056342073 0.0024663778 0.004929379 -0.00094516453 -0.002785809 -0.0031757094 -0.004238874 -0.0013960252 -0.00062977604 0.008948196 0.00021853505 -0.010987861 -0.0017264006 0.008010174 0.0040783975 0.0039371005 -0.0043010334 0.0025484976 0.0008978723 -0.0017950708 0.0032889706 0.0013782519 -0.002569435 -0.00060498004 -0.0066669364 -0.0050227903 0.0018443124 -0.00017011147 -0.009613446 0.0064493846 -0.010372798 -0.0013856987 0.004446212 0.006142547 0.004936341 0.0021939147 -0.006927314 0.009240282 0.0061872527 -0.00024579922 0.0014247642 -0.003099954 0.0022493787 0.008850826 -0.010468168 0.00328053 0.0012735924 -0.003621597 -0.0017075416 0.0052686925 -0.0010327005 -0.005076238 -0.004585259 0.00038126085 -0.005997885 0.0014658212 -0.005526735 -0.003997053 0.007120171 0.0029296267 -0.0029734112 0.010645712 0.0033568745 0.0011467012 -0.004594572 -0.0012551653 -0.0034155191 -0.0066737686 -0.007884465 0.00227125 -0.0049624676 -0.007225016 -0.0047062906 0.0005532319 0.0020631 0.0059787743 0.0048870263 0.0036386538 -0.002871379 0.0035613861 -0.00083956606 0.000112693604 -0.0034013689 -0.005247041 -0.003102624 -0.0005144993 -0.009077427 -0.0071539483
84 0.0012110511 -0.002709978 -0.004625239 0.0016320142 0.00060280965 -0.003560199 -0.0013797128 -0.00068783876 0.010530537 -0.005383072 -0.007639125 0.0018504413 0.0013255493 0.0018078944 0.0056299386 -0.0012684509 -0.0025979625 0.0042666057 -0.008671831 -0.0061804308 -0.00445139 0.0074416655 0.008328653 -0.010787657 -0.0001883011 0.015720518 0.0060644774 0.002069889 -0.004817893 0.00080428214 0.0029753717 -0.005156881 0.00730505 -0.007436268 -0.00062872906 -0.0019240599 -0.011530514 -0.013481835 0.0028509288 -0.009473138 -0.0095572425 0.009290188 -0.011273954 -0.0038001628 -0.00297566 0.005594703 -0.0045962934 -0.00483501 -0.0035276632 0.007245088 -0.00253904 -0.00057912606 0.0006747582 0.00024404253 0.0071563204 0.0062785405 -0.0056943186 0.0016937893 -0.0057856073 -0.007908488 0.0010831755 0.0016579839 0.0046720323 -0.009852885 -0.011323136 0.0055795466 -0.009137757 0.0037437826 -0.005469097 -0.0065524788 0.0051474245 -0.0031749257 -0.0064402106 0.010280663 -0.0047398047 0.0012272082 -0.0035646243 -0.0065718396 -0.0066866064 -0.007962551 -0.0030078297 -0.00440053 0.0006135231 0.0018271363 -0.0047507044 0.0066448627 0.0050498107 0.0018073107 0.0054762284 0.0040031904 0.0012110873 0.0059468076 -0.0025999635 0.006357315 -0.004951845 -0.00048279847 -0.0010522223 -0.0018231292 -0.005600763 0.0006209125
175 0.0026145044 0.0024875058 0.0017073476 -6.198019e-05 0.008158078 -0.00413248 0.00045352723 0.0036717113 0.0047152834 -0.0066318368 -0.007303444 0.0026588535 -0.0013677168 -0.0022179189 0.0011358998 -0.0011097292 -0.006522741 -0.0020764943 -0.006161293 0.00024966474 -0.005231055 0.0014780231 0.008032825 -0.014195794 0.0029321366 0.015053391 0.006808764 -0.0016228821 0.0010009856 -0.0008997496 -0.0026902705 -0.005666895 0.0037465186 -0.0017329402 0.00023114067 -0.008100981 -0.005725723 -0.0057614455 0.003553589 -0.009391655 -0.0106283855 0.007920079 -0.0038595814 -0.0025343415 0.0012937635 0.0036551526 0.0036290905 -0.0015340626 -0.0059005213 0.0035578033 0.001349068 0.0063855397 0.004748129 -0.0001980821 0.0033962408 0.010038975 -0.005322814 -0.0049121273 -0.003011076 -0.0061978144 0.0011308518 0.0015569916 -0.0002608809 -0.0058061057 -0.005479681 0.0061962577 -0.010786008 -0.00042855908 -0.003182454 -0.0016935378 0.0003603039 0.0039500277 -0.0034631256 0.011594968 0.0019956327 0.0055402652 -0.0028467465 0.0001941963 -0.0056424844 -0.004756673 -0.006551991 0.002887697 -0.00039439276 -0.0019915851 -0.0017484876 0.00021441099 0.0042267833 0.0047835656 0.009030721 -0.0010802518 0.00011514942 0.003063584 -0.006188189 0.0064197197 0.002707683 0.002302594 -0.0009861552 -0.0052529797 -0.005811829 -0.004571266
178 -0.003566597 -0.00045625606 0.0006076173 0.0046853623 0.0046101036 0.0027880555 -0.00026782328 -0.000103919665 0.012430765 -0.0008297908 -0.0017093837 -6.6258e-05 0.004718495 5.698484e-05 0.003431876 7.791639e-06 -0.006965421 0.005084953 -0.008479506 0.0019462571 0.0003678273 0.0026641774 0.0017703028 -0.012294325 -0.0047531393 0.01347366 -0.002161182 0.002539 0.002298988 -0.004901762 -0.0015984627 0.0018172672 0.0018157688 -0.0074256286 0.0019396864 -0.0025291126 -0.0117216 -0.012148547 0.006065944 -0.0022775955 -0.010785436 0.006856566 -0.010289636 0.0018080827 -0.0035244813 0.00010090794 3.104925e-05 0.003957461 -0.00356761 0.008112305 0.0041348333 0.0007441112 0.0054821176 -0.005254561 0.0046804026 0.008679498 -0.009925175 0.003361651 -0.0052369433 -0.0067006145 -0.007967205 0.0009332325 0.0053627975 -0.008252897 -0.012951472 -0.00042144666 -0.007555144 0.0051021697 -0.003238521 -0.007963887 0.0010710199 -0.0016814208 -0.0007590094 0.0028897084 -0.0057707224 0.0037803878 -7.873433e-05 -0.0064999694 -0.0047217426 -0.0005645873 -0.0036164722 -0.0061436263 0.0017895942 -0.005561119 -0.0070006703 0.00019342318 0.0024264555 0.0078342995 0.0067948094 0.005446467 0.001841265 -0.0006723857 -0.0059488765 0.0047835005 -0.000838289 -0.0010594726 0.0026545844 0.0016620554 -0.0015303552 -0.0012985502
4 0.0011878918 -0.0046641654 -0.0020939875 0.008638059 0.00488503 -0.0022104043 0.0016545125 0.0080776755 0.00917805 -0.00089630584 -0.008504997 0.0054674926 0.0021821111 -0.0006349899 0.0055737714 0.0031771185 -0.0027758454 0.00109879 -0.00015646941 0.0007145712 0.00039235575 0.008683998 0.004987723 -0.011841942 -0.00071651285 0.009268558 0.0049168575 -0.002460934 -0.0034011756 -0.0057965904 -0.0029752124 -0.0025995995 0.004636975 -0.0036759754 -0.0071250135 -0.0007233906 -0.0017802101 -0.010350197 -0.0017261574 -0.0008972455 -0.012707777 0.0070723626 -0.01042794 0.0040817135 0.0032008062 -0.0014388493 -0.004729778 0.0020039687 -0.008604885 0.007052915 0.0034967714 0.007858686 0.0037547199 0.0008866474 0.0072007272 0.008235461 -0.011769362 0.0021467023 -1.0321247e-05 -0.01150011 -0.005786271 0.00034095053 0.006844798 -0.0029522886 -0.013818122 0.0026388261 -0.007169456 0.006203856 0.000544469 0.0014294849 0.0028630793 -0.0010343316 -0.0021189011 0.0042128633 -0.0025229019 0.0065318765 -0.006140127 -0.0037990368 -0.0034363633 -0.0040220204 -0.007661317 -0.003350252 -0.0039197723 0.0011157208 -0.0037826633 0.0055004167 0.0043088035 0.0010832489 0.00760311 0.0017238178 0.0025044447 -0.00062989496 0.0024032858 0.007896383 -0.0009519216 -0.0010706277 -0.003258699 -0.0067993803 -0.0022645781 -0.0065844045
132 -0.0051482944 -0.0044422257 -0.001645027 -0.0007080703 0.002851415 -0.004804478 -0.0036931916 -0.0018366992 0.008873989 -0.0019130532 -0.0006516952 0.0016894412 0.0041453983 -0.000594565 0.004031232 -0.00052278984 -0.004583594 -0.0015310943 -0.008087515 -7.403592e-05 0.0008765371 0.0022264577 0.00635382 -0.00786655 -0.0016733011 0.0074686552 0.0034641956 0.0028925543 0.0011000208 -0.0040444895 0.0024077825 0.00063700473 -0.0021895058 -0.0013482632 0.0016862681 -0.0030948063 -0.006225896 -0.009307104 0.0010600351 -0.007200865 -0.0029429796 0.003260951 -0.0007871554 -0.0010158377 -0.0042176708 0.0038106348 0.004460055 0.003741912 -0.00013849029 0.00036446663 0.003215927 -0.0017479035 0.00073616434 -0.0041041444 0.005616038 0.007665476 -0.008784143 0.0022471037 -0.0002015842 -0.006379014 -0.0046860958 0.005479645 -0.0010631564 -0.0059697162 -0.0027977088 -0.0013116428 -0.00790629 0.0045913258 0.00085912686 -0.006420071 -0.0024802994 -0.004440841 0.0017469543 0.008017026 0.0033449556 0.0039124 -0.0022277036 -0.004537188 -0.0044514677 0.0014414057 -0.0035050616 -0.0033225622 -0.003467988 -0.0019608296 -0.006339921 0.0063510654 -0.002951539 0.0060610287 0.004217829 0.005912758 0.0013258714 -0.0018948857 -0.005560759 -0.0014412857 -0.004112717 -0.00037867238 -0.0010016791 -0.004952154 -0.006999297 -0.0018017644
47 -0.0013763938 -0.0067073116 -0.0042644963 0.00875974 0.0065050083 0.0043935594 -0.0023925942 0.0018600108 0.0036942004 -0.0067543522 -0.0036725912 -0.0012778427 0.0031583537 -0.0052784067 -0.00078896305 0.00010217665 -0.0077646943 0.003872784 -0.00016347086 0.00030042243 -0.0033667204 0.0046976376 -0.00055296964 -0.015977353 -0.0049766726 0.015577761 0.0027462272 -0.003288193 -0.0038529185 -0.005889229 -0.0016158165 -0.0041515543 0.0070759924 0.001426893 -0.0033588624 -0.0039175847 -0.009862333 -0.009719611 -0.0018576926 -0.005900963 -0.008467273 0.001401351 -0.0116087515 0.003820864 0.0038660918 0.004582951 -0.0011123642 -0.0025104189 -0.0008675489 0.0093416795 0.0053333533 0.001714204 0.0046520433 -0.00441141 0.0019553602 0.005110099 -0.0077648233 0.0016953192 -0.005591454 -0.008023635 -0.0032783411 0.0042587505 0.004165852 -0.007967289 -0.011847498 0.0036922116 -0.008738878 -0.0030851169 0.0003655854 0.0007980374 0.0063544344 -0.0035659326 -0.00847787 0.0026407433 0.0027956665 0.0038443303 -0.0019523666 -0.00794896 -0.0005890678 0.0009947829 -0.002550467 -0.005658059 -0.0007502615 -0.004508037 -0.004823637 0.0037592454 0.0052250437 0.0049400493 0.0064542796 0.006789166 -0.00024871636 -0.00010399941 0.0018639698 -0.0009216317 0.00081011606 0.0037472532 -0.0033579255 0.0003121026 -0.010057287 -0.007292784
23 0.00043012315 -0.0017525855 -0.0010530074 0.004609685 0.0025328752 0.0025910255 -0.0015060226 0.00042208345 0.01300048 -0.0005214715 -0.0029819563 0.0062435227 0.0057591666 0.0014577785 -0.0025493423 -0.0004578478 -0.0068611135 0.004189741 -0.0051461463 2.2687631e-05 -0.0036065017 0.0056949886 0.00643841 -0.015843865 -0.003262551 0.016399778 0.004794677 0.0065773716 0.0009575653 -0.0029111293 -0.0037670415 -0.005112128 0.0012651935 -0.0027326015 -0.004887207 -0.002057274 -0.010098718 -0.012432588 0.002994752 -0.007953137 -0.013385163 0.008580521 -0.010871131 -0.001926183 -0.0013157132 0.0025080403 -0.0005066203 -0.0017949094 -0.002484664 0.0013925341 0.0055073723 0.00077009475 0.0018293525 -0.0068542575 0.00020718615 0.0011204493 -0.0072827893 -0.003415429 -0.0030812891 -0.009952399 -0.006167883 0.0038778635 0.0022837922 -0.007902758 -0.009524065 0.0009413353 -0.0069638635 0.0011591195 0.0006998516 0.00020919612 0.005509288 0.0037226786 -0.0057922616 0.0033125894 -0.005035369 -0.002490085 -0.0037400702 -0.0035908208 -0.0030174563 -0.005928007 -0.009089826 -0.0030989274 0.00021806282 0.0023417738 0.000786415 0.0050880504 5.4180717e-05 0.0023044758 0.007639635 -0.0013846557 0.0015467693 -0.001942195 0.0021100566 0.008079862 -0.0012539455 -5.603938e-05 0.00087982643 -0.0006147141 -0.008319374 -0.007537824
39 0.0028317766 0.0032881072 0.002680736 -0.0002549563 4.6834735e-05 0.0046304036 0.00045273654 -0.0005384947 0.0026627309 0.00056582555 -0.0038761995 0.0030190349 0.0020334476 -0.00012464487 0.0048852954 -0.0011802665 -0.00012835575 -0.00079383363 0.0002573697 -0.005016825 -0.0028221386 0.0067584855 0.004727014 -0.009205812 0.0003066322 0.007535979 0.0031606418 0.0030152316 -0.00095831277 -0.0052197124 -0.0004231185 -0.00061067805 -0.00042924174 0.00056243374 -0.0039913007 -0.0070690173 -0.009548175 -0.008867847 0.0037192549 -0.0007048383 -0.004672382 0.005529891 -0.007949795 -0.0009599332 -0.00078450545 -0.0016660378 0.003182747 -0.0017289998 -0.0021063264 0.0050147544 0.0017867147 0.0034672988 0.00022923193 -0.0024862625 0.002215562 0.0016049981 -0.008606381 -0.002710018 -0.00058478606 -0.009213211 -0.0021725534 0.0011712841 -0.0022139305 5.8267447e-05 -0.011799244 -0.0013933344 -0.0054122224 0.005232829 -0.0058546388 -0.0051202048 0.006274162 0.004436681 -0.00522812 0.009567436 -0.0011251549 0.0011612064 -0.0037273644 -0.0011819624 0.0020455015 -0.0052467114 -0.007192901 -0.00085495913 -0.0018128201 -0.0016108915 -0.0033933204 0.0053917444 0.0009155171 0.004965422 0.010187573 0.0052915295 0.0037218335 0.0009710654 -0.0010885115 0.0005516127 0.00026317983 -0.0047781416 0.003619481 -0.00054989033 -0.0025200676 0.00063480507
115 0.0022373958 -0.0024310218 -0.003813248 0.0075254645 0.0037714974 -0.00018111932 0.0043157907 0.00042733643 0.011694182 -0.006380773 -0.0057306206 0.0075446055 0.0071136467 -0.003938479 -0.0007966245 -7.011071e-05 -0.0053989473 0.0012999554 -0.009639826 -0.0003918771 -0.00417402 0.0003753776 0.0018788143 -0.017066967 -0.0033012968 0.016662413 0.0019373628 0.0059440276 -0.004741982 -0.0030844936 0.0023693999 -0.0056714667 0.0060861413 -0.002493358 -0.0049667065 -0.006407544 -0.00865512 -0.008255199 0.003396928 -0.0032182601 -0.0061583514 0.0019770188 -0.012625843 0.0036043646 -0.004620484 -0.0023208677 -0.00245348 -0.00018654774 -0.0032308127 0.0032674284 -0.00087280927 0.0072265486 -0.0040192585 -0.0010204617 0.008629688 0.008868791 -0.005956726 -0.0005740645 0.0040296973 -0.003333762 -0.0015046275 0.004959273 0.0060460684 -0.0009274807 -0.009612051 0.0068125622 -0.003555719 0.0055409223 0.0022132033 -0.00033768476 0.0030632077 0.0045192926 1.8837898e-05 0.003756224 -0.0018097782 0.0050917002 -0.0026986506 -0.0065144286 -0.009432265 -0.0072882073 -0.00044068403 -0.0055097463 -0.0027333614 -0.0008582049 -0.0002968711 0.00067298405 0.0051720217 0.00065025553 0.008332663 0.0030825895 0.0061360165 0.00045735174 0.0021676032 0.0061394963 -0.0032865596 -0.0015620646 -0.0018206458 -0.0013897021 -0.0022182828 -0.0025119877
157 -0.0012923847 0.0012637798 -0.005286948 0.0008723627 0.0065408507 -0.0014533394 -0.0022304435 0.0013343215 0.0123623805 -0.0026199226 -4.6154284e-05 -0.001818357 5.2311305e-05 -0.0033940584 -0.0031670365 -0.000674998 -0.0074912813 0.0001992344 -0.0038495727 -0.004885985 -0.0018824817 0.00011840084 0.0031099133 -0.0128883645 -0.0020106141 0.016088074 0.0035123613 0.0018960364 -0.0028911645 0.00273707 0.001227182 0.002752299 -0.00019519523 -0.0072602206 -0.006670934 -0.0053109797 -0.005952452 -0.00534983 0.0019392404 -0.005698634 -0.011674038 0.009041388 -0.006191968 -0.00084423524 -0.0039236587 0.00092726754 -0.001861804 0.001833008 -0.0027866948 0.0039004313 0.0044268603 0.0034904415 0.003403777 -0.0071822284 0.0063441773 0.009311067 -0.010447183 0.0013221442 -0.0023481955 -0.004163197 -0.0072004 0.0037274521 0.0030492186 -0.007766713 -0.0052295607 0.0034649 -0.0031765127 0.0023957996 -0.0018550603 -0.00450586 0.002040166 0.0048005604 -0.008488854 0.0050421935 -0.005448574 0.004033569 -0.0016269811 -0.00608107 0.0007501087 -0.00097339234 -0.0049400255 0.0009844179 0.0041038506 -0.0003632696 0.0001830337 0.00038101873 0.00663916 0.00922094 0.0039917254 -0.002265434 0.0010374807 0.005010449 -0.0010814394 -0.0016651204 -0.00263799 0.0006174243 0.0011514629 0.0018770141 -0.0014207738 -0.0028255833
209 -0.007664267 -0.0004544254 -0.005980613 0.009098994 0.0028774156 0.00037744612 0.00013447796 7.5846394e-05 0.007873394 0.0013649529 -0.008647284 0.00071568106 0.0018815919 -0.0065560276 0.0015731637 0.0055438145 -5.764341e-05 -0.0020004967 -0.0023539632 0.002020175 0.0017435402 0.0047515607 0.001293727 -0.016833927 0.000637283 0.019000353 0.002596622 0.00308166 0.0024884741 0.0005142655 0.00019420448 0.0031700225 0.002144028 -0.008359245 -0.0049434197 -0.0056823753 -0.008965128 -0.015518157 0.006700833 -0.0042377175 -0.010054871 0.0030992208 -0.006999594 -0.0032332875 -0.0045149303 -0.0010486268 -0.0026143568 0.0025678405 -0.011059414 0.0038691973 0.0023540691 0.008762832 0.0030462758 -0.003240045 0.008714626 0.0042679673 -0.012730773 0.0020394945 0.00084511144 -0.013501745 -0.007452715 0.0015687147 0.006465654 -0.0011977763 -0.013912166 0.006824585 -0.01184973 0.00023267616 0.00054898806 -0.0051345793 0.0016126471 0.00467791 -0.008931243 0.004501396 -0.003135856 0.0070360745 -0.0070225983 -0.0070160534 -0.0065071294 -0.00063244323 -0.0015402588 -0.0017677357 -0.0036050163 0.0023677382 -0.007482465 0.001655864 0.0077197845 0.0071706665 0.011532016 0.0015651932 0.005635502 -0.0030459855 -0.0039847014 0.006859616 -0.0015014175 0.0030049612 0.0013273938 -0.0010755945 -0.00238064 -1.2448832e-05
207 -0.0020173623 -0.003151584 -0.00022433979 0.002636067 0.007127035 0.003871161 -0.0013254941 0.007624271 0.0135704735 -0.0028378442 -0.0029205345 -0.00015515223 0.0029227978 0.00015230522 0.0029477691 0.00043474883 0.00033839332 0.005782856 -0.002983058 0.0002397516 2.3485212e-05 0.007881582 0.0100358315 -0.018985525 0.00030193885 0.013102962 0.0010123716 0.0019540088 -0.006004012 -0.004741966 0.0016835772 -0.0048648654 0.0072599626 -0.007328273 -0.0026757785 -0.00041073927 -0.012520313 -0.006886062 3.7066307e-05 -0.0073814113 -0.008472154 0.009289861 -0.0066044694 -0.00020756532 -0.0046570776 -0.0008877085 -0.0013635114 -0.0028655392 -0.0032998067 0.010769894 -0.0011356112 0.0073259594 0.0019995498 -0.008325051 0.0005756962 0.0043815547 -0.010629626 0.0036380005 -0.004951983 -0.011584733 -0.0033592032 0.00095944514 -0.00016511249 -0.0070813843 -0.011685013 0.00147215 -0.008602055 0.0044870023 -0.0009785305 -0.00048227698 0.0035144403 0.0011417101 -0.0002521516 0.0040007923 -0.00056178204 0.0022766357 -0.004223764 -0.0063489284 -0.003512981 -0.007341421 -0.009404446 -0.0064802784 -0.004976295 -0.0020313638 -0.003151515 0.0005060045 0.0045315856 0.0056142877 0.01258771 0.0062040095 0.0037782406 -0.0021314009 -0.0029850528 0.004228737 -0.0040980102 -0.0016506456 -0.0009985368 -0.006289844 -0.008970463 -0.0055784453
76 -0.0044997754 -0.007174992 -0.005263602 0.006937068 0.0010424644 -3.0188217e-05 0.00074896874 0.004201244 0.013794581 -0.00042448347 -0.0069744997 -0.0007025127 -0.00040056184 -0.004349492 0.0018202116 -0.00065882376 -0.0030144907 -0.00042858286 -0.00044507722 0.001581825 -0.004066796 0.009706765 0.009275007 -0.016471282 -0.005389389 0.017081967 0.007335181 0.004146521 -0.004812865 -0.00092231826 0.003360305 -0.0058400165 0.006308186 -0.0073570623 0.0011547189 -0.005362179 -0.004333747 -0.008655298 0.0042050495 -0.005603487 -0.0064333007 0.009317629 -0.0073282393 0.00019267587 0.0033537906 0.002256008 0.00033877738 0.0031749948 -0.005825803 0.0030486397 0.0051637813 0.003459185 0.0014216842 -0.004884473 0.00033053444 0.0040543326 -0.012044898 0.0037531527 0.0027285814 -0.006710289 0.00053042604 0.0036860148 5.3474374e-05 -0.0027001167 -0.012979449 0.003155894 -0.007144733 0.0038182186 0.0017706087 0.0006281 0.003004221 -0.0033513322 -0.0034922345 0.011126825 -0.004635106 0.006889357 -0.004772715 -0.000894647 -0.0003850304 -0.0052847625 -0.0029601352 -0.0015359959 -0.004156981 -0.0075632283 -0.0031463676 0.0022887092 -0.0007335567 0.009571037 0.005330539 0.0071980776 -0.0029532192 6.1741366e-06 0.0018159717 0.007989206 -0.002017618 -0.0032713446 -0.0057236482 -0.0011996876 -0.0109440405 0.00094010495
249 8.684077e-05 0.0019162027 0.002016401 0.007132669 0.0039553414 0.0015653131 0.0003539553 -0.0007386998 0.010121794 -0.0048548626 -0.0055221664 -0.0022762183 0.003011263 -0.0046644476 -0.003678801 0.0006101209 -0.0018352096 0.00261809 -0.008792626 -0.0022186008 -0.0067431866 -0.0009321351 0.0043706973 -0.011819718 -0.0024248008 0.013356496 0.005316333 -0.0030506041 0.003781603 -0.0053402316 -7.248674e-05 0.0035303882 0.0060925595 -0.0012307378 0.001122256 -0.0055620586 -0.0053297146 -0.009413212 0.0033340475 -0.004897807 -0.0070708455 2.0078834e-05 -0.0066372054 -0.0009399756 -0.003931098 7.644405e-05 -0.0017292704 0.00012146423 -0.0029320496 0.009487594 0.0056578056 -0.00052685314 0.0024780089 0.002185306 0.005698954 0.0013588889 -0.009978263 -0.004340508 0.0020791867 -0.00803225 -0.0068123345 0.0068519125 0.00295124 0.00068322563 -0.011471773 -0.0013875236 -0.003366386 0.0016592629 0.0026355435 0.0011508036 0.0041318624 -0.0007051507 -0.00020748185 0.00780034 0.003278946 0.0018712227 0.0019223354 -0.0033516067 -0.004083829 -0.004740069 -0.0066548353 0.0022008116 0.0030050292 0.0009944421 -0.0042175744 -0.0007186586 0.0026683123 0.004840292 0.0026829056 0.006789364 0.005626076 0.0031214522 0.0021003834 -0.0024058763 0.0017421992 0.0039302744 -0.005217784 -0.00629788 -0.006543557 -0.003844501
159 -0.0028456866 -0.0044744145 0.00030243036 0.0058728205 -0.0010201694 -0.00037505757 -0.0023256466 0.0009663974 0.002538161 -0.004432615 -0.0045765936 0.0027456875 -0.0014817567 -0.000963218 0.0044208304 0.003541413 -0.005349226 -0.0029139582 -0.00011966645 -0.002163505 0.0023514542 0.008737825 0.0013519278 -0.0066377157 -0.005450015 0.0075216074 0.004337278 0.0020726314 -0.0026474479 -0.00017084373 0.0043625734 -0.004881351 -0.0013022126 -0.0050443434 -0.00011802111 -0.0004187745 -0.009370406 -0.012461184 0.0010075666 -0.0016488455 -0.0072508915 0.008575834 -0.0033118902 -0.001877688 -0.0051070508 0.0016449078 -0.002430277 0.0035608804 -0.0044239834 0.0011925419 0.0026825138 0.0024990942 0.0040751155 -0.0062152823 0.0023105524 0.006197519 -0.0061140168 0.0015881839 -0.0024958123 -0.010828546 -0.0022833864 0.0036349457 0.005877379 -0.007060623 -0.0120137865 0.005167265 -0.0024834669 -0.0003139625 7.2131836e-05 -0.0031055193 0.0007966505 0.0027247327 -0.005992404 0.0074883597 -0.00572993 0.0044835233 0.0027307887 -0.004756712 0.0010564275 0.0024305587 0.0010660634 -0.0047283377 7.964651e-06 0.0023013495 -0.0043918053 0.004942609 -0.001135648 0.0036351818 0.008058531 0.0018682153 -0.00115581 -7.68915e-05 -0.0058019133 0.0024724728 -0.0023690502 -0.003268363 -0.0051307413 -0.0054351273 -0.0072301384 -0.006065056
14 0.001177751 0.0015353445 -0.0018565475 0.0047110757 0.0018026239 -0.0014034671 0.003866872 0.007343128 0.010666955 -0.0053886715 -0.003794734 0.0033585741 -0.0015038559 -0.002647863 0.0025752052 0.0045159054 -0.0070473813 0.0043549673 -0.0049644075 0.0012639972 0.00086735334 0.0056231706 0.00028581978 -0.012639574 0.0031035277 0.017433567 0.003225909 -0.00071159576 -0.002087857 -0.002345825 -0.0029086284 -0.0018747159 0.001365717 0.0014129644 -0.0041896007 -0.0076353173 -0.0067301 -0.008594297 0.0044067707 -0.009769509 -0.0054466897 0.0010887355 -0.011827756 -0.0042245956 -0.0033405554 -0.0013256852 -0.0030624743 -0.0017410378 -0.0045205685 0.00095103576 0.0025701607 0.005912927 0.0036030987 -0.0030186984 0.006055021 0.0066617467 -0.008804804 -0.0048933616 -0.0040426943 -0.0045612645 -0.006641984 0.0036756545 -0.00037195822 -0.0032573096 -0.010580419 0.007262542 -0.010671433 -0.0019407975 0.00031489486 -0.0015589381 0.0051071383 0.00018107363 -0.006806405 0.0043446715 0.002675333 0.005045106 -0.004646302 0.0008796297 -0.0021148755 -0.007011244 -0.00092063134 0.0013223444 -0.00044982997 -0.006662396 -0.0015831176 0.0050235773 0.0071326788 0.0033311853 0.0072412207 -0.0021701637 0.003594235 0.0025311266 -0.003138344 0.0057639503 -0.0012868462 -0.0047960863 -0.0021376547 -0.0060153855 -0.008984235 -0.007032938
46 -0.00064429565 -0.0014116387 -0.004365594 0.0041159485 0.0052149897 0.0042930963 -0.0014219758 0.0075182677 0.0064096986 0.001627243 -0.0015670409 0.0032427348 0.006010727 0.00046103532 -0.0008526972 0.0014729709 -0.007464271 0.0046214527 -0.006032152 -0.0034340438 -0.0010766218 0.008119424 -0.00023763854 -0.011663789 0.0022763351 0.012726626 0.0068194675 0.001370786 0.0030799096 -0.0041280063 0.0012071097 -0.005582624 0.0066501223 -0.001568857 0.00077538873 -0.0012655427 -0.0064220354 -0.0031735331 0.0071946504 -0.0038141117 -0.010000323 0.0013997114 -0.009661912 -0.0011121299 0.0006946389 0.005244447 0.002209909 -9.3634386e-05 -0.008388563 0.0020777725 0.0035130114 0.0027232845 0.0045554577 -0.0046257437 0.007681072 0.0054877223 -0.010733651 0.0003470167 -0.0009278542 -0.0071103084 0.00030844414 -0.0005073748 0.006593718 -0.0074382713 -0.011741792 0.005170324 -0.003371673 -0.0011051241 0.00027492622 -0.0052543404 0.0043457146 -0.003989398 -0.006240599 0.002668775 -0.002635017 -0.0017146402 -0.0009174701 -0.007952804 -0.0056585562 -0.0046568373 -0.0049257237 -0.004960483 0.0025494958 -0.004600863 -0.005653459 0.004035138 0.0059017134 0.0028238343 0.0029808055 0.0005702099 0.0041664336 0.004997461 -0.002746839 -0.002103077 -0.003820356 -0.004960933 -0.0031589395 0.0020370139 -0.0029113693 -0.0005881307
18 -0.004541496 -4.7729707e-05 -0.0012717287 -0.00020552569 0.0029042675 0.002756159 -0.0035276911 0.002750335 0.008959511 -0.006384197 -0.006617733 0.0027380262 0.004311518 -0.0015098164 0.002698082 0.0019581947 -0.0031411992 0.0008340022 -0.0044945283 -0.005081234 -0.002990552 0.00764611 0.0050782585 -0.015870342 -0.00049481663 0.011628865 -0.0021378088 0.0008703574 -0.0037224405 0.0019418393 0.0005947593 0.0029905064 0.0054889163 -0.0012524518 0.0023459145 -0.00585149 -0.0038351896 -0.0044743735 0.007047692 -0.00033954927 -0.011708337 0.00858803 -0.012168378 -0.0025168168 -0.004665479 0.0016742804 -0.00021053158 -0.0015528109 -0.0057734656 0.0060685547 0.0015588477 0.0064523746 0.0032472927 -0.0010144941 0.0040705055 0.00157773 -0.006577754 0.0005386806 -0.0011531021 -0.009547922 -0.0037015604 0.00024493094 0.00411217 -0.0055113817 -0.012331349 0.0062658917 -0.006747937 0.003200015 0.00069985684 0.0003764673 0.005415685 -0.0028499037 0.0001563052 0.0032830494 -0.00063826225 -0.0021034102 0.0023324708 -0.0045047966 0.0005326336 -0.0023462134 -0.006310822 -0.006847855 0.0009714094 -0.0019597649 -0.0029574563 0.0013287023 -0.002286132 0.0034007637 0.004382447 0.00020093677 0.0007974857 -0.0036071711 -0.005888602 1.03323255e-05 0.0009868685 -0.004854882 -0.0027552657 -0.0018757721 -0.0034275604 -0.007337083
96 -0.0072338167 0.0003002687 0.0025621725 0.0043967282 0.0051923865 -0.0038034006 0.0047411784 0.0038167187 0.009426378 -0.0025070014 -0.0020144596 -0.0014964318 0.0064925374 -0.0033028955 0.005877497 0.0022319078 -0.004752754 0.0049461606 -0.009634396 -0.0041065956 -0.0067681903 0.005024739 0.0032147288 -0.016200818 -0.0012259656 0.0189743 -0.00016454794 -9.221259e-05 -0.002355387 0.0030012934 -0.00071756315 -0.002685376 0.0061684074 0.0012137396 -0.007265516 -0.003947453 -0.006484048 -0.0049500833 -0.0007912548 -0.009152034 -0.013957259 0.0022820141 -0.009811423 0.0012773827 0.0033779342 -0.0016387013 0.003432605 -0.00063116977 -0.003389209 0.009541336 0.005638143 0.0055804276 0.0029688356 0.00026435617 0.004925803 0.010252992 -0.011816133 -0.00049004686 -0.0002102732 -0.008881711 -0.00084045477 0.00074894226 0.0066797934 -0.009907411 -0.009686889 0.0037339523 -0.004182065 -0.0027447932 -0.0025123646 -0.0033668005 -0.00042225423 -0.002635702 -0.0018532895 0.0048021907 0.0006596357 -0.00014528914 -0.0063797054 -0.0009777441 -0.0003362214 -0.00371775 -0.0033042643 0.00017290672 0.002779336 -0.006651185 -0.002814475 0.0069683366 0.0063206884 0.00781277 0.004396655 0.005600423 0.0015378922 0.0050106402 -0.0012648634 0.0019327563 0.00076823815 -0.0029333844 0.0023544787 -0.0029011625 -0.0030423307 -0.00015650762
3 -0.004116811 -0.0053763846 -0.00047310212 0.0032178294 0.005168144 0.0003616746 0.0051452364 0.0017400316 0.0038612152 0.00061717787 -0.0055921255 0.0044991733 0.003847053 0.0032821915 -0.0011893945 0.005281654 5.8923502e-05 -0.0043263175 -0.0061458973 -0.0035542978 -0.002328716 0.0008777038 -0.0004980721 -0.010802663 0.0013927819 0.0090234 0.006832033 0.0061224997 -0.0010919651 -0.0019221581 -0.0012202072 0.002765129 0.0036475908 -0.0012046553 0.0022817114 -0.005547497 -0.009876944 -0.012389308 0.0015402323 -0.0067279516 -0.010154698 0.0057735136 -0.0041723615 -0.0051775873 -0.0030846915 0.006809165 0.0017884942 -0.004432782 -0.0053161914 -8.329864e-05 0.0038877118 0.007490067 -0.00078678114 0.00017825163 0.007619108 0.0069818716 -0.00921985 -0.0003887958 0.003882971 -0.001889043 -8.686343e-05 0.0066869333 0.00513579 -0.0055234204 -0.005810586 0.0060738814 -0.007770199 0.0010313775 -0.0044225585 -0.0027583835 0.00050242495 -0.0031207064 -0.0011712548 0.007019951 -0.0038532005 0.0022941073 -0.005685244 -0.0031462384 0.001005396 -0.0069345348 -0.002637892 -0.0062787924 0.0006330286 0.0011417003 -0.0004822524 -0.0013145009 -0.0005469635 0.007886119 0.009882287 -0.00046176085 5.126412e-05 0.0045080916 0.002869953 -0.0012171603 -5.888145e-05 -0.0017240124 0.0014111934 -0.0063123023 -0.006498226 -0.0019494148
108 -0.00014410572 -0.0036995076 -0.005557568 0.009664476 0.00280083 -0.0024671976 0.002773739 0.005478588 0.0046024346 -0.0030704085 -0.0064601814 0.0032816823 0.005185628 -0.0046651494 0.0035759818 0.0033689192 -0.0024863519 -0.0025900304 -0.003761382 -0.0026876747 -0.007269669 0.00878423 0.005337647 -0.017484475 -0.00066492695 0.012214915 0.0062559485 -0.0014737925 -0.0010763297 -0.0058049983 0.0007918775 0.0026677428 0.0010006623 -0.004366118 -0.0014835298 -0.0044814604 -0.0032600772 -0.007756635 -5.084439e-05 -0.009314067 -0.013976943 0.007616426 -0.0120161595 -0.002458332 -0.0033129877 -0.002242853 0.0010641537 -0.0029278407 -0.0051780646 0.002921629 0.0015302796 0.008236146 -0.0018795223 -0.0055558793 0.0060850442 0.011495336 -0.012105722 -0.0024015908 0.0029364792 -0.0063014445 0.00084715907 -0.00016656177 0.006788929 -0.0051371153 -0.011852996 0.00606761 -0.0087797595 0.0066309953 0.0015745576 -0.0066504315 0.0014799363 -0.003728693 -0.0045447284 0.008304292 -0.0038115226 0.0025458443 -0.0055432036 -0.008930113 -0.0075462526 -0.0017221877 -0.0055239084 -0.0013423763 0.0020167013 -0.0064304103 -0.00682533 0.0069838343 0.00157094 0.0067085484 0.009539121 -0.00024368787 0.0051023685 -0.00042979498 -0.0029759798 0.003530295 0.0027446286 0.0024392048 -0.0021593645 -0.0012257356 -0.007735503 -5.9691094e-05
55 -0.005574056 -2.5450707e-05 -0.0031675403 0.004510459 -0.001182181 0.00079480984 0.00018944526 0.0002450511 0.011199942 -0.0034756372 -0.00053090806 0.0020905354 0.006853047 0.00059803826 0.0017718228 0.0003884621 -0.004975935 0.005740008 -0.001163674 -0.0062577794 -0.0005778186 0.0075121354 0.0033016005 -0.015611693 0.0026128783 0.010856598 0.0033145004 0.0036492688 -0.0017471294 -0.0004818425 0.0019864333 -0.005689263 0.0064049335 -0.0072708335 -0.0065304996 -0.0059563243 -0.0016113585 -0.010886204 -0.00026204946 -0.0013787368 -0.0052949404 0.007405047 -0.0028294497 0.00025468267 0.0018874727 0.003752454 -0.00094664627 -0.00013515183 -0.006543777 0.00540503 0.00079461775 0.0038846266 0.003464902 -0.002995516 -0.0015578774 0.006600515 -0.009494022 -0.004941503 -0.0014749224 -0.008131747 -0.0024102796 0.007430209 0.0061699813 -0.003123696 -0.00827192 0.0031835728 -0.0006204355 -0.0020988954 -0.0066683316 -0.0049071806 0.0022370983 0.0030018133 -0.006540929 0.005075785 -0.002196723 0.0010940579 0.0032147379 -0.0073789223 -0.0050411383 -0.006630623 -0.006500617 -0.0052844463 -0.005517667 -0.006260367 -0.0029824516 -0.0013472154 0.0017310664 0.0029929676 0.005536974 6.430689e-05 -0.0026413088 -0.0006683682 0.0015550843 0.0029114648 0.002261256 0.002848077 0.0007937058 0.0012427256 -0.0003533572 -0.005375489
131 -0.0026672592 -0.003105109 0.0021327692 0.0005142115 -0.0007731518 0.0016325448 0.0035117685 0.0065425066 0.0038600941 -0.0028763262 -0.007497485 -0.0025094699 -0.0019496637 -0.0028521824 -0.0029229384 0.0046645547 2.728523e-05 -0.002424244 0.0012262076 0.00273314 -0.0061749434 0.0046335086 0.0020562666 -0.008077208 -0.0062779845 0.0141440015 0.0048704767 -0.002548744 0.0007060891 -0.0037009506 0.0029109295 -0.0020432905 -7.0697395e-05 0.00080643094 0.0007945441 -0.00069914834 -0.009241321 -0.00390206 0.0020077436 -0.0047797654 -0.0077820867 -0.00043371707 -0.009008125 0.0035314858 -0.0037818018 0.001284895 0.0013888406 -0.003777327 -0.008818986 0.009151019 -0.00082631776 7.579405e-06 -0.0024843137 -0.0041377423 0.00073731446 0.003879087 -0.011338432 0.0013965148 -0.00056079123 -0.007428279 -0.0041365176 0.0011665408 -8.071517e-05 -0.006421939 -0.0086374525 0.00094203243 -0.0077995877 -0.0010179408 0.0026522775 -0.00091572176 0.0064256764 0.0031628583 -0.0025207328 0.005505816 -0.0014805959 0.00029329828 0.0018643506 0.0006462677 -0.0027309423 0.0015025267 -0.004923853 -0.0049020415 0.00045341774 -0.0016282905 -0.006575531 0.00026239455 0.00023747188 0.00592965 0.0068315407 0.004707474 0.005657946 -0.0014188334 -0.0056761294 0.00574115 -0.0025112708 -0.0020268986 -0.0013735441 0.0018858475 -0.007774086 -0.0017979591
162 -0.006920106 0.002118368 4.589658e-05 -0.00055328966 0.00552312 -0.0030479461 0.002424639 0.0065732915 0.007814379 -0.004694001 -0.0069540716 -0.00070708006 0.0022054256 -0.0010118382 -0.0006498808 -0.00064125657 -0.0072702025 0.0038811956 -0.008383482 -0.0055157277 0.0020675168 0.00028430365 0.0065038297 -0.008295359 -0.0030056685 0.008893561 -0.0012320168 0.003413004 0.0009491862 0.0014308228 -0.0016288318 -0.0059439796 0.0055170697 -0.0026192085 0.0025749155 -0.0021666873 -0.0029000253 -0.004572145 0.0023006543 -0.006456162 -0.0046397625 0.0070077954 -0.010893198 0.004347782 -0.0011233046 0.0036503104 0.0051657874 -0.004664829 -0.0042419466 0.0032515952 0.0015127326 0.0037926682 -0.0028687543 -0.00576256 0.007454774 0.0065360223 -0.008157222 -0.0050262953 -0.0010640769 -0.0056742057 -0.003400867 -0.00046898657 0.0037201487 -0.0034272808 -0.010302063 0.0015648069 -0.008051408 0.00021014767 -0.0043157684 -0.0021594241 -0.0011693881 0.0026761105 0.0005096523 0.0020599437 -0.0017756777 -0.0015389784 0.0024483663 -0.008167871 0.00040655164 -0.00052769703 -0.008224104 0.002467247 -0.0053916746 -0.00059095706 -0.0012385186 0.0012566458 0.0013030851 0.0049996516 0.0049598287 0.0039507933 0.0006700033 -0.0034464498 -0.00065318943 0.0042412463 -0.0049888813 -0.0030291905 0.0015312464 0.002070715 -0.008263552 -0.0035658085
111 0.0016074929 -0.0056696734 0.0035149509 0.007616095 0.007653963 0.0034924813 0.0037665076 0.00017072062 0.010597765 -0.0038089475 -0.008972453 0.0054411413 0.0006509989 -0.004277989 0.0006096043 -0.0001064667 -0.00033234048 -0.0038424043 -0.0014262728 0.0023180584 0.0023420416 0.009143776 0.008552505 -0.014915652 -0.0036294148 0.010279387 0.0010028189 -0.0010173898 0.0017141214 -0.0064197765 -0.0043140114 -0.0042774314 0.0018348169 -0.00093594776 -0.006906042 0.00013467693 -0.010044345 -0.004818706 0.0064093047 -0.01010564 -0.008556376 0.0040631047 -0.009229478 0.0019514023 0.001142585 -0.0012106355 0.00017723555 -0.0048373067 -0.0031319049 0.001975435 0.003939807 0.0023862363 0.005243605 0.00075889763 0.002150762 0.0022957136 -0.011759059 -0.0024170144 0.0026829075 -0.010955873 -8.490373e-05 0.0081635 0.0036653879 -0.00048231008 -0.013292903 0.005250261 -0.004015268 0.005875154 -0.0050032665 -0.006317035 0.0068899305 0.005808675 -0.002947193 0.003452014 0.0028621906 0.005780672 -0.0041711726 -0.0041730125 0.00033005956 -0.0059696194 -0.00564478 0.0028141295 0.0020093701 0.0009480446 -0.0071627544 0.004162632 0.0018749529 -0.00036529786 0.012100063 0.0044896165 -0.002774092 -0.0021613121 -0.00048146184 0.0042845365 -0.001017479 -0.0019582857 0.003973922 -0.0015614344 -0.010735728 -0.0011677523
151 -0.002695394 -0.0014002633 -0.0051500006 0.0019170438 0.008027039 -0.0041507133 -8.6841355e-05 0.005851228 0.006310161 0.00043360886 -0.006580928 0.005967458 -0.0005386753 -0.0051151523 0.0024541894 0.0025307091 -0.0062837633 0.004672278 -0.00100146 -1.6975891e-05 -0.0048780544 0.0070795007 0.008280265 -0.0077577974 -0.0009090177 0.010597603 -0.0021837936 0.0005222586 -0.003962468 -0.0041304315 0.0033906067 -0.0019931782 0.0053300774 -0.0051181605 -0.0067901914 -0.0011831876 -0.008542661 -0.008942706 0.006933533 -0.0042208894 -0.011669898 0.0055614645 -0.002744853 -0.00418257 -0.0009466159 -0.0022826293 -0.00024802514 0.002474854 -0.0044650687 0.0054790275 0.005919345 -0.00051440834 -0.0026021455 -0.0055491733 -0.000842795 0.002308067 -0.004629685 -0.003568914 0.002614845 -0.0026944284 0.001811519 0.0066249142 -0.0012453505 -0.005068172 -0.004770461 0.0010591338 -0.0012841837 0.0025503566 0.0032992975 -0.004492799 -0.0009965188 -0.00066840806 0.0014284225 0.0006674381 0.0018364238 0.006289463 -0.0023889723 -0.00031394494 -0.007529 1.7720307e-05 -0.004438885 0.00061883003 -0.0022825173 -0.005130992 0.0009810324 0.004005716 -0.0002835672 0.0043291193 0.009917632 -0.0021561682 0.00017346407 0.0009879421 -0.0029081916 0.0046482957 0.002845842 0.004118271 -0.0037411684 -0.005102841 -0.0001882225 -0.0056922534
119 -0.0055286544 -0.006978504 -0.0013605169 0.0072148615 0.0039714677 -0.00066426874 0.0036585028 0.009222427 0.012874065 -0.0023069833 -0.00834923 0.00622774 0.007613902 0.00063063804 0.0020800063 0.0014780884 -0.003814419 -0.0028822448 -0.005687116 -0.005587833 -0.003564269 0.0047343126 0.0038794451 -0.0123457415 0.0015780526 0.01943384 0.006343089 0.0006733555 -0.0034917567 -0.003594561 0.0016814072 0.0028594579 0.0040355185 0.00022259282 -0.0052458155 -0.0017493427 -0.0119430525 -0.008370405 0.000603922 -0.0023211578 -0.009684219 0.003948233 -0.0079613095 -0.0025653671 -0.003946791 0.005402516 -0.0015009929 0.0005531181 -0.008373647 0.0030914266 0.0038433808 0.009156373 0.0032329678 -0.004954521 0.0035477162 0.003253039 -0.010663654 0.0007016796 -0.0019879176 -0.012279389 -0.0050997497 0.0047598057 0.0040551666 -0.003808179 -0.011629101 -0.0018246239 -0.0036326365 -0.0031630765 0.0018115885 -0.005121561 0.0034645626 -0.00040909703 0.00015669854 0.007919859 -0.0013698584 0.004611594 -0.0054710987 -0.004340898 -0.0025030426 -0.0016712699 -0.0038652688 -0.0013675563 -0.002532871 0.00090832554 -0.0042815884 -0.00013589364 0.00086530065 0.003968076 0.011210897 -0.0009513847 -0.0009838538 0.0038109065 -0.0029659134 0.0071743918 -0.0041134297 -0.0008977184 -0.005333903 -0.0061060647 -0.0029669993 -0.0047527356
109 0.0014995643 -0.0048166183 -0.0025019848 0.009621154 0.0028391567 0.0025656219 0.0034666357 0.002562167 0.011232054 0.00011228284 -0.010667322 0.0017965509 0.0006182624 -0.001235537 0.005049861 0.0051664193 -0.007273688 0.0019093103 -0.0063254354 -0.00053357356 -0.000735329 0.007021523 0.0045307856 -0.012341703 -0.0050569135 0.018352728 0.0077754324 0.0045570713 -0.00017534172 0.0024795344 0.0031958479 -0.005291281 5.7590223e-05 -0.0027797094 -0.0034389526 -0.005951057 -0.013120616 -0.013190596 0.0021530783 -0.008513981 -0.014868654 0.011260083 -0.009087736 -0.0013642121 -0.003454582 -0.00013618187 0.0029477875 0.0031297999 -0.00902949 0.0033964226 0.0040176827 0.008108195 0.0026182728 -0.0009271963 0.002224005 0.007109167 -0.015550425 0.0010953062 0.0034114316 -0.009762871 -0.0065555233 0.0034229814 0.006571818 -0.0011379329 -0.015049358 -0.0008724206 -0.0044540986 -0.0005427083 -0.0059925467 -0.0021587661 -0.00071570487 -0.0005585572 -0.004093031 0.0070641204 0.00046892185 0.000559772 -0.0062249578 -0.008634147 -0.005312304 -0.0077142455 -0.008710343 -9.4995325e-05 -0.0056278263 0.00028127356 0.00067004573 2.7486574e-05 0.0024763695 0.0014544472 0.0065469104 0.0022158283 -0.002912913 0.0059680105 0.0014701085 0.005436401 0.0012949088 -0.0047002845 0.0026834942 -0.0042705904 -0.010449167 -0.0008738269
200 -0.0036916956 -0.0016493793 -0.0061679743 0.009571127 0.001547336 0.0023442605 0.0029080026 7.2659124e-05 0.012658122 -0.0037342727 -0.0010951362 0.0007096698 0.001256364 -0.004904004 -0.002942008 0.0015108407 -0.00399273 -0.0011346786 -0.0080085425 -0.001254329 -0.0013531913 0.008630443 0.005996189 -0.0144572845 0.00072406157 0.017901005 -0.0005037471 0.004494158 0.0010164747 -0.0063106846 -0.0037640797 -0.0003323921 0.0051846458 -0.003983239 -0.0050499043 -0.004535442 -0.01154891 -0.010951459 0.008044648 -0.0034411214 -0.011274871 0.009993094 -0.00822003 -0.004670154 -0.00537724 0.0027766824 0.0029765503 -0.0005486365 -0.0017297114 0.0049236347 0.001086988 0.0065590404 0.0041918117 0.0016037393 0.0041114194 0.0024302332 -0.009565498 -0.0014563013 0.0008639742 -0.010198918 -0.008661348 0.003157861 0.0010152626 -0.0031365813 -0.0125227505 0.005183116 -0.0039857593 0.0062638964 -0.004307858 -0.006884181 0.0018173802 -0.0010100064 -0.0007104237 0.0044726897 0.0014928599 -0.0023190104 -0.0055758166 -0.0071325903 -0.009081093 -0.0054163835 -0.005438884 -0.0051039034 -0.005229704 -0.0033148944 0.0021498508 0.007123358 0.0044758683 0.007454181 0.00790173 0.0040275673 0.0025321785 -0.0033891457 -0.0003045631 -0.0013547391 0.0010488988 0.0024915442 8.590088e-05 -0.004403478 -0.010185056 -0.0005195393
100 -0.0025524725 -0.0043291384 3.4657372e-05 0.0043344866 0.0047468203 0.0023314632 -0.002107936 0.0068839067 0.011111344 0.0019163481 -0.0016619643 -0.002280627 0.003848005 0.0026288752 0.0016784867 0.0008210956 -0.0007934921 0.0027463227 -0.008173642 0.0014893075 0.0010105473 0.0029939017 0.0031670355 -0.015457683 0.0028690866 0.011239034 0.0015900945 -0.0016543334 0.0039662044 -0.00020806397 0.0037227375 -0.005759938 0.004142535 -0.0074439887 -0.0023761664 -0.0032904358 -0.00467799 -0.00942044 0.00032537006 -0.009929824 -0.009212606 0.007179927 -0.007795868 -0.0043253084 -0.0014865017 0.0038415005 0.0031488647 -5.3507236e-05 -0.0031710279 0.010172837 0.003922833 0.0076873135 -0.001261739 -0.0005086899 0.0018039817 0.007868983 -0.01404636 -0.0035635584 0.0041894433 -0.004856364 -0.003017891 0.0012915425 0.0007158376 -0.00041294907 -0.009237323 -0.001066501 -0.0049343607 0.0030415286 -0.0064858473 -0.0035905247 0.0055272398 0.0006675985 -0.0039920597 0.005137782 -0.003940042 -0.0022973306 -0.0005263415 -0.0049071587 -0.0006042084 0.00168451 -0.007310261 -0.0017251105 0.00054429483 -0.0056363773 -0.0067135766 0.004567343 0.0046543344 0.003932186 0.008146277 0.0018220023 -0.001576013 0.0055658263 -0.0043828106 0.0013843223 0.0036173807 -0.0011216613 -0.0019107519 -0.0030586415 -0.00817669 -0.0051372736
